<?xml version="1.0" encoding="utf-8"?>
<opencv_storage>
<cascade type_id="opencv-cascade-classifier">
  <stageType>BOOST</stageType>
  <featureType>LBP</featureType>
  <height>24</height>
  <width>24</width>
  <orientation>270</orientation>
  <stageParams>
    <boostType>GAB</boostType>
    <minHitRate>0.9950000047683716</minHitRate>
    <maxFalseAlarm>0.5000000000000000</maxFalseAlarm>
    <weightTrimRate>0.9500000000000000</weightTrimRate>
    <maxDepth>1</maxDepth>
    <maxWeakCount>100</maxWeakCount></stageParams>
  <featureParams>
    <maxCatCount>256</maxCatCount></featureParams>
  <stageNum>20</stageNum>
  <stages>
    
    <_>
      <maxWeakCount>3</maxWeakCount>
      <stageThreshold>-0.7520892024040222</stageThreshold>
      <weakClassifiers>
        
        <_>
          <internalNodes> 0 -1 46 -345472 -262208 9394334368 -384080 -4195672 -1352 -89132502 -79695326</internalNodes>
          <leafValues>
            -0.6543210148811340 0.8888888955116272</leafValues></_>
        
        <_>
          <internalNodes> 0 -1 13 -8231325696 -3097493696 -8388640 -16 -10219552 -48099612 -626690 -16385</internalNodes>
          <leafValues>
            -0.7739216089248657 0.7278633713722229</leafValues></_>
        
        <_>
          <internalNodes> 0 -1 2 17420523776 -2147483648 -11864719392 -25445392 -22746056 -55825232 -83621752 -8556744</internalNodes>
          <leafValues>
            -0.7068563103675842 0.6761534214019775</leafValues></_></weakClassifiers></_>
    
    <_>
      <maxWeakCount>4</maxWeakCount>
      <stageThreshold>-0.4872078299522400</stageThreshold>
      <weakClassifiers>
        
        <_>
          <internalNodes> 0 -1 84 11810119808 16977625024 3891273888 34359146480 134217720 121632764 -33554434 134215679</internalNodes>
          <leafValues>
            -0.8083735704421997 0.7685696482658386</leafValues></_>
        
        <_>
          <internalNodes> 0 -1 21 30064770944 -2148040768 -4294967328 12817791984 134217720 16448504 117440510 15921842</internalNodes>
          <leafValues>
            -0.7698410153388977 0.6592915654182434</leafValues></_>
        
        <_>
          <internalNodes> 0 -1 106 -3029350016 -26751270976 -9136427136 -4194320 -6131896 100683720 -17842776 -53125649</internalNodes>
          <leafValues>
            -0.7506558895111084 0.5444605946540833</leafValues></_>
        
        <_>
          <internalNodes> 0 -1 48 -1049216 -64 -3467643936 -1107296784 -49918168 -8196 68485696 -14821505</internalNodes>
          <leafValues>
            -0.7775990366935730 0.5465461611747742</leafValues></_></weakClassifiers></_>
    
    <_>
      <maxWeakCount>4</maxWeakCount>
      <stageThreshold>-1.1592328548431396</stageThreshold>
      <weakClassifiers>
        
        <_>
          <internalNodes> 0 -1 47 -329088 -589888 -2416268640 -2147816784 -1352 -1288 -6301142 -46140886</internalNodes>
          <leafValues>
            -0.5601882934570313 0.7743113040924072</leafValues></_>
        
        <_>
          <internalNodes> 0 -1 12 -6442977408 17446207424 -4588568736 -6442450960 -17875208 11464700 -16812164 -26333185</internalNodes>
          <leafValues>
            -0.6124526262283325 0.6978127956390381</leafValues></_>
        
        <_>
          <internalNodes> 0 -1 26 -2147492096 -805832256 -537919872 -2759852048 -3146696 60680180 -3153970 -78337</internalNodes>
          <leafValues>
            -0.6114496588706970 0.6537628173828125</leafValues></_>
        
        <_>
          <internalNodes> 0 -1 8 -2147487872 34350825152 -302570272 17523699952 -24 -8454148 117373608 -130515214</internalNodes>
          <leafValues>
            -0.6854077577590942 0.5403239130973816</leafValues></_></weakClassifiers></_>
    
    <_>
      <maxWeakCount>5</maxWeakCount>
      <stageThreshold>-0.7562355995178223</stageThreshold>
      <weakClassifiers>
        
        <_>
          <internalNodes> 0 -1 96 -2148011776 32078001984 -4000 -2415935504 -80 116916216 -1310726 -4227073</internalNodes>
          <leafValues>
            -0.4051094949245453 0.7584033608436585</leafValues></_>
        
        <_>
          <internalNodes> 0 -1 33 23443391744 -4303358016 -42500320 -8388624 -54260144 -4800644 -266386 -17</internalNodes>
          <leafValues>
            -0.7388162612915039 0.5340843200683594</leafValues></_>
        
        <_>
          <internalNodes> 0 -1 57 -624000 -327744 -18462016 -1159663616 -808 -4 -33818962 -9560</internalNodes>
          <leafValues>
            -0.6582943797111511 0.5339496731758118</leafValues></_>
        
        <_>
          <internalNodes> 0 -1 125 -33792 -15841886272 -7823604736 -8335163856 -16842768 -28311564 -19988512 -99627009</internalNodes>
          <leafValues>
            -0.5981323719024658 0.5323504805564880</leafValues></_>
        
        <_>
          <internalNodes> 0 -1 53 31976452992 16911433664 -537135648 -16 34861712 41891572 -83887106 -67243265</internalNodes>
          <leafValues>
            -0.6498787999153137 0.4913350641727448</leafValues></_></weakClassifiers></_>
    
    <_>
      <maxWeakCount>5</maxWeakCount>
      <stageThreshold>-0.8085358142852783</stageThreshold>
      <weakClassifiers>
        
        <_>
          <internalNodes> 0 -1 60 -2826996480 -2694842560 -268436160 -536874016 -33554608 55012208 -1052676 -1310721</internalNodes>
          <leafValues>
            -0.5278195738792419 0.6946372389793396</leafValues></_>
        
        <_>
          <internalNodes> 0 -1 7 -134221312 -671132608 -633248 -8497903760 -8 -3936348 -68161946 50333186</internalNodes>
          <leafValues>
            -0.5206505060195923 0.6329920291900635</leafValues></_>
        
        <_>
          <internalNodes> 0 -1 98 23838096512 -2686451904 -32 -16 -45330464 84234220 -53282 -1050625</internalNodes>
          <leafValues>
            -0.7516061067581177 0.4232024252414703</leafValues></_>
        
        <_>
          <internalNodes> 0 -1 44 -134217856 -17251172416 -32 11742180272 -2056 62911408 -6 58457010</internalNodes>
          <leafValues>
            -0.7639313936233521 0.4123568832874298</leafValues></_>
        
        <_>
          <internalNodes> 0 -1 24 17973904384 -940748992 -16215495712 -3112214544 -5342176 133676780 -64777298 51101615</internalNodes>
          <leafValues>
            -0.5123769044876099 0.5791834592819214</leafValues></_></weakClassifiers></_>
    
    <_>
      <maxWeakCount>5</maxWeakCount>
      <stageThreshold>-0.5549971461296082</stageThreshold>
      <weakClassifiers>
        
        <_>
          <internalNodes> 0 -1 42 -279680 -64 -349280 -349536 -1096 -1284 -16778614 -8389969</internalNodes>
          <leafValues>
            -0.3763174116611481 0.7298233509063721</leafValues></_>
        
        <_>
          <internalNodes> 0 -1 6 34359736192 27849195456 -17448307744 -4295558160 -50331928 -131141400 -16844046 42656418</internalNodes>
          <leafValues>
            -0.5352765917778015 0.5659480094909668</leafValues></_>
        
        <_>
          <internalNodes> 0 -1 61 -327808 -17180196928 -813699456 -269595136 -4194360 -388 -2 -5492787</internalNodes>
          <leafValues>
            -0.5678374171257019 0.4961479902267456</leafValues></_>
        
        <_>
          <internalNodes> 0 -1 123 -21546974720 14561574720 -21744168320 -21541946512 -8651792 62651132 -84938016 -119291905</internalNodes>
          <leafValues>
            -0.5706262588500977 0.4572288393974304</leafValues></_>
        
        <_>
          <internalNodes> 0 -1 9 19460932096 -579050176 535971168 -2428746128 -5571160 -262276 78533228 -83166590</internalNodes>
          <leafValues>
            -0.5344601869583130 0.4672054052352905</leafValues></_></weakClassifiers></_>
    
    <_>
      <maxWeakCount>5</maxWeakCount>
      <stageThreshold>-0.8776460289955139</stageThreshold>
      <weakClassifiers>
        
        <_>
          <internalNodes> 0 -1 105 -12632224128 -1622149184 -11043602464 -4227088 67110592 12912604 -2125842 -2097153</internalNodes>
          <leafValues>
            -0.7700348496437073 0.5943940877914429</leafValues></_>
        
        <_>
          <internalNodes> 0 -1 30 -4311744640 -21484273728 -17251172384 -20447280 -89521320 -51476484 -3074 -2143233</internalNodes>
          <leafValues>
            -0.5043668746948242 0.6151274442672730</leafValues></_>
        
        <_>
          <internalNodes> 0 -1 35 -813695872 -2112 -32 -16 -66711568 -12234892 -27296778 -8388609</internalNodes>
          <leafValues>
            -0.6808040738105774 0.4667325913906097</leafValues></_>
        
        <_>
          <internalNodes> 0 -1 119 -4295493888 33680226240 -33827904 -277874960 52033392 -2131976 -1628162 -26478721</internalNodes>
          <leafValues>
            -0.4927591383457184 0.5401885509490967</leafValues></_>
        
        <_>
          <internalNodes> 0 -1 82 -18255184128 -64 -37781696 -11832256 -68090000 -67532808 133941246 -69633</internalNodes>
          <leafValues>
            -0.6445107460021973 0.4227822124958038</leafValues></_></weakClassifiers></_>
    
    <_>
      <maxWeakCount>6</maxWeakCount>
      <stageThreshold>-1.1139287948608398</stageThreshold>
      <weakClassifiers>
        
        <_>
          <internalNodes> 0 -1 52 -85197184 -64 -5368775712 9314151072 -67129480 -67125252 -2 -80008465</internalNodes>
          <leafValues>
            -0.5307556986808777 0.6258179545402527</leafValues></_>
        
        <_>
          <internalNodes> 0 -1 99 -9130090624 -9405727424 -538050624 -573571088 -44183592 -44085256 -33751046 -35655940</internalNodes>
          <leafValues>
            -0.5227634310722351 0.5049746036529541</leafValues></_>
        
        <_>
          <internalNodes> 0 -1 18 4176281472 21206924992 31270305760 -12884903184 -127226888 2632444 -16781442 -104466</internalNodes>
          <leafValues>
            -0.4983572661876679 0.5106441378593445</leafValues></_>
        
        <_>
          <internalNodes> 0 -1 111 -8749319808 -81808640 -547894016 -9126846864 -17658096 -97379568 89126170 -10657903</internalNodes>
          <leafValues>
            -0.4990860521793366 0.5060507059097290</leafValues></_>
        
        <_>
          <internalNodes> 0 -1 92 -29392434304 -21785604480 34357099936 17087609808 63520776 -37893860 57193390 -67505379</internalNodes>
          <leafValues>
            -0.5695009231567383 0.4460467398166657</leafValues></_>
        
        <_>
          <internalNodes> 0 -1 51 24095207296 -12600911168 -1277175008 -21219186144 -41026264 -963316 -8849972 -37714740</internalNodes>
          <leafValues>
            -0.6590405106544495 0.3616424500942230</leafValues></_></weakClassifiers></_>
    
    <_>
      <maxWeakCount>7</maxWeakCount>
      <stageThreshold>-0.8243625760078430</stageThreshold>
      <weakClassifiers>
        
        <_>
          <internalNodes> 0 -1 28 -2292993792 -8388672 -671090848 -16 -56349488 -12619780 -18 -4210689</internalNodes>
          <leafValues>
            -0.4972776770591736 0.6027074456214905</leafValues></_>
        
        <_>
          <internalNodes> 0 -1 112 -277613824 -526464 -1141509056 -470032 -281744 -25708812 -16777346 -4218885</internalNodes>
          <leafValues>
            -0.4383158981800079 0.5966237187385559</leafValues></_>
        
        <_>
          <internalNodes> 0 -1 69 23761153920 33219731392 33969901536 12830510832 -4743432 -7336216 -14941476 -783657</internalNodes>
          <leafValues>
            -0.6386105418205261 0.3977999985218048</leafValues></_>
        
        <_>
          <internalNodes> 0 -1 19 3874643328 21054881728 -11140301344 -7281325264 -51467528 49164284 -1054754 -85266433</internalNodes>
          <leafValues>
            -0.5512794256210327 0.4282079637050629</leafValues></_>
        
        <_>
          <internalNodes> 0 -1 73 -2969800192 922713984 -2290126048 -16659775568 -32588248 421672 -87264768 -127402258</internalNodes>
          <leafValues>
            -0.6418755054473877 0.3549866080284119</leafValues></_>
        
        <_>
          <internalNodes> 0 -1 126 -8925745280 -5436343616 23081192448 -16940832976 -29884624 67251808 -102868476 85331142</internalNodes>
          <leafValues>
            -0.4841901361942291 0.4668019413948059</leafValues></_>
        
        <_>
          <internalNodes> 0 -1 45 23481677696 -44598400 23620222944 -71701584 -15396904 -103150128 -100663298 -49275044</internalNodes>
          <leafValues>
            -0.5855734348297119 0.3879135847091675</leafValues></_></weakClassifiers></_>
    
    <_>
      <maxWeakCount>7</maxWeakCount>
      <stageThreshold>-1.2237116098403931</stageThreshold>
      <weakClassifiers>
        
        <_>
          <internalNodes> 0 -1 114 34348454144 22942840640 -4297735104 -557843280 -1552 98303992 -1050626 -4194305</internalNodes>
          <leafValues>
            -0.2518476545810700 0.7088654041290283</leafValues></_>
        
        <_>
          <internalNodes> 0 -1 97 -17866880 -35008 -131712 -537653232 -115088 -8391944 -2050 -360461</internalNodes>
          <leafValues>
            -0.4303432404994965 0.5283288359642029</leafValues></_>
        
        <_>
          <internalNodes> 0 -1 25 -12952207744 27915321280 -671350944 -2156143648 -84969232 -85037072 -67111172 -16847114</internalNodes>
          <leafValues>
            -0.4259553551673889 0.5440809130668640</leafValues></_>
        
        <_>
          <internalNodes> 0 -1 34 10535302016 34359476160 -18254414880 -262160 45609584 -8391940 -71306710 -14700049</internalNodes>
          <leafValues>
            -0.5605589151382446 0.4220733344554901</leafValues></_>
        
        <_>
          <internalNodes> 0 -1 134 19285409024 -15846080576 14201669184 -6728712416 -19398792 -26292228 -12062842 -22098009</internalNodes>
          <leafValues>
            -0.5192656517028809 0.4399855434894562</leafValues></_>
        
        <_>
          <internalNodes> 0 -1 16 1836147840 -8649248832 -11320164160 -10746567248 -89194968 123682556 -17944984 -30441810</internalNodes>
          <leafValues>
            -0.5013077259063721 0.4570254683494568</leafValues></_>
        
        <_>
          <internalNodes> 0 -1 74 -18282532608 -29817224960 34342677632 -4210960 -46153992 -55621832 -20518872 -7614529</internalNodes>
          <leafValues>
            -0.4631414115428925 0.4790246188640595</leafValues></_></weakClassifiers></_>
    
    <_>
      <maxWeakCount>7</maxWeakCount>
      <stageThreshold>-0.5544230937957764</stageThreshold>
      <weakClassifiers>
        
        <_>
          <internalNodes> 0 -1 113 -2368128 -576 -3548736 -4365486784 -4764304 -4100 -2 -4198401</internalNodes>
          <leafValues>
            -0.3949716091156006 0.6082032322883606</leafValues></_>
        
        <_>
          <internalNodes> 0 -1 110 12651328256 -19401810048 12799179488 -71303728 23071728 -101577008 133660626 -74369</internalNodes>
          <leafValues>
            -0.4855885505676270 0.4785369932651520</leafValues></_>
        
        <_>
          <internalNodes> 0 -1 37 -21478639872 -13421838400 -2828320 -4295298064 49013488 -18125956 33552048 -25186561</internalNodes>
          <leafValues>
            -0.4620285332202911 0.4989669024944305</leafValues></_>
        
        <_>
          <internalNodes> 0 -1 41 -8316256512 -12364018752 -1169536960 -9365161968 -30401168 -10744708 -21268432 -1372</internalNodes>
          <leafValues>
            -0.6420643329620361 0.3624351918697357</leafValues></_>
        
        <_>
          <internalNodes> 0 -1 117 -77594752 -33288094848 -3504526848 -17150645584 -2097192 -29708292 -88966490 -129826902</internalNodes>
          <leafValues>
            -0.4820112884044647 0.4632140696048737</leafValues></_>
        
        <_>
          <internalNodes> 0 -1 65 -9918620288 -23186109504 -22190245152 -31665894768 -52133160 -8388596 -84332132 -67112723</internalNodes>
          <leafValues>
            -0.4465552568435669 0.5061788558959961</leafValues></_>
        
        <_>
          <internalNodes> 0 -1 56 -18590466432 -21474836800 -4295034144 -23425259328 -17828112 119535612 -1034 -108188930</internalNodes>
          <leafValues>
            -0.5190586447715759 0.4441480338573456</leafValues></_></weakClassifiers></_>
    
    <_>
      <maxWeakCount>7</maxWeakCount>
      <stageThreshold>-0.7161560654640198</stageThreshold>
      <weakClassifiers>
        
        <_>
          <internalNodes> 0 -1 20 -4437573760 -698351808 -19369298464 19132313840 77889528 67375072 -626692 3756</internalNodes>
          <leafValues>
            -0.4323809444904327 0.5663768053054810</leafValues></_>
        
        <_>
          <internalNodes> 0 -1 15 -31145288064 -18636265152 -31786992160 -193657584 -48661480 -38307572 -36173494 -252280</internalNodes>
          <leafValues>
            -0.4588732719421387 0.4547033011913300</leafValues></_>
        
        <_>
          <internalNodes> 0 -1 129 -22628584832 13890975680 -21698137440 -17246980112 -67109968 125826980 -85198098 -67653701</internalNodes>
          <leafValues>
            -0.5218553543090820 0.4111092388629913</leafValues></_>
        
        <_>
          <internalNodes> 0 -1 102 -1073939584 -21474837632 -20947134432 -12427756752 -5259280 -130838608 -75303142 35268143</internalNodes>
          <leafValues>
            -0.4920000731945038 0.4326725304126740</leafValues></_>
        
        <_>
          <internalNodes> 0 -1 88 33342039040 27244614080 -2307071424 -3758114592 -1605904 4194028 -18138518 -10535190</internalNodes>
          <leafValues>
            -0.4494568109512329 0.4448510706424713</leafValues></_>
        
        <_>
          <internalNodes> 0 -1 59 24813795968 -9197203584 -5718094208 -73270544 -53623808 56542668 -100766722 14517463</internalNodes>
          <leafValues>
            -0.5180826783180237 0.3888972699642181</leafValues></_>
        
        <_>
          <internalNodes> 0 -1 27 15032661504 -19137157632 -9929656800 34195460368 -6159344 -8614900 30933024 -15375852</internalNodes>
          <leafValues>
            -0.6081240773200989 0.3333222270011902</leafValues></_></weakClassifiers></_>
    
    <_>
      <maxWeakCount>8</maxWeakCount>
      <stageThreshold>-0.6743940711021423</stageThreshold>
      <weakClassifiers>
        
        <_>
          <internalNodes> 0 -1 29 -16944143104 14626059328 18357249760 -4293918800 -9437208 129449496 -81384478 33558395</internalNodes>
          <leafValues>
            -0.1790193915367127 0.6605972051620483</leafValues></_>
        
        <_>
          <internalNodes> 0 -1 128 -17725340672 25232930752 -5336937088 -2181104656 -8406848 100660980 -83886082 116342783</internalNodes>
          <leafValues>
            -0.3681024610996246 0.5139749646186829</leafValues></_>
        
        <_>
          <internalNodes> 0 -1 70 -8631886080 12473860032 -13433094784 -5136 -8 66259652 -68186534 -39432408</internalNodes>
          <leafValues>
            -0.3217232525348663 0.6171553134918213</leafValues></_>
        
        <_>
          <internalNodes> 0 -1 4 3764586624 20408079040 21510246368 -15460430224 -16847656 -17814372 -49442772 -1120236</internalNodes>
          <leafValues>
            -0.4373284578323364 0.4358185231685638</leafValues></_>
        
        <_>
          <internalNodes> 0 -1 76 9210755328 -26944088640 13955473376 -18493732432 1114120 -46726780 37214200 92172479</internalNodes>
          <leafValues>
            -0.4404836893081665 0.4601220190525055</leafValues></_>
        
        <_>
          <internalNodes> 0 -1 124 -7533133952 -31960598592 -16914118144 -16244560080 -21037072 117108472 -51389478 -22237203</internalNodes>
          <leafValues>
            -0.4294152259826660 0.4452161788940430</leafValues></_>
        
        <_>
          <internalNodes> 0 -1 54 -15216472704 -4834001984 -25841696864 -1267996240 -52138264 -37105924 -20133892 -22805782</internalNodes>
          <leafValues>
            -0.3973052501678467 0.4854526817798615</leafValues></_>
        
        <_>
          <internalNodes> 0 -1 95 -13690974592 -64 31808839136 8589238128 83884024 134214492 -2097162 -2993</internalNodes>
          <leafValues>
            -0.7054683566093445 0.2697997391223908</leafValues></_></weakClassifiers></_>
    
    <_>
      <maxWeakCount>9</maxWeakCount>
      <stageThreshold>-1.2042298316955566</stageThreshold>
      <weakClassifiers>
        
        <_>
          <internalNodes> 0 -1 39 24969445120 -1353777344 -33555104 -8208 89460560 -11464872 -33562658 -8593569</internalNodes>
          <leafValues>
            -0.5905947685241699 0.5101932883262634</leafValues></_>
        
        <_>
          <internalNodes> 0 -1 120 -137080576 -679742144 -540480064 -336070672 -102828736 131593200 133169150 91187187</internalNodes>
          <leafValues>
            -0.4449204802513123 0.4490709304809570</leafValues></_>
        
        <_>
          <internalNodes> 0 -1 89 4413678592 30726906176 -201608992 -2147549200 -38273816 -31612936 -22626720 -28311570</internalNodes>
          <leafValues>
            -0.4693818688392639 0.4061094820499420</leafValues></_>
        
        <_>
          <internalNodes> 0 -1 14 -268471168 32010925888 -537668416 -2415954064 -50348328 -12 -34635794 -33157468</internalNodes>
          <leafValues>
            -0.3600351214408875 0.5056326985359192</leafValues></_>
        
        <_>
          <internalNodes> 0 -1 67 -25735900416 -76091712 -17330602016 -1141850192 384 27197884 91715582 127918219</internalNodes>
          <leafValues>
            -0.4459891915321350 0.4132415652275085</leafValues></_>
        
        <_>
          <internalNodes> 0 -1 86 -6654788736 -4323347328 -17412689824 -13204979712 -2605576 -205068 115834872 -26294540</internalNodes>
          <leafValues>
            -0.4466069042682648 0.4135067760944367</leafValues></_>
        
        <_>
          <internalNodes> 0 -1 80 -8672130688 -5709311040 -17458005536 -17180750352 -7336952 -2637716 130023402 -11795</internalNodes>
          <leafValues>
            -0.3394956290721893 0.5658645033836365</leafValues></_>
        
        <_>
          <internalNodes> 0 -1 75 17179849600 -4515187904 -6652184800 2734350896 -17301880 86169652 -83886372 47329506</internalNodes>
          <leafValues>
            -0.5346512198448181 0.3584479391574860</leafValues></_>
        
        <_>
          <internalNodes> 0 -1 55 -17718915200 -262208 -12901756960 -6259020336 -49754744 -7697932 132104190 -13595652</internalNodes>
          <leafValues>
            -0.4379335641860962 0.4123645126819611</leafValues></_></weakClassifiers></_>
    
    <_>
      <maxWeakCount>10</maxWeakCount>
      <stageThreshold>-0.8402050137519836</stageThreshold>
      <weakClassifiers>
        
        <_>
          <internalNodes> 0 -1 71 -19397118464 -20669562944 -1090558240 -7517278736 -55640416 970364 -30480656 2944764</internalNodes>
          <leafValues>
            -0.2670986354351044 0.6014143228530884</leafValues></_>
        
        <_>
          <internalNodes> 0 -1 31 -17184260352 -13447102528 34355543776 -4194320 -85073800 -118625556 -68161802 -17838130</internalNodes>
          <leafValues>
            -0.4149844348430634 0.4670888185501099</leafValues></_>
        
        <_>
          <internalNodes> 0 -1 40 -8131719296 -345014336 -671360032 -1040 89136912 118710264 133920736 -8912970</internalNodes>
          <leafValues>
            -0.4985891580581665 0.3719584941864014</leafValues></_>
        
        <_>
          <internalNodes> 0 -1 109 31593053184 -243270656 14750522112 -3040932944 -12583624 658992 -14781132 -46637225</internalNodes>
          <leafValues>
            -0.4568729996681213 0.3965812027454376</leafValues></_>
        
        <_>
          <internalNodes> 0 -1 130 -7049606272 -2130112 -5740975232 -32065418336 -37189176 -41025124 -16790578 -35718169</internalNodes>
          <leafValues>
            -0.4770836830139160 0.3862601518630981</leafValues></_>
        
        <_>
          <internalNodes> 0 -1 66 -21767419136 -24905798912 -9745736736 11736750928 58854664 -69242636 83299318 -4230689</internalNodes>
          <leafValues>
            -0.4877715110778809 0.3778986334800720</leafValues></_>
        
        <_>
          <internalNodes> 0 -1 49 -14918301568 -20936718272 -8522167648 -1584677712 -1069688 -15003844 97054472 -5173476</internalNodes>
          <leafValues>
            -0.3721654713153839 0.4994400143623352</leafValues></_>
        
        <_>
          <internalNodes> 0 -1 133 -7981747584 8950677696 -30856951136 -4580230160 -40994128 87843912 -58700324 117808076</internalNodes>
          <leafValues>
            -0.3934195041656494 0.4769641458988190</leafValues></_>
        
        <_>
          <internalNodes> 0 -1 0 14897538816 4025807744 32212254656 -10739715152 -20989864 116292328 -6 -121636640</internalNodes>
          <leafValues>
            -0.4323300719261169 0.4342164099216461</leafValues></_>
        
        <_>
          <internalNodes> 0 -1 103 -8578819200 -26311755648 12912144288 17105438880 2360584 -8610796 23418268 125166646</internalNodes>
          <leafValues>
            -0.4993278682231903 0.3665378093719482</leafValues></_></weakClassifiers></_>
    
    <_>
      <maxWeakCount>9</maxWeakCount>
      <stageThreshold>-1.1974394321441650</stageThreshold>
      <weakClassifiers>
        
        <_>
          <internalNodes> 0 -1 43 -263296 -4160 -3221575040 -1141331296 -352 134216428 133954090 -281942</internalNodes>
          <leafValues>
            -0.3310225307941437 0.5624626278877258</leafValues></_>
        
        <_>
          <internalNodes> 0 -1 90 -10266651904 -12616394240 -18365836672 -2158281008 -8552648 -31208172 125953186 -5444196</internalNodes>
          <leafValues>
            -0.5266560912132263 0.3704403042793274</leafValues></_>
        
        <_>
          <internalNodes> 0 -1 104 -268440832 -31146910208 -26343417536 -13426111152 -9175056 -111273036 131948126 -8806543</internalNodes>
          <leafValues>
            -0.4171888828277588 0.4540435671806335</leafValues></_>
        
        <_>
          <internalNodes> 0 -1 85 -14917104000 -31958507584 -536883232 -1107296272 -52003384 -61353988 -18874394 -36175881</internalNodes>
          <leafValues>
            -0.4556705355644226 0.3704262077808380</leafValues></_>
        
        <_>
          <internalNodes> 0 -1 24 17807179776 -4757109056 22062196640 -2231507088 -7405784 -75564180 69938988 -83394585</internalNodes>
          <leafValues>
            -0.4182529747486115 0.4267231225967407</leafValues></_>
        
        <_>
          <internalNodes> 0 -1 78 -25072940160 -27496807424 -5477040192 -17199555632 -107148920 -147108 -7005936 -34350819</internalNodes>
          <leafValues>
            -0.3625369668006897 0.4684656262397766</leafValues></_>
        
        <_>
          <internalNodes> 0 -1 5 33876276992 -4174428352 -9943388160 -1417724320 -5326232 19802272 -2080 119060643</internalNodes>
          <leafValues>
            -0.4742925167083740 0.3689507246017456</leafValues></_>
        
        <_>
          <internalNodes> 0 -1 11 -33294398080 18329108416 -2290123424 -2432704592 -18415880 -22100228 -102572482 -3145746</internalNodes>
          <leafValues>
            -0.3666271567344666 0.4580127298831940</leafValues></_>
        
        <_>
          <internalNodes> 0 -1 32 -17137087744 -10581526656 -9333412448 16963048976 117965848 -39909108 -117373552 -2145061</internalNodes>
          <leafValues>
            -0.4567637443542481 0.3894708156585693</leafValues></_></weakClassifiers></_>
    
    <_>
      <maxWeakCount>9</maxWeakCount>
      <stageThreshold>-0.5733128190040588</stageThreshold>
      <weakClassifiers>
        
        <_>
          <internalNodes> 0 -1 122 17641065728 18647841600 -1946875104 -2155906064 -62128960 68046588 -19927320 -19992587</internalNodes>
          <leafValues>
            -0.4055117964744568 0.5487945079803467</leafValues></_>
        
        <_>
          <internalNodes> 0 -1 68 -8576 -329536 -328096 -24982429664 -17827080 -33687060 113245948 -23077126</internalNodes>
          <leafValues>
            -0.3787897229194641 0.4532003402709961</leafValues></_>
        
        <_>
          <internalNodes> 0 -1 58 -19617141888 -9134530816 7312425888 16000330672 -83452856 123057320 121303854 33551023</internalNodes>
          <leafValues>
            -0.4258328974246979 0.4202791750431061</leafValues></_>
        
        <_>
          <internalNodes> 0 -1 94 -9742068736 -12884907072 -4308867904 -285442672 -85019920 -123737372 -3152204 -1165405</internalNodes>
          <leafValues>
            -0.4561023116111755 0.4002747833728790</leafValues></_>
        
        <_>
          <internalNodes> 0 -1 87 732229248 -17448833088 -12365541408 -9127429152 128922864 -1032 -79692546 -1026</internalNodes>
          <leafValues>
            -0.4314672648906708 0.4086346626281738</leafValues></_>
        
        <_>
          <internalNodes> 0 -1 127 -33324287616 20653694144 31901166944 -15846105744 -33556008 67551100 -46139644 -60342420</internalNodes>
          <leafValues>
            -0.4174543321132660 0.4249868988990784</leafValues></_>
        
        <_>
          <internalNodes> 0 -1 3 10707594624 9938667712 17384108896 23580302512 -51183944 10545680 -18350652 -4953085</internalNodes>
          <leafValues>
            -0.4321364760398865 0.4090838730335236</leafValues></_>
        
        <_>
          <internalNodes> 0 -1 79 -9917493504 -18889768512 -17311847520 16691254224 -4305984 -4194236 -88394744 -52604761</internalNodes>
          <leafValues>
            -0.5018386244773865 0.3702533841133118</leafValues></_>
        
        <_>
          <internalNodes> 0 -1 116 -1849873280 -19132598272 -17536389856 -34247559120 -3375136 -33967860 -132805152 -89840367</internalNodes>
          <leafValues>
            -0.5037505626678467 0.3564981222152710</leafValues></_></weakClassifiers></_>
    
    <_>
      <maxWeakCount>9</maxWeakCount>
      <stageThreshold>-0.4892596900463104</stageThreshold>
      <weakClassifiers>
        
        <_>
          <internalNodes> 0 -1 132 -44032 32035796352 -4370476032 30995576624 -4194576 125238004 116383444 52903870</internalNodes>
          <leafValues>
            -0.2448196411132813 0.5689709186553955</leafValues></_>
        
        <_>
          <internalNodes> 0 -1 62 -20629733760 -26412961728 -14280648000 -22925242944 73713992 -4879060 -38239974 -33697994</internalNodes>
          <leafValues>
            -0.4633283913135529 0.3587929606437683</leafValues></_>
        
        <_>
          <internalNodes> 0 -1 23 -444598912 -21349599424 -8762607712 -2172750784 -17825800 -4903176 -41013252 -16503132</internalNodes>
          <leafValues>
            -0.3731099069118500 0.4290455579757690</leafValues></_>
        
        <_>
          <internalNodes> 0 -1 77 -17291051776 15218047872 -22217295200 -18459479568 21366464 25231376 -34411778 100012158</internalNodes>
          <leafValues>
            -0.3658909499645233 0.4556473195552826</leafValues></_>
        
        <_>
          <internalNodes> 0 -1 22 -19058412800 11291080192 7315253024 -1212911312 -36680048 -12801972 -6290288 -2457472</internalNodes>
          <leafValues>
            -0.5214384198188782 0.3221037387847900</leafValues></_>
        
        <_>
          <internalNodes> 0 -1 72 -4225817600 2230784 -2933919712 -3271594256 -26034184 34119460 -42107262 -48472466</internalNodes>
          <leafValues>
            -0.4289036989212036 0.4004956185817719</leafValues></_>
        
        <_>
          <internalNodes> 0 -1 50 21575856000 -971371456 -17757655840 -10142550608 -64156568 -36855760 -108781248 -97735657</internalNodes>
          <leafValues>
            -0.4621542394161224 0.3832748532295227</leafValues></_>
        
        <_>
          <internalNodes> 0 -1 108 -28638774656 -25792914944 -12884907104 -22653473808 -90554520 -29868440 -111149414 -48276133</internalNodes>
          <leafValues>
            -0.3711548447608948 0.4612701535224915</leafValues></_>
        
        <_>
          <internalNodes> 0 -1 92 -4561659648 -1194128128 29944945312 16927293600 25494088 -36403128 3290920 -80905</internalNodes>
          <leafValues>
            -0.5180652141571045 0.3205870389938355</leafValues></_></weakClassifiers></_>
    
    <_>
      <maxWeakCount>10</maxWeakCount>
      <stageThreshold>-0.5911940932273865</stageThreshold>
      <weakClassifiers>
        
        <_>
          <internalNodes> 0 -1 81 29410626304 -1186460032 -1450463808 -17188222336 256 -78722740 -52916966 -6306404</internalNodes>
          <leafValues>
            -0.2592592537403107 0.5873016119003296</leafValues></_>
        
        <_>
          <internalNodes> 0 -1 1 19327348608 18513655488 33554137024 -33554704 -17826056 -51450440 -67850 -67585</internalNodes>
          <leafValues>
            -0.3801195919513702 0.4718827307224274</leafValues></_>
        
        <_>
          <internalNodes> 0 -1 121 -604247936 -13857991488 -5100517248 -22280146960 -784 -33554700 134217396 133169143</internalNodes>
          <leafValues>
            -0.3509117066860199 0.5094807147979736</leafValues></_>
        
        <_>
          <internalNodes> 0 -1 38 -267392 -64 -134501472 -1082608656 134215600 -1300 -1049674 121617071</internalNodes>
          <leafValues>
            -0.4068757295608521 0.4130136370658875</leafValues></_>
        
        <_>
          <internalNodes> 0 -1 17 -7667223552 -7163879232 21667672064 -4190150864 -9699488 54132324 103212966 34267050</internalNodes>
          <leafValues>
            -0.4557141065597534 0.3539792001247406</leafValues></_>
        
        <_>
          <internalNodes> 0 -1 100 -20596187136 22298301440 -180386912 -3422552336 -14082464 -15730132 -30799000 -49521362</internalNodes>
          <leafValues>
            -0.4117803275585175 0.4118592441082001</leafValues></_>
        
        <_>
          <internalNodes> 0 -1 63 -14768177152 -34164823360 -33057675904 -16680919056 -23888760 -125129548 -3212800 -23200098</internalNodes>
          <leafValues>
            -0.4008397758007050 0.4034757018089294</leafValues></_>
        
        <_>
          <internalNodes> 0 -1 101 -1684292352 -22974295168 -10210030208 -16977714016 -39209616 -3018448 98825246 -27266164</internalNodes>
          <leafValues>
            -0.5694189667701721 0.2964762747287750</leafValues></_>
        
        <_>
          <internalNodes> 0 -1 118 -201326720 -9193915840 -15910364640 -26373792336 -524952 66131728 -38813922 -15687717</internalNodes>
          <leafValues>
            -0.3195341229438782 0.5294018983840942</leafValues></_>
        
        <_>
          <internalNodes> 0 -1 92 -28541465728 -78130240 -7321157664 -17231206144 -21771496 -67399348 107372526 22795998</internalNodes>
          <leafValues>
            -0.3365339040756226 0.5067458748817444</leafValues></_></weakClassifiers></_>
    
    <_>
      <maxWeakCount>10</maxWeakCount>
      <stageThreshold>-0.7612916231155396</stageThreshold>
      <weakClassifiers>
        
        <_>
          <internalNodes> 0 -1 10 697457408 -7258206080 22967520000 -17239016976 -123541336 -17997352 -103718572 -48880</internalNodes>
          <leafValues>
            -0.4204545319080353 0.5165745615959168</leafValues></_>
        
        <_>
          <internalNodes> 0 -1 131 32747412608 -33086931136 23576059392 -12633277392 -4194440 929684 -8914574 -83682690</internalNodes>
          <leafValues>
            -0.3762553930282593 0.4075302779674530</leafValues></_>
        
        <_>
          <internalNodes> 0 -1 83 -16836736 -17181020096 -8623538464 -5688368608 -17050896 -98568 -69918 -19072258</internalNodes>
          <leafValues>
            -0.4253497421741486 0.3728055357933044</leafValues></_>
        
        <_>
          <internalNodes> 0 -1 135 -2550255616 31907607808 -15579809568 -3254784080 -144 -13405392 -33657174 35859187</internalNodes>
          <leafValues>
            -0.3601998090744019 0.4563256204128265</leafValues></_>
        
        <_>
          <internalNodes> 0 -1 115 -20903379072 -19138392320 -24476284448 10930237168 -16314488 -83148084 -40116290 64348143</internalNodes>
          <leafValues>
            -0.4034293889999390 0.4160816967487335</leafValues></_>
        
        <_>
          <internalNodes> 0 -1 64 -22933844352 -317915456 -30735037824 -20471313008 -35812104 -2127668 -26118 -6945</internalNodes>
          <leafValues>
            -0.3620899617671967 0.4594142735004425</leafValues></_>
        
        <_>
          <internalNodes> 0 -1 36 32264955648 -6892493632 -12797890656 -265290320 -39142200 -38453564 103246626 50335399</internalNodes>
          <leafValues>
            -0.3903816640377045 0.4381459355354309</leafValues></_>
        
        <_>
          <internalNodes> 0 -1 93 -29629982336 -19114193280 -18456346688 -17734391584 84674824 -68184852 123526140 -83906387</internalNodes>
          <leafValues>
            -0.3591445386409760 0.4624078869819641</leafValues></_>
        
        <_>
          <internalNodes> 0 -1 91 12780763904 -4408216768 10370677664 -18325717600 4259856 75710516 -19047472 66438571</internalNodes>
          <leafValues>
            -0.4297670423984528 0.4023293554782867</leafValues></_>
        
        <_>
          <internalNodes> 0 -1 107 -8727302272 -21207450368 -6087147776 -16935574176 -34144896 -101785604 -10223622 -33562645</internalNodes>
          <leafValues>
            -0.5727006793022156 0.2995934784412384</leafValues></_></weakClassifiers></_></stages>
  <features>
    <_>
      <rect> 15 9 3 5 </rect></_>
    <_>
      <rect> 12 18 4 2 </rect></_>
    <_>
      <rect> 6 15 6 3 </rect></_>
    <_>
      <rect> 18 14 2 3 </rect></_>
    <_>
      <rect> 15 14 3 3 </rect></_>
    <_>
      <rect> 15 2 3 7 </rect></_>
    <_>
      <rect> 15 11 3 3 </rect></_>
    <_>
      <rect> 15 1 3 4 </rect></_>
    <_>
      <rect> 0 0 8 4 </rect></_>
    <_>
      <rect> 12 1 4 3 </rect></_>
    <_>
      <rect> 8 15 5 3 </rect></_>
    <_>
      <rect> 17 17 2 2 </rect></_>
    <_>
      <rect> 14 18 3 1 </rect></_>
    <_>
      <rect> 11 5 4 4 </rect></_>
    <_>
      <rect> 17 6 2 2 </rect></_>
    <_>
      <rect> 11 8 4 1 </rect></_>
    <_>
      <rect> 11 1 4 3 </rect></_>
    <_>
      <rect> 14 1 3 2 </rect></_>
    <_>
      <rect> 16 15 2 3 </rect></_>
    <_>
      <rect> 16 17 2 2 </rect></_>
    <_>
      <rect> 10 4 4 6 </rect></_>
    <_>
      <rect> 10 9 4 4 </rect></_>
    <_>
      <rect> 16 14 2 1 </rect></_>
    <_>
      <rect> 16 4 2 3 </rect></_>
    <_>
      <rect> 13 1 3 2 </rect></_>
    <_>
      <rect> 15 18 2 2 </rect></_>
    <_>
      <rect> 0 14 7 3 </rect></_>
    <_>
      <rect> 15 14 2 1 </rect></_>
    <_>
      <rect> 15 5 2 4 </rect></_>
    <_>
      <rect> 15 0 2 2 </rect></_>
    <_>
      <rect> 14 15 2 3 </rect></_>
    <_>
      <rect> 14 18 2 1 </rect></_>
    <_>
      <rect> 14 15 2 1 </rect></_>
    <_>
      <rect> 14 3 2 5 </rect></_>
    <_>
      <rect> 5 11 5 2 </rect></_>
    <_>
      <rect> 8 7 4 3 </rect></_>
    <_>
      <rect> 14 0 2 2 </rect></_>
    <_>
      <rect> 13 18 2 2 </rect></_>
    <_>
      <rect> 7 9 4 4 </rect></_>
    <_>
      <rect> 13 3 2 5 </rect></_>
    <_>
      <rect> 13 9 2 2 </rect></_>
    <_>
      <rect> 13 8 2 2 </rect></_>
    <_>
      <rect> 6 9 4 4 </rect></_>
    <_>
      <rect> 6 11 4 3 </rect></_>
    <_>
      <rect> 12 10 2 3 </rect></_>
    <_>
      <rect> 12 4 2 5 </rect></_>
    <_>
      <rect> 6 10 4 3 </rect></_>
    <_>
      <rect> 6 12 4 2 </rect></_>
    <_>
      <rect> 6 6 4 4 </rect></_>
    <_>
      <rect> 15 0 1 2 </rect></_>
    <_>
      <rect> 12 0 2 1 </rect></_>
    <_>
      <rect> 8 3 3 7 </rect></_>
    <_>
      <rect> 11 11 2 3 </rect></_>
    <_>
      <rect> 2 12 5 1 </rect></_>
    <_>
      <rect> 11 0 2 1 </rect></_>
    <_>
      <rect> 13 12 1 4 </rect></_>
    <_>
      <rect> 10 13 2 2 </rect></_>
    <_>
      <rect> 7 13 3 2 </rect></_>
    <_>
      <rect> 7 4 3 1 </rect></_>
    <_>
      <rect> 13 0 1 2 </rect></_>
    <_>
      <rect> 0 15 5 3 </rect></_>
    <_>
      <rect> 9 4 2 6 </rect></_>
    <_>
      <rect> 12 16 1 1 </rect></_>
    <_>
      <rect> 12 10 1 1 </rect></_>
    <_>
      <rect> 12 5 1 1 </rect></_>
    <_>
      <rect> 9 5 2 1 </rect></_>
    <_>
      <rect> 12 4 1 1 </rect></_>
    <_>
      <rect> 12 3 1 1 </rect></_>
    <_>
      <rect> 11 13 1 2 </rect></_>
    <_>
      <rect> 5 10 3 3 </rect></_>
    <_>
      <rect> 11 2 1 5 </rect></_>
    <_>
      <rect> 11 13 1 1 </rect></_>
    <_>
      <rect> 11 12 1 1 </rect></_>
    <_>
      <rect> 11 11 1 1 </rect></_>
    <_>
      <rect> 11 8 1 2 </rect></_>
    <_>
      <rect> 5 1 3 3 </rect></_>
    <_>
      <rect> 11 6 1 1 </rect></_>
    <_>
      <rect> 8 6 2 1 </rect></_>
    <_>
      <rect> 11 5 1 1 </rect></_>
    <_>
      <rect> 8 5 2 1 </rect></_>
    <_>
      <rect> 11 4 1 1 </rect></_>
    <_>
      <rect> 11 0 1 1 </rect></_>
    <_>
      <rect> 7 15 2 2 </rect></_>
    <_>
      <rect> 10 13 1 2 </rect></_>
    <_>
      <rect> 4 10 3 3 </rect></_>
    <_>
      <rect> 1 1 4 6 </rect></_>
    <_>
      <rect> 10 15 1 1 </rect></_>
    <_>
      <rect> 7 11 2 2 </rect></_>
    <_>
      <rect> 10 10 1 2 </rect></_>
    <_>
      <rect> 10 11 1 1 </rect></_>
    <_>
      <rect> 10 8 1 2 </rect></_>
    <_>
      <rect> 10 6 1 1 </rect></_>
    <_>
      <rect> 10 4 1 1 </rect></_>
    <_>
      <rect> 10 3 1 1 </rect></_>
    <_>
      <rect> 6 18 2 2 </rect></_>
    <_>
      <rect> 6 8 2 5 </rect></_>
    <_>
      <rect> 0 19 4 1 </rect></_>
    <_>
      <rect> 9 12 1 3 </rect></_>
    <_>
      <rect> 3 5 3 4 </rect></_>
    <_>
      <rect> 3 8 3 2 </rect></_>
    <_>
      <rect> 9 10 1 1 </rect></_>
    <_>
      <rect> 3 6 3 2 </rect></_>
    <_>
      <rect> 0 1 4 3 </rect></_>
    <_>
      <rect> 9 4 1 1 </rect></_>
    <_>
      <rect> 6 0 2 1 </rect></_>
    <_>
      <rect> 5 3 2 5 </rect></_>
    <_>
      <rect> 2 2 3 5 </rect></_>
    <_>
      <rect> 2 7 3 2 </rect></_>
    <_>
      <rect> 5 1 2 2 </rect></_>
    <_>
      <rect> 2 1 3 2 </rect></_>
    <_>
      <rect> 8 0 1 2 </rect></_>
    <_>
      <rect> 5 0 2 2 </rect></_>
    <_>
      <rect> 4 18 2 2 </rect></_>
    <_>
      <rect> 7 14 1 3 </rect></_>
    <_>
      <rect> 1 16 3 2 </rect></_>
    <_>
      <rect> 4 14 2 1 </rect></_>
    <_>
      <rect> 4 8 2 1 </rect></_>
    <_>
      <rect> 1 2 3 3 </rect></_>
    <_>
      <rect> 4 1 2 2 </rect></_>
    <_>
      <rect> 3 18 2 2 </rect></_>
    <_>
      <rect> 3 15 2 3 </rect></_>
    <_>
      <rect> 0 14 3 2 </rect></_>
    <_>
      <rect> 0 2 3 6 </rect></_>
    <_>
      <rect> 0 12 3 2 </rect></_>
    <_>
      <rect> 0 1 3 4 </rect></_>
    <_>
      <rect> 0 5 3 2 </rect></_>
    <_>
      <rect> 3 1 2 2 </rect></_>
    <_>
      <rect> 0 1 3 2 </rect></_>
    <_>
      <rect> 2 14 2 3 </rect></_>
    <_>
      <rect> 2 9 2 4 </rect></_>
    <_>
      <rect> 5 15 1 1 </rect></_>
    <_>
      <rect> 2 2 2 2 </rect></_>
    <_>
      <rect> 1 17 2 2 </rect></_>
    <_>
      <rect> 1 8 2 5 </rect></_>
    <_>
      <rect> 1 6 2 2 </rect></_>
    <_>
      <rect> 0 18 2 2 </rect></_></features></cascade>
</opencv_storage>