<?xml version="1.0" encoding="utf-8"?>
<opencv_storage>
<cascade type_id="opencv-cascade-classifier">
  <stageType>BOOST</stageType>
  <featureType>LBP</featureType>
  <height>24</height>
  <width>24</width>
  <orientation>180</orientation>
  <stageParams>
    <boostType>GAB</boostType>
    <minHitRate>0.9950000047683716</minHitRate>
    <maxFalseAlarm>0.5000000000000000</maxFalseAlarm>
    <weightTrimRate>0.9500000000000000</weightTrimRate>
    <maxDepth>1</maxDepth>
    <maxWeakCount>100</maxWeakCount></stageParams>
  <featureParams>
    <maxCatCount>256</maxCatCount></featureParams>
  <stageNum>20</stageNum>
  <stages>
    
    <_>
      <maxWeakCount>3</maxWeakCount>
      <stageThreshold>-0.7520892024040222</stageThreshold>
      <weakClassifiers>
        
        <_>
          <internalNodes> 0 -1 46 -5704480128 -5100500864 -86368 -65552 2348583592 -96020 -1048918 -338</internalNodes>
          <leafValues>
            -0.6543210148811340 0.8888888955116272</leafValues></_>
        
        <_>
          <internalNodes> 0 -1 13 -40108160 -1048640 -2057831424 -774373424 -2097160 -4 -2554888 -12024903</internalNodes>
          <leafValues>
            -0.7739216089248657 0.7278633713722229</leafValues></_>
        
        <_>
          <internalNodes> 0 -1 2 -5351792128 -547631616 4355130944 -536870912 -2966179848 -6361348 -5686514 -13956308</internalNodes>
          <leafValues>
            -0.7068563103675842 0.6761534214019775</leafValues></_></weakClassifiers></_>
    
    <_>
      <maxWeakCount>4</maxWeakCount>
      <stageThreshold>-0.4872078299522400</stageThreshold>
      <weakClassifiers>
        
        <_>
          <internalNodes> 0 -1 84 -2147483776 8589803456 2952529952 4244406256 972818472 8589786620 33554430 30408191</internalNodes>
          <leafValues>
            -0.8083735704421997 0.7685696482658386</leafValues></_>
        
        <_>
          <internalNodes> 0 -1 21 7516192640 1018997888 7516192736 -537010192 -1073741832 3204447996 33554430 4112126</internalNodes>
          <leafValues>
            -0.7698410153388977 0.6592915654182434</leafValues></_>
        
        <_>
          <internalNodes> 0 -1 106 -1141937664 -3400041536 -757337504 -6687817744 -2284106784 -1048580 -1532974 25170930</internalNodes>
          <leafValues>
            -0.7506558895111084 0.5444605946540833</leafValues></_>
        
        <_>
          <internalNodes> 0 -1 48 4383084544 -948576320 -262304 -16 -866910984 -276824196 -12479542 -2049</internalNodes>
          <leafValues>
            -0.7775990366935730 0.5465461611747742</leafValues></_></weakClassifiers></_>
    
    <_>
      <maxWeakCount>4</maxWeakCount>
      <stageThreshold>-1.1592328548431396</stageThreshold>
      <weakClassifiers>
        
        <_>
          <internalNodes> 0 -1 47 -403273088 -2953016704 -82272 -147472 -604067160 -536954196 -338 -322</internalNodes>
          <leafValues>
            -0.5601882934570313 0.7743113040924072</leafValues></_>
        
        <_>
          <internalNodes> 0 -1 12 -1075978496 -1685323840 -1610744352 4361551856 -1147142184 -1610612740 -4468802 2866175</internalNodes>
          <leafValues>
            -0.6124526262283325 0.6978127956390381</leafValues></_>
        
        <_>
          <internalNodes> 0 -1 26 -201854080 -5013568 -536873024 -201458064 -134479968 -689963012 -786674 15170045</internalNodes>
          <leafValues>
            -0.6114496588706970 0.6537628173828125</leafValues></_>
        
        <_>
          <internalNodes> 0 -1 8 7511910912 -8352973696 -536871968 8587706288 -75642568 4380924988 -6 -2113537</internalNodes>
          <leafValues>
            -0.6854077577590942 0.5403239130973816</leafValues></_></weakClassifiers></_>
    
    <_>
      <maxWeakCount>5</maxWeakCount>
      <stageThreshold>-0.7562355995178223</stageThreshold>
      <weakClassifiers>
        
        <_>
          <internalNodes> 0 -1 96 -83886464 -270532672 -537002944 8019500496 -1000 -603983876 -20 29229054</internalNodes>
          <leafValues>
            -0.4051094949245453 0.7584033608436585</leafValues></_>
        
        <_>
          <internalNodes> 0 -1 33 -17048704 -1088 5860847936 -1075839504 -10625080 -2097156 -13565036 -1200161</internalNodes>
          <leafValues>
            -0.7388162612915039 0.5340843200683594</leafValues></_>
        
        <_>
          <internalNodes> 0 -1 57 -2164413568 -611840 -156000 -81936 -4615504 -289915904 -202 -1</internalNodes>
          <leafValues>
            -0.6582943797111511 0.5339496731758118</leafValues></_>
        
        <_>
          <internalNodes> 0 -1 125 -1279264768 -6376128576 -8448 -3960471568 -1955901184 -2083790964 -4210692 -7077891</internalNodes>
          <leafValues>
            -0.5981323719024658 0.5323504805564880</leafValues></_>
        
        <_>
          <internalNodes> 0 -1 53 -5368774784 -4303568960 7994113248 4227858416 -134283912 -4 8715428 10472893</internalNodes>
          <leafValues>
            -0.6498787999153137 0.4913350641727448</leafValues></_></weakClassifiers></_>
    
    <_>
      <maxWeakCount>5</maxWeakCount>
      <stageThreshold>-0.8085358142852783</stageThreshold>
      <weakClassifiers>
        
        <_>
          <internalNodes> 0 -1 60 -67371264 -83886144 -706749120 -673710640 -67109040 -134218504 -8388652 13753052</internalNodes>
          <leafValues>
            -0.5278195738792419 0.6946372389793396</leafValues></_>
        
        <_>
          <internalNodes> 0 -1 7 -4362364544 3221323904 -33555328 -167783152 -158312 -2124475940 -2 -984087</internalNodes>
          <leafValues>
            -0.5206505060195923 0.6329920291900635</leafValues></_>
        
        <_>
          <internalNodes> 0 -1 98 -3410048 -67240000 5959524128 -671612976 -8 -4 -11332616 21058555</internalNodes>
          <leafValues>
            -0.7516061067581177 0.4232024252414703</leafValues></_>
        
        <_>
          <internalNodes> 0 -1 44 -384 3741248640 -33554464 -4312793104 -8 2935545068 -514 15727852</internalNodes>
          <leafValues>
            -0.7639313936233521 0.4123568832874298</leafValues></_>
        
        <_>
          <internalNodes> 0 -1 24 -4145747072 3270503360 4493476096 -235187248 -4053873928 -778053636 -1335544 33419195</internalNodes>
          <leafValues>
            -0.5123769044876099 0.5791834592819214</leafValues></_></weakClassifiers></_>
    
    <_>
      <maxWeakCount>5</maxWeakCount>
      <stageThreshold>-0.5549971461296082</stageThreshold>
      <weakClassifiers>
        
        <_>
          <internalNodes> 0 -1 42 -1073831296 -536958016 -69920 -16 -87320 -87384 -274 -321</internalNodes>
          <leafValues>
            -0.3763174116611481 0.7298233509063721</leafValues></_>
        
        <_>
          <internalNodes> 0 -1 6 -1078018944 2730010752 8589934048 6962298864 -4362076936 -1073889540 -12582982 -32785350</internalNodes>
          <leafValues>
            -0.5352765917778015 0.5659480094909668</leafValues></_>
        
        <_>
          <internalNodes> 0 -1 61 -128 -351538368 -81952 -4295049232 -203424864 -67398784 -1048590 -97</internalNodes>
          <leafValues>
            -0.5678374171257019 0.4961479902267456</leafValues></_>
        
        <_>
          <internalNodes> 0 -1 123 -5436033024 -7634681920 -5386743680 3640393680 -5436042080 -5385486628 -2162948 15662783</internalNodes>
          <leafValues>
            -0.5706262588500977 0.4572288393974304</leafValues></_>
        
        <_>
          <internalNodes> 0 -1 9 5026126592 -5322661760 4865233024 -144762544 133992792 -607186532 -1392790 -65569</internalNodes>
          <leafValues>
            -0.5344601869583130 0.4672054052352905</leafValues></_></weakClassifiers></_>
    
    <_>
      <maxWeakCount>5</maxWeakCount>
      <stageThreshold>-0.8776460289955139</stageThreshold>
      <weakClassifiers>
        
        <_>
          <internalNodes> 0 -1 105 -136053888 -134217792 -3158056032 -405537296 -2760900616 -1056772 16777648 3228151</internalNodes>
          <leafValues>
            -0.7700348496437073 0.5943940877914429</leafValues></_>
        
        <_>
          <internalNodes> 0 -1 30 -196736 -137166912 -1077936160 -5371068432 -4312793096 -5111820 -22380330 -12869121</internalNodes>
          <leafValues>
            -0.5043668746948242 0.6151274442672730</leafValues></_>
        
        <_>
          <internalNodes> 0 -1 35 -1746993792 -536870976 -203423968 -528 -8 -4 -16677892 -3058723</internalNodes>
          <leafValues>
            -0.6808040738105774 0.4667325913906097</leafValues></_>
        
        <_>
          <internalNodes> 0 -1 119 -104202368 -1694638144 -1073873472 8420056560 -8456976 -69468740 13008348 -532994</internalNodes>
          <leafValues>
            -0.4927591383457184 0.5401885509490967</leafValues></_>
        
        <_>
          <internalNodes> 0 -1 82 8572239744 -4456512 -4563796032 -16 -9445424 -2958064 -17022500 -16883202</internalNodes>
          <leafValues>
            -0.6445107460021973 0.4227822124958038</leafValues></_></weakClassifiers></_>
    
    <_>
      <maxWeakCount>6</maxWeakCount>
      <stageThreshold>-1.1139287948608398</stageThreshold>
      <weakClassifiers>
        
        <_>
          <internalNodes> 0 -1 52 -128 -5120541760 -21299296 -16 -1342193928 2328537768 -16782370 -16781313</internalNodes>
          <leafValues>
            -0.5307556986808777 0.6258179545402527</leafValues></_>
        
        <_>
          <internalNodes> 0 -1 99 -2160066944 -2281980160 -2282522656 -2351431856 -134512656 -143392772 -11045898 -11021314</internalNodes>
          <leafValues>
            -0.5227634310722351 0.5049746036529541</leafValues></_>
        
        <_>
          <internalNodes> 0 -1 18 -1074012288 -6685824 1044070368 5301731248 7817576440 -3221225796 -31806722 658111</internalNodes>
          <leafValues>
            -0.4983572661876679 0.5106441378593445</leafValues></_>
        
        <_>
          <internalNodes> 0 -1 111 5704074880 -682105792 -2187329952 -20452160 -136973504 -2281711716 -4414524 -24344892</internalNodes>
          <leafValues>
            -0.4990860521793366 0.5060507059097290</leafValues></_>
        
        <_>
          <internalNodes> 0 -1 92 3660376960 -4320344256 -7348108576 -5446401120 8589274984 4271902452 15880194 -9473465</internalNodes>
          <leafValues>
            -0.5695009231567383 0.4460467398166657</leafValues></_>
        
        <_>
          <internalNodes> 0 -1 51 -566398208 -2413743360 6023801824 -3150227792 -319293752 -5304796536 -10256566 -240829</internalNodes>
          <leafValues>
            -0.6590405106544495 0.3616424500942230</leafValues></_></weakClassifiers></_>
    
    <_>
      <maxWeakCount>7</maxWeakCount>
      <stageThreshold>-0.8243625760078430</stageThreshold>
      <weakClassifiers>
        
        <_>
          <internalNodes> 0 -1 28 -1152 -269484096 -573248448 -2097168 -167772712 -4 -14087372 -3154945</internalNodes>
          <leafValues>
            -0.4972776770591736 0.6027074456214905</leafValues></_>
        
        <_>
          <internalNodes> 0 -1 112 -1073750144 -270008640 -69403456 -131616 -285377264 -117508 -70436 -6427203</internalNodes>
          <leafValues>
            -0.4383158981800079 0.5966237187385559</leafValues></_>
        
        <_>
          <internalNodes> 0 -1 69 -956254464 -50154048 5940288480 8304932848 8492475384 3207627708 -1185858 -1834054</internalNodes>
          <leafValues>
            -0.6386105418205261 0.3977999985218048</leafValues></_>
        
        <_>
          <internalNodes> 0 -1 19 -67504256 -5457051712 968660832 5263720432 -2785075336 -1820331316 -12866882 12291071</internalNodes>
          <leafValues>
            -0.5512794256210327 0.4282079637050629</leafValues></_>
        
        <_>
          <internalNodes> 0 -1 73 -5584945152 -8153744512 -742450048 230678496 -572531512 -4164943892 -8147062 105418</internalNodes>
          <leafValues>
            -0.6418755054473877 0.3549866080284119</leafValues></_>
        
        <_>
          <internalNodes> 0 -1 126 -6583582464 5461193088 -2231436320 -1359085904 5770298112 -4235208244 -7471156 16812952</internalNodes>
          <leafValues>
            -0.4841901361942291 0.4668019413948059</leafValues></_>
        
        <_>
          <internalNodes> 0 -1 45 -6442451072 -3153602816 5870419424 -11149600 5905055736 -17925396 -3849226 -25787532</internalNodes>
          <leafValues>
            -0.5855734348297119 0.3879135847091675</leafValues></_></weakClassifiers></_>
    
    <_>
      <maxWeakCount>7</maxWeakCount>
      <stageThreshold>-1.2237116098403931</stageThreshold>
      <weakClassifiers>
        
        <_>
          <internalNodes> 0 -1 114 -67240064 -268435520 8587113536 5735710160 -1074433776 -139460820 -388 24575998</internalNodes>
          <leafValues>
            -0.2518476545810700 0.7088654041290283</leafValues></_>
        
        <_>
          <internalNodes> 0 -1 97 -131200 -23069504 -4466720 -8752 -32928 -134413308 -28772 -2097986</internalNodes>
          <leafValues>
            -0.4303432404994965 0.5283288359642029</leafValues></_>
        
        <_>
          <internalNodes> 0 -1 25 -4295115008 -1078215296 -3238051936 6978830320 -167837736 -539035912 -21242308 -21259268</internalNodes>
          <leafValues>
            -0.4259553551673889 0.5440809130668640</leafValues></_>
        
        <_>
          <internalNodes> 0 -1 34 -4563629440 -940803136 2633825504 8589869040 -4563603720 -65540 11402396 -2097985</internalNodes>
          <leafValues>
            -0.5605589151382446 0.4220733344554901</leafValues></_>
        
        <_>
          <internalNodes> 0 -1 134 -772021888 -1414272576 4821352256 -3961520144 3550417296 -1682178104 -4849698 -6573057</internalNodes>
          <leafValues>
            -0.5192656517028809 0.4399855434894562</leafValues></_>
        
        <_>
          <internalNodes> 0 -1 16 -1148478976 -1948275840 459036960 -2162312208 -2830041040 -2686641812 -22298742 30920639</internalNodes>
          <leafValues>
            -0.5013077259063721 0.4570254683494568</leafValues></_>
        
        <_>
          <internalNodes> 0 -1 74 -1313207808 -487329856 -4570633152 -7454306240 8585669408 -1052740 -11538498 -13905458</internalNodes>
          <leafValues>
            -0.4631414115428925 0.4790246188640595</leafValues></_></weakClassifiers></_>
    
    <_>
      <maxWeakCount>7</maxWeakCount>
      <stageThreshold>-0.5544230937957764</stageThreshold>
      <weakClassifiers>
        
        <_>
          <internalNodes> 0 -1 113 -128 -268697664 -592032 -144 -887184 -1091371696 -1191076 -1025</internalNodes>
          <leafValues>
            -0.3949716091156006 0.6082032322883606</leafValues></_>
        
        <_>
          <internalNodes> 0 -1 110 8554280064 -4759616 3162832064 -4850452512 3199794872 -17825932 5767932 -25394252</internalNodes>
          <leafValues>
            -0.4855885505676270 0.4785369932651520</leafValues></_>
        
        <_>
          <internalNodes> 0 -1 37 2147331072 -1611939904 -5369659968 -3355459600 -707080 -1073824516 12253372 -4531489</internalNodes>
          <leafValues>
            -0.4620285332202911 0.4989669024944305</leafValues></_>
        
        <_>
          <internalNodes> 0 -1 41 -1361179648 -87808 -2079064128 -3091004688 -292384240 -2341290492 -7600292 -2686177</internalNodes>
          <leafValues>
            -0.6420643329620361 0.3624351918697357</leafValues></_>
        
        <_>
          <internalNodes> 0 -1 117 -5693855360 -8308921728 -19398688 -8322023712 -876131712 -4287661396 -524298 -7427073</internalNodes>
          <leafValues>
            -0.4820112884044647 0.4632140696048737</leafValues></_>
        
        <_>
          <internalNodes> 0 -1 65 -5397256448 -4295214272 -2479655072 -5796527376 -5547561288 -7916473692 -13033290 -2097149</internalNodes>
          <leafValues>
            -0.4465552568435669 0.5061788558959961</leafValues></_>
        
        <_>
          <internalNodes> 0 -1 56 -66176 -6924091520 -4647616608 -5368709200 -1073758536 -5856314832 -4457028 29883903</internalNodes>
          <leafValues>
            -0.5190586447715759 0.4441480338573456</leafValues></_></weakClassifiers></_>
    
    <_>
      <maxWeakCount>7</maxWeakCount>
      <stageThreshold>-0.7161560654640198</stageThreshold>
      <weakClassifiers>
        
        <_>
          <internalNodes> 0 -1 20 -40108288 240384 -1109393440 -174587952 -4842324616 4783078460 19472382 16843768</internalNodes>
          <leafValues>
            -0.4323809444904327 0.5663768053054810</leafValues></_>
        
        <_>
          <internalNodes> 0 -1 15 -2315103616 -16145920 -7786322016 -4659066288 -7946748040 -48414396 -12165370 -9576893</internalNodes>
          <leafValues>
            -0.4588732719421387 0.4547033011913300</leafValues></_>
        
        <_>
          <internalNodes> 0 -1 129 -5452678272 -4329836864 -5657146208 3472743920 -5424534360 -4311745028 -16777492 31456745</internalNodes>
          <leafValues>
            -0.5218553543090820 0.4111092388629913</leafValues></_>
        
        <_>
          <internalNodes> 0 -1 102 -4819401088 2257161152 -268484896 -5368709408 -5236783608 -3106939188 -1314820 -32709652</internalNodes>
          <leafValues>
            -0.4920000731945038 0.4326725304126740</leafValues></_>
        
        <_>
          <internalNodes> 0 -1 88 -1160865152 -674252160 8335509760 6811153520 -576767856 -939528648 -401476 1048507</internalNodes>
          <leafValues>
            -0.4494568109512329 0.4448510706424713</leafValues></_>
        
        <_>
          <internalNodes> 0 -1 59 -6449070208 929117632 6203448992 -2299300896 -1429523552 -18317636 -13405952 14135667</internalNodes>
          <leafValues>
            -0.5180826783180237 0.3888972699642181</leafValues></_>
        
        <_>
          <internalNodes> 0 -1 27 1979713536 -984054528 3758165376 -4784289408 -2482414200 8548865092 -1539836 -2153725</internalNodes>
          <leafValues>
            -0.6081240773200989 0.3333222270011902</leafValues></_></weakClassifiers></_>
    
    <_>
      <maxWeakCount>8</maxWeakCount>
      <stageThreshold>-0.6743940711021423</stageThreshold>
      <weakClassifiers>
        
        <_>
          <internalNodes> 0 -1 29 -5208606592 2147737280 -4236035776 3656514832 4589312440 -1073479700 -2359302 32362374</internalNodes>
          <leafValues>
            -0.1790193915367127 0.6605972051620483</leafValues></_>
        
        <_>
          <internalNodes> 0 -1 128 -5368709248 7445938112 -4431335168 6308232688 -1334234272 -545276164 -2101712 25165245</internalNodes>
          <leafValues>
            -0.3681024610996246 0.5139749646186829</leafValues></_>
        
        <_>
          <internalNodes> 0 -1 70 -4363938176 -2523674112 -2157971520 3118465008 -3358273696 -1284 -2 16564913</internalNodes>
          <leafValues>
            -0.3217232525348663 0.6171553134918213</leafValues></_>
        
        <_>
          <internalNodes> 0 -1 4 -3164337408 -71695104 941146656 5102019760 5377561592 -3865107556 -4211914 -4453593</internalNodes>
          <leafValues>
            -0.4373284578323364 0.4358185231685638</leafValues></_>
        
        <_>
          <internalNodes> 0 -1 76 2381708800 5899038656 2302688832 -6736022160 3488868344 -4623433108 278530 -11681695</internalNodes>
          <leafValues>
            -0.4404836893081665 0.4601220190525055</leafValues></_>
        
        <_>
          <internalNodes> 0 -1 124 -3288926592 -1423180992 -1883283488 -7990149648 -4228529536 -4061140020 -5259268 29277118</internalNodes>
          <leafValues>
            -0.4294152259826660 0.4452161788940430</leafValues></_>
        
        <_>
          <internalNodes> 0 -1 54 -1288569088 -1459570048 -3804118176 -1208500496 -6460424216 -316999060 -13034566 -9276481</internalNodes>
          <leafValues>
            -0.3973052501678467 0.4854526817798615</leafValues></_>
        
        <_>
          <internalNodes> 0 -1 95 -134218368 -191552 -3422743648 -16 7952209784 2147309532 20971006 33553623</internalNodes>
          <leafValues>
            -0.7054683566093445 0.2697997391223908</leafValues></_></weakClassifiers></_>
    
    <_>
      <maxWeakCount>9</maxWeakCount>
      <stageThreshold>-1.2042298316955566</stageThreshold>
      <weakClassifiers>
        
        <_>
          <internalNodes> 0 -1 39 -2148010112 -549988416 6242361280 -338444336 -8388776 -2052 22365140 -2866218</internalNodes>
          <leafValues>
            -0.5905947685241699 0.5101932883262634</leafValues></_>
        
        <_>
          <internalNodes> 0 -1 120 8522825600 5835979968 -34270144 -169935536 -135120016 -84017668 -25707184 32898300</internalNodes>
          <leafValues>
            -0.4449204802513123 0.4490709304809570</leafValues></_>
        
        <_>
          <internalNodes> 0 -1 89 -1448110080 -1811940480 1103419648 7681726544 -50402248 -536887300 -9568454 -7903234</internalNodes>
          <leafValues>
            -0.4693818688392639 0.4061094820499420</leafValues></_>
        
        <_>
          <internalNodes> 0 -1 14 -2216690816 -2122077952 -67117792 8002731472 -134417104 -603988516 -12587082 -3</internalNodes>
          <leafValues>
            -0.3600351214408875 0.5056326985359192</leafValues></_>
        
        <_>
          <internalNodes> 0 -1 67 5869797248 8186766016 -6433975104 -19022928 -4332650504 -285462548 96 6799471</internalNodes>
          <leafValues>
            -0.4459891915321350 0.4132415652275085</leafValues></_>
        
        <_>
          <internalNodes> 0 -1 86 7413431808 -1682850560 -1663697184 -1080836832 -4353172456 -3301244928 -651394 -51267</internalNodes>
          <leafValues>
            -0.4466069042682648 0.4135067760944367</leafValues></_>
        
        <_>
          <internalNodes> 0 -1 80 8321497728 -754880 -2168032672 -1427327760 -4364501384 -4295187588 -1834238 -659429</internalNodes>
          <leafValues>
            -0.3394956290721893 0.5658645033836365</leafValues></_>
        
        <_>
          <internalNodes> 0 -1 75 -5368727808 3029088384 4294962400 -1128796976 -1663046200 683587724 -4325470 21542413</internalNodes>
          <leafValues>
            -0.5346512198448181 0.3584479391574860</leafValues></_>
        
        <_>
          <internalNodes> 0 -1 55 8454668160 -870121728 -4429728800 -65552 -3225439240 -1564755084 -12438686 -1924483</internalNodes>
          <leafValues>
            -0.4379335641860962 0.4123645126819611</leafValues></_></weakClassifiers></_>
    
    <_>
      <maxWeakCount>10</maxWeakCount>
      <stageThreshold>-0.8402050137519836</stageThreshold>
      <weakClassifiers>
        
        <_>
          <internalNodes> 0 -1 71 -1950761984 188464896 -4849279616 -5167390736 -272639560 -1879319684 -13910104 242591</internalNodes>
          <leafValues>
            -0.2670986354351044 0.6014143228530884</leafValues></_>
        
        <_>
          <internalNodes> 0 -1 31 -4362355328 -1141640320 -4296065088 -3361775632 8588885944 -1048580 -21268450 -29656389</internalNodes>
          <leafValues>
            -0.4149844348430634 0.4670888185501099</leafValues></_>
        
        <_>
          <internalNodes> 0 -1 40 8570927104 -570430080 -2032929824 -86253584 -167840008 -260 22284228 29677566</internalNodes>
          <leafValues>
            -0.4985891580581665 0.3719584941864014</leafValues></_>
        
        <_>
          <internalNodes> 0 -1 109 -945992448 -2984782400 7898263296 -60817664 3687630528 -760233236 -3145906 164748</internalNodes>
          <leafValues>
            -0.4568729996681213 0.3965812027454376</leafValues></_>
        
        <_>
          <internalNodes> 0 -1 130 -1074596992 -2285962816 -1762401568 -532528 -1435243808 -8016354584 -9297294 -10256281</internalNodes>
          <leafValues>
            -0.4770836830139160 0.3862601518630981</leafValues></_>
        
        <_>
          <internalNodes> 0 -1 66 5331156352 -270764096 -5441854784 -6226449728 -2436434184 2934187732 14713666 -17310659</internalNodes>
          <leafValues>
            -0.4877715110778809 0.3778986334800720</leafValues></_>
        
        <_>
          <internalNodes> 0 -1 49 6211486208 -331102464 -3729575392 -5234179568 -2130541912 -396169428 -267422 -3750961</internalNodes>
          <leafValues>
            -0.3721654713153839 0.4994400143623352</leafValues></_>
        
        <_>
          <internalNodes> 0 -1 133 -3756820736 7539716864 -1995436896 2237669424 -7714237784 -1145057540 -10248532 21960978</internalNodes>
          <leafValues>
            -0.3934195041656494 0.4769641458988190</leafValues></_>
        
        <_>
          <internalNodes> 0 -1 0 -384 -7784744960 3724384704 1006451936 8053063664 -2684928788 -5247466 29073082</internalNodes>
          <leafValues>
            -0.4323300719261169 0.4342164099216461</leafValues></_>
        
        <_>
          <internalNodes> 0 -1 103 1498769152 8010665344 -2144704800 -6577938912 3228036072 4276359720 590146 -2152699</internalNodes>
          <leafValues>
            -0.4993278682231903 0.3665378093719482</leafValues></_></weakClassifiers></_>
    
    <_>
      <maxWeakCount>9</maxWeakCount>
      <stageThreshold>-1.1974394321441650</stageThreshold>
      <weakClassifiers>
        
        <_>
          <internalNodes> 0 -1 43 8573061760 -18044288 -65824 -1040 -805393760 -285332824 -88 33554107</internalNodes>
          <leafValues>
            -0.3310225307941437 0.5624626278877258</leafValues></_>
        
        <_>
          <internalNodes> 0 -1 90 8061003904 -348428544 -2566662976 -3154098560 -4591459168 -539570252 -2138162 -7802043</internalNodes>
          <leafValues>
            -0.5266560912132263 0.3704403042793274</leafValues></_>
        
        <_>
          <internalNodes> 0 -1 104 8444680064 -563618752 -67110208 -7786727552 -6585854384 -3356527788 -2293764 -27818259</internalNodes>
          <leafValues>
            -0.4171888828277588 0.4540435671806335</leafValues></_>
        
        <_>
          <internalNodes> 0 -1 85 -1207961216 -2315256384 -3729276000 -7989626896 -134220808 -276824068 -13000846 -15338497</internalNodes>
          <leafValues>
            -0.4556705355644226 0.3704262077808380</leafValues></_>
        
        <_>
          <internalNodes> 0 -1 24 4476095232 -5337253440 4451794944 -1189277264 5515549160 -557876772 -1851446 -18891045</internalNodes>
          <leafValues>
            -0.4182529747486115 0.4267231225967407</leafValues></_>
        
        <_>
          <internalNodes> 0 -1 78 -448379904 -2198452416 -6268235040 -6874201856 -1369260048 -4299888908 -26787230 -36777</internalNodes>
          <leafValues>
            -0.3625369668006897 0.4684656262397766</leafValues></_>
        
        <_>
          <internalNodes> 0 -1 5 -133120 7619881152 8469069248 -1043607088 -2485847040 -354431080 -1331558 4950568</internalNodes>
          <leafValues>
            -0.4742925167083740 0.3689507246017456</leafValues></_>
        
        <_>
          <internalNodes> 0 -1 11 -6564638848 -201327744 -8323599520 4582277104 -572530856 -608176148 -4603970 -5525057</internalNodes>
          <leafValues>
            -0.3666271567344666 0.4580127298831940</leafValues></_>
        
        <_>
          <internalNodes> 0 -1 32 -7511907328 -137283904 -4284271936 -2645381664 -2333353112 4240762244 29491462 -9977277</internalNodes>
          <leafValues>
            -0.4567637443542481 0.3894708156585693</leafValues></_></weakClassifiers></_>
    
    <_>
      <maxWeakCount>9</maxWeakCount>
      <stageThreshold>-0.5733128190040588</stageThreshold>
      <weakClassifiers>
        
        <_>
          <internalNodes> 0 -1 122 -1275348480 -1279525568 4410266432 4661960400 -486718776 -538976516 -15532240 17011647</internalNodes>
          <leafValues>
            -0.4055117964744568 0.5487945079803467</leafValues></_>
        
        <_>
          <internalNodes> 0 -1 68 7247740672 -1476936064 -2144 -82384 -82024 -6245607416 -4456770 -8421765</internalNodes>
          <leafValues>
            -0.3787897229194641 0.4532003402709961</leafValues></_>
        
        <_>
          <internalNodes> 0 -1 58 7763446656 2147265472 -4904285472 -2283632704 1828106472 4000082668 -20863214 30764330</internalNodes>
          <leafValues>
            -0.4258328974246979 0.4202791750431061</leafValues></_>
        
        <_>
          <internalNodes> 0 -1 94 -201741056 -74585920 -2435517184 -3221226768 -1077216976 -71360668 -21254980 -30934343</internalNodes>
          <leafValues>
            -0.4561023116111755 0.4002747833728790</leafValues></_>
        
        <_>
          <internalNodes> 0 -1 87 -5100322944 -65664 183057312 -4362208272 -3091385352 -2281857288 32230716 -258</internalNodes>
          <leafValues>
            -0.4314672648906708 0.4086346626281738</leafValues></_>
        
        <_>
          <internalNodes> 0 -1 127 -2952937216 -3861914880 -8331071904 5163423536 7975291736 -3961526436 -8389002 16887775</internalNodes>
          <leafValues>
            -0.4174543321132660 0.4249868988990784</leafValues></_>
        
        <_>
          <internalNodes> 0 -1 3 -1174441728 -316997440 2676898656 2484666928 4346027224 5895075628 -12795986 2636420</internalNodes>
          <leafValues>
            -0.4321364760398865 0.4090838730335236</leafValues></_>
        
        <_>
          <internalNodes> 0 -1 79 -5657263616 -3366704704 -2479373376 -4722442128 -4327961880 4172813556 -1076496 -1048559</internalNodes>
          <leafValues>
            -0.5018386244773865 0.3702533841133118</leafValues></_>
        
        <_>
          <internalNodes> 0 -1 116 -8499529728 -5749783488 -462468320 -4783149568 -4384097464 -8561889780 -843784 -8491965</internalNodes>
          <leafValues>
            -0.5037505626678467 0.3564981222152710</leafValues></_></weakClassifiers></_>
    
    <_>
      <maxWeakCount>9</maxWeakCount>
      <stageThreshold>-0.4892596900463104</stageThreshold>
      <weakClassifiers>
        
        <_>
          <internalNodes> 0 -1 132 7448540416 3385847680 -11008 8008949088 -1092619008 7748894156 -1048644 31309501</internalNodes>
          <leafValues>
            -0.2448196411132813 0.5689709186553955</leafValues></_>
        
        <_>
          <internalNodes> 0 -1 62 -2447358336 -2156671616 -5157433440 -6603240432 -3570162000 -5731310736 18428498 -1219765</internalNodes>
          <leafValues>
            -0.4633283913135529 0.3587929606437683</leafValues></_>
        
        <_>
          <internalNodes> 0 -1 23 -2624848128 -1056200448 -111149728 -5337399856 -2190651928 -543187696 -4456450 -1225794</internalNodes>
          <leafValues>
            -0.3731099069118500 0.4290455579757690</leafValues></_>
        
        <_>
          <internalNodes> 0 -1 77 -2202353792 6400778112 -4322762944 3804511968 -5554323800 -4614869892 5341616 6307844</internalNodes>
          <leafValues>
            -0.3658909499645233 0.4556473195552826</leafValues></_>
        
        <_>
          <internalNodes> 0 -1 22 -402578432 -157278208 -4764603200 2822770048 1828813256 -303227828 -9170012 -3200493</internalNodes>
          <leafValues>
            -0.5214384198188782 0.3221037387847900</leafValues></_>
        
        <_>
          <internalNodes> 0 -1 72 -2694864768 -3102237824 -1056454400 557696 -733479928 -817898564 -6508546 8529865</internalNodes>
          <leafValues>
            -0.4289036989212036 0.4004956185817719</leafValues></_>
        
        <_>
          <internalNodes> 0 -1 50 -6961999872 -6255082048 5393964000 -242842864 -4439413960 -2535637652 -16039142 -9213940</internalNodes>
          <leafValues>
            -0.4621542394161224 0.3832748532295227</leafValues></_>
        
        <_>
          <internalNodes> 0 -1 108 -7113562496 -3089672512 -7159693664 -6448228736 -3221226776 -5663368452 -22638630 -7467110</internalNodes>
          <leafValues>
            -0.3711548447608948 0.4612701535224915</leafValues></_>
        
        <_>
          <internalNodes> 0 -1 92 210618880 -5177920 -1140414912 -298532032 7486236328 4231823400 6373522 -9100782</internalNodes>
          <leafValues>
            -0.5180652141571045 0.3205870389938355</leafValues></_></weakClassifiers></_>
    
    <_>
      <maxWeakCount>10</maxWeakCount>
      <stageThreshold>-0.5911940932273865</stageThreshold>
      <weakClassifiers>
        
        <_>
          <internalNodes> 0 -1 81 -3386685824 -403609856 7352656576 -296615008 -362615952 -4297055584 64 -19680685</internalNodes>
          <leafValues>
            -0.2592592537403107 0.5873016119003296</leafValues></_>
        
        <_>
          <internalNodes> 0 -1 1 -4342400 -4325440 4831837152 4628413872 8388534256 -8388676 -4456514 -12862610</internalNodes>
          <leafValues>
            -0.3801195919513702 0.4718827307224274</leafValues></_>
        
        <_>
          <internalNodes> 0 -1 121 8589913344 8522825152 -151061984 -3464497872 -1275129312 -5570036740 -196 -8388675</internalNodes>
          <leafValues>
            -0.3509117066860199 0.5094807147979736</leafValues></_>
        
        <_>
          <internalNodes> 0 -1 38 -67179136 7783492544 -66848 -16 -33625368 -270652164 33553900 -325</internalNodes>
          <leafValues>
            -0.4068757295608521 0.4130136370658875</leafValues></_>
        
        <_>
          <internalNodes> 0 -1 17 6605629824 2193091200 -1916805888 -1790969808 5416918016 -1047537716 -2424872 13533081</internalNodes>
          <leafValues>
            -0.4557141065597534 0.3539792001247406</leafValues></_>
        
        <_>
          <internalNodes> 0 -1 100 -1971136000 -3169367168 -5149046784 5574575360 -45096728 -855638084 -3520616 -3932533</internalNodes>
          <leafValues>
            -0.4117803275585175 0.4118592441082001</leafValues></_>
        
        <_>
          <internalNodes> 0 -1 63 -205619200 -1484806272 -3692044288 -8541205840 -8264418976 -4170229764 -5972190 -31282387</internalNodes>
          <leafValues>
            -0.4008397758007050 0.4034757018089294</leafValues></_>
        
        <_>
          <internalNodes> 0 -1 101 6324815744 -1745034496 -421073088 -5743573792 -2552507552 -4244428504 -9802404 -754612</internalNodes>
          <leafValues>
            -0.5694189667701721 0.2964762747287750</leafValues></_>
        
        <_>
          <internalNodes> 0 -1 118 -2484091008 -1004013888 -50331680 -2298478960 -3977591160 -6593448084 -131238 16532932</internalNodes>
          <leafValues>
            -0.3195341229438782 0.5294018983840942</leafValues></_>
        
        <_>
          <internalNodes> 0 -1 92 6871841664 1458943872 -7135366432 -19532560 -1830289416 -4307801536 -5442874 -16849837</internalNodes>
          <leafValues>
            -0.3365339040756226 0.5067458748817444</leafValues></_></weakClassifiers></_>
    
    <_>
      <maxWeakCount>10</maxWeakCount>
      <stageThreshold>-0.7612916231155396</stageThreshold>
      <weakClassifiers>
        
        <_>
          <internalNodes> 0 -1 10 -6637988608 -3128320 174364352 -1814551520 5741880000 -4309754244 -30885334 -4499338</internalNodes>
          <leafValues>
            -0.4204545319080353 0.5165745615959168</leafValues></_>
        
        <_>
          <internalNodes> 0 -1 131 -570532736 -5355692160 8186853152 -8271732784 5894014848 -3158319348 -1048610 232421</internalNodes>
          <leafValues>
            -0.3762553930282593 0.4075302779674530</leafValues></_>
        
        <_>
          <internalNodes> 0 -1 83 -4474752 -1220624512 -4209184 -4295255024 -2155884616 -1422092152 -4262724 -24642</internalNodes>
          <leafValues>
            -0.4253497421741486 0.3728055357933044</leafValues></_>
        
        <_>
          <internalNodes> 0 -1 135 -2154059136 2294987968 -637563904 7976901952 -3894952392 -813696020 -36 -3351348</internalNodes>
          <leafValues>
            -0.3601998090744019 0.4563256204128265</leafValues></_>
        
        <_>
          <internalNodes> 0 -1 115 -2567442560 4118281152 -5225844768 -4784598080 -6119071112 2732559292 -4078622 -20787021</internalNodes>
          <leafValues>
            -0.4034293889999390 0.4160816967487335</leafValues></_>
        
        <_>
          <internalNodes> 0 -1 64 -1671552 -444480 -5733461088 -79478864 -7683759456 -5117828252 -8953026 -531917</internalNodes>
          <leafValues>
            -0.3620899617671967 0.4594142735004425</leafValues></_>
        
        <_>
          <internalNodes> 0 -1 36 6607784064 3221465536 8066238912 -1723123408 -3199472664 -66322580 -9785550 -9613391</internalNodes>
          <leafValues>
            -0.3903816640377045 0.4381459355354309</leafValues></_>
        
        <_>
          <internalNodes> 0 -1 93 7905672960 -5370008768 -7407495584 -4778548320 -4614086672 -4433597896 21168706 -17046213</internalNodes>
          <leafValues>
            -0.3591445386409760 0.4624078869819641</leafValues></_>
        
        <_>
          <internalNodes> 0 -1 91 -1219038208 4252068544 3195190976 -1102054192 2592669416 -4581429400 1064964 18927629</internalNodes>
          <leafValues>
            -0.4297670423984528 0.4023293554782867</leafValues></_>
        
        <_>
          <internalNodes> 0 -1 107 -654311808 -2148009280 -2181825568 -5301862592 -1521786944 -4233893544 -8536224 -25446401</internalNodes>
          <leafValues>
            -0.5727006793022156 0.2995934784412384</leafValues></_></weakClassifiers></_></stages>
  <features>
    <_>
      <rect> 0 15 5 3 </rect></_>
    <_>
      <rect> 0 12 2 4 </rect></_>
    <_>
      <rect> 0 6 3 6 </rect></_>
    <_>
      <rect> 1 18 3 2 </rect></_>
    <_>
      <rect> 1 15 3 3 </rect></_>
    <_>
      <rect> 1 15 7 3 </rect></_>
    <_>
      <rect> 4 15 3 3 </rect></_>
    <_>
      <rect> 11 15 4 3 </rect></_>
    <_>
      <rect> 12 0 4 8 </rect></_>
    <_>
      <rect> 14 12 3 4 </rect></_>
    <_>
      <rect> 0 8 3 5 </rect></_>
    <_>
      <rect> 1 17 2 2 </rect></_>
    <_>
      <rect> 3 14 1 3 </rect></_>
    <_>
      <rect> 7 11 4 4 </rect></_>
    <_>
      <rect> 12 17 2 2 </rect></_>
    <_>
      <rect> 13 11 1 4 </rect></_>
    <_>
      <rect> 14 11 3 4 </rect></_>
    <_>
      <rect> 17 14 2 3 </rect></_>
    <_>
      <rect> 0 16 3 2 </rect></_>
    <_>
      <rect> 1 16 2 2 </rect></_>
    <_>
      <rect> 2 10 6 4 </rect></_>
    <_>
      <rect> 3 10 4 4 </rect></_>
    <_>
      <rect> 7 16 1 2 </rect></_>
    <_>
      <rect> 11 16 3 2 </rect></_>
    <_>
      <rect> 17 13 2 3 </rect></_>
    <_>
      <rect> 0 15 2 2 </rect></_>
    <_>
      <rect> 1 0 3 7 </rect></_>
    <_>
      <rect> 7 15 1 2 </rect></_>
    <_>
      <rect> 7 15 4 2 </rect></_>
    <_>
      <rect> 18 15 2 2 </rect></_>
    <_>
      <rect> 0 14 3 2 </rect></_>
    <_>
      <rect> 3 14 1 2 </rect></_>
    <_>
      <rect> 6 14 1 2 </rect></_>
    <_>
      <rect> 6 14 5 2 </rect></_>
    <_>
      <rect> 7 5 2 5 </rect></_>
    <_>
      <rect> 8 8 3 4 </rect></_>
    <_>
      <rect> 18 14 2 2 </rect></_>
    <_>
      <rect> 0 13 2 2 </rect></_>
    <_>
      <rect> 3 7 4 4 </rect></_>
    <_>
      <rect> 6 13 5 2 </rect></_>
    <_>
      <rect> 9 13 2 2 </rect></_>
    <_>
      <rect> 10 13 2 2 </rect></_>
    <_>
      <rect> 3 6 4 4 </rect></_>
    <_>
      <rect> 4 6 3 4 </rect></_>
    <_>
      <rect> 5 12 3 2 </rect></_>
    <_>
      <rect> 5 12 5 2 </rect></_>
    <_>
      <rect> 5 6 3 4 </rect></_>
    <_>
      <rect> 6 6 2 4 </rect></_>
    <_>
      <rect> 6 6 4 4 </rect></_>
    <_>
      <rect> 18 15 2 1 </rect></_>
    <_>
      <rect> 21 12 1 2 </rect></_>
    <_>
      <rect> 0 8 7 3 </rect></_>
    <_>
      <rect> 4 11 3 2 </rect></_>
    <_>
      <rect> 9 2 1 5 </rect></_>
    <_>
      <rect> 21 11 1 2 </rect></_>
    <_>
      <rect> 0 13 4 1 </rect></_>
    <_>
      <rect> 5 10 2 2 </rect></_>
    <_>
      <rect> 5 7 2 3 </rect></_>
    <_>
      <rect> 17 7 1 3 </rect></_>
    <_>
      <rect> 18 13 2 1 </rect></_>
    <_>
      <rect> 0 0 3 5 </rect></_>
    <_>
      <rect> 2 9 6 2 </rect></_>
    <_>
      <rect> 5 12 1 1 </rect></_>
    <_>
      <rect> 11 12 1 1 </rect></_>
    <_>
      <rect> 16 12 1 1 </rect></_>
    <_>
      <rect> 16 9 1 2 </rect></_>
    <_>
      <rect> 17 12 1 1 </rect></_>
    <_>
      <rect> 18 12 1 1 </rect></_>
    <_>
      <rect> 5 11 2 1 </rect></_>
    <_>
      <rect> 5 5 3 3 </rect></_>
    <_>
      <rect> 7 11 5 1 </rect></_>
    <_>
      <rect> 8 11 1 1 </rect></_>
    <_>
      <rect> 9 11 1 1 </rect></_>
    <_>
      <rect> 10 11 1 1 </rect></_>
    <_>
      <rect> 10 11 2 1 </rect></_>
    <_>
      <rect> 14 5 3 3 </rect></_>
    <_>
      <rect> 15 11 1 1 </rect></_>
    <_>
      <rect> 15 8 1 2 </rect></_>
    <_>
      <rect> 16 11 1 1 </rect></_>
    <_>
      <rect> 16 8 1 2 </rect></_>
    <_>
      <rect> 17 11 1 1 </rect></_>
    <_>
      <rect> 21 11 1 1 </rect></_>
    <_>
      <rect> 3 7 2 2 </rect></_>
    <_>
      <rect> 5 10 2 1 </rect></_>
    <_>
      <rect> 5 4 3 3 </rect></_>
    <_>
      <rect> 5 1 6 4 </rect></_>
    <_>
      <rect> 6 10 1 1 </rect></_>
    <_>
      <rect> 7 7 2 2 </rect></_>
    <_>
      <rect> 8 10 2 1 </rect></_>
    <_>
      <rect> 10 10 1 1 </rect></_>
    <_>
      <rect> 10 10 2 1 </rect></_>
    <_>
      <rect> 15 10 1 1 </rect></_>
    <_>
      <rect> 17 10 1 1 </rect></_>
    <_>
      <rect> 18 10 1 1 </rect></_>
    <_>
      <rect> 0 6 2 2 </rect></_>
    <_>
      <rect> 1 6 5 2 </rect></_>
    <_>
      <rect> 2 0 1 4 </rect></_>
    <_>
      <rect> 3 9 3 1 </rect></_>
    <_>
      <rect> 7 3 4 3 </rect></_>
    <_>
      <rect> 10 3 2 3 </rect></_>
    <_>
      <rect> 11 9 1 1 </rect></_>
    <_>
      <rect> 12 3 2 3 </rect></_>
    <_>
      <rect> 14 0 3 4 </rect></_>
    <_>
      <rect> 17 9 1 1 </rect></_>
    <_>
      <rect> 21 6 1 2 </rect></_>
    <_>
      <rect> 6 5 5 2 </rect></_>
    <_>
      <rect> 7 2 5 3 </rect></_>
    <_>
      <rect> 11 2 2 3 </rect></_>
    <_>
      <rect> 17 5 2 2 </rect></_>
    <_>
      <rect> 17 2 2 3 </rect></_>
    <_>
      <rect> 18 8 2 1 </rect></_>
    <_>
      <rect> 18 5 2 2 </rect></_>
    <_>
      <rect> 0 4 2 2 </rect></_>
    <_>
      <rect> 1 7 3 1 </rect></_>
    <_>
      <rect> 2 1 2 3 </rect></_>
    <_>
      <rect> 7 4 1 2 </rect></_>
    <_>
      <rect> 13 4 1 2 </rect></_>
    <_>
      <rect> 13 1 3 3 </rect></_>
    <_>
      <rect> 17 4 2 2 </rect></_>
    <_>
      <rect> 0 3 2 2 </rect></_>
    <_>
      <rect> 0 3 3 2 </rect></_>
    <_>
      <rect> 4 0 2 3 </rect></_>
    <_>
      <rect> 4 0 6 3 </rect></_>
    <_>
      <rect> 6 0 2 3 </rect></_>
    <_>
      <rect> 11 0 4 3 </rect></_>
    <_>
      <rect> 13 0 2 3 </rect></_>
    <_>
      <rect> 17 3 2 2 </rect></_>
    <_>
      <rect> 17 0 2 3 </rect></_>
    <_>
      <rect> 1 2 3 2 </rect></_>
    <_>
      <rect> 3 2 4 2 </rect></_>
    <_>
      <rect> 6 5 1 1 </rect></_>
    <_>
      <rect> 16 2 2 2 </rect></_>
    <_>
      <rect> 1 1 2 2 </rect></_>
    <_>
      <rect> 1 1 5 2 </rect></_>
    <_>
      <rect> 12 1 2 2 </rect></_>
    <_>
      <rect> 0 0 2 2 </rect></_></features></cascade>
</opencv_storage>