<?xml version="1.0"?>
<!--
number of positive samples 3000
number of negative samples 1500
-->
<opencv_storage>
<cascade type_id="opencv-cascade-classifier">
  <stageType>BOOST</stageType>
  <featureType>LBP</featureType>
  <height>24</height>
  <width>24</width>
  <stageParams>
    <boostType>GAB</boostType>
    <minHitRate>0.9950000047683716</minHitRate>
    <maxFalseAlarm>0.5000000000000000</maxFalseAlarm>
    <weightTrimRate>0.9500000000000000</weightTrimRate>
    <maxDepth>1</maxDepth>
    <maxWeakCount>100</maxWeakCount></stageParams>
  <featureParams>
    <maxCatCount>256</maxCatCount></featureParams>
  <stageNum>20</stageNum>
  <stages>
    
    <_>
      <maxWeakCount>3</maxWeakCount>
      <stageThreshold>-0.7520892024040222</stageThreshold>
      <weakClassifiers>
        
        <_>
          <internalNodes> 0 -1 46 -1426120013 -21585 -24005 -21569 587145899 -67130709 -1275125205 -16385</internalNodes>
          <leafValues>
            -0.6543210148811340 0.8888888955116272</leafValues></_>
        
        <_>
          <internalNodes> 0 -1 13 -10027009 -514457854 -1 -769593758 -524289 -163512766 -262145 -193593353</internalNodes>
          <leafValues>
            -0.7739216089248657 0.7278633713722229</leafValues></_>
        
        <_>
          <internalNodes> 0 -1 2 -1337948010 1088782736 -1590337 -893203669 -741544961 -363936790 -136907894 -134217726</internalNodes>
          <leafValues>
            -0.7068563103675842 0.6761534214019775</leafValues></_></weakClassifiers></_>
    
    <_>
      <maxWeakCount>4</maxWeakCount>
      <stageThreshold>-0.4872078299522400</stageThreshold>
      <weakClassifiers>
        
        <_>
          <internalNodes> 0 -1 84 -536870913 738132490 2147446655 1946124287 243204619 2147483647 2147450879 1061101567</internalNodes>
          <leafValues>
            -0.8083735704421997 0.7685696482658386</leafValues></_>
        
        <_>
          <internalNodes> 0 -1 21 1879048191 1879048191 801111999 263176079 -268435457 2147483647 254749487 -134252545</internalNodes>
          <leafValues>
            -0.7698410153388977 0.6592915654182434</leafValues></_>
        
        <_>
          <internalNodes> 0 -1 106 -285484400 -189334372 -262145 1610939566 -571026695 -98110272 -850010381 -1671954433</internalNodes>
          <leafValues>
            -0.7506558895111084 0.5444605946540833</leafValues></_>
        
        <_>
          <internalNodes> 0 -1 48 1095771153 -65569 -69206049 -131075 -216727745 -798690576 -237144073 -1</internalNodes>
          <leafValues>
            -0.7775990366935730 0.5465461611747742</leafValues></_></weakClassifiers></_>
    
    <_>
      <maxWeakCount>4</maxWeakCount>
      <stageThreshold>-1.1592328548431396</stageThreshold>
      <weakClassifiers>
        
        <_>
          <internalNodes> 0 -1 47 -100818262 -20561 -134238549 -20549 -151016790 -21585 -738254174 -36865</internalNodes>
          <leafValues>
            -0.5601882934570313 0.7743113040924072</leafValues></_>
        
        <_>
          <internalNodes> 0 -1 12 -268994614 -402686081 -402653185 183435247 -286785545 -286003217 -421330945 1090387966</internalNodes>
          <leafValues>
            -0.6124526262283325 0.6978127956390381</leafValues></_>
        
        <_>
          <internalNodes> 0 -1 26 -50463492 -134218251 -172490753 970882927 -33619992 -50347012 -1253377 -50364513</internalNodes>
          <leafValues>
            -0.6114496588706970 0.6537628173828125</leafValues></_>
        
        <_>
          <internalNodes> 0 -1 8 1877977738 -134217987 1095231247 -135266321 -18910642 -273 -2088243418 2146926575</internalNodes>
          <leafValues>
            -0.6854077577590942 0.5403239130973816</leafValues></_></weakClassifiers></_>
    
    <_>
      <maxWeakCount>5</maxWeakCount>
      <stageThreshold>-0.7562355995178223</stageThreshold>
      <weakClassifiers>
        
        <_>
          <internalNodes> 0 -1 96 -20971602 -134250731 -150995969 1870659519 -250 -1273 -67633153 2004875127</internalNodes>
          <leafValues>
            -0.4051094949245453 0.7584033608436585</leafValues></_>
        
        <_>
          <internalNodes> 0 -1 33 -4262145 1465211989 -524289 -76810262 -2656269 -868162224 -257 -268959873</internalNodes>
          <leafValues>
            -0.7388162612915039 0.5340843200683594</leafValues></_>
        
        <_>
          <internalNodes> 0 -1 57 -541103378 -38993 -72478976 -49 -1153876 -12817 -152950 -20481</internalNodes>
          <leafValues>
            -0.6582943797111511 0.5339496731758118</leafValues></_>
        
        <_>
          <internalNodes> 0 -1 125 -319816180 -2111 -520947741 -452984961 -488975296 -269484161 -1594032130 -990117891</internalNodes>
          <leafValues>
            -0.5981323719024658 0.5323504805564880</leafValues></_>
        
        <_>
          <internalNodes> 0 -1 53 -1342193665 1998528318 -1 670265215 -33570977 557787431 -1075892225 1056964607</internalNodes>
          <leafValues>
            -0.6498787999153137 0.4913350641727448</leafValues></_></weakClassifiers></_>
    
    <_>
      <maxWeakCount>5</maxWeakCount>
      <stageThreshold>-0.8085358142852783</stageThreshold>
      <weakClassifiers>
        
        <_>
          <internalNodes> 0 -1 60 -16842788 -176687276 -33554626 880195381 -16777260 -536873708 -20971521 -168427659</internalNodes>
          <leafValues>
            -0.5278195738792419 0.6946372389793396</leafValues></_>
        
        <_>
          <internalNodes> 0 -1 7 -1090591130 -8388827 -531118985 -62981529 -39577 -1 805330978 -41945787</internalNodes>
          <leafValues>
            -0.5206505060195923 0.6329920291900635</leafValues></_>
        
        <_>
          <internalNodes> 0 -1 98 -852489 1489881036 -1 1347747543 -1 -725287348 -16809993 -167903241</internalNodes>
          <leafValues>
            -0.7516061067581177 0.4232024252414703</leafValues></_>
        
        <_>
          <internalNodes> 0 -1 44 -65 -8388609 733886267 1006582562 -1 -32777 935312171 -1078198273</internalNodes>
          <leafValues>
            -0.7639313936233521 0.4123568832874298</leafValues></_>
        
        <_>
          <internalNodes> 0 -1 24 -1036436754 1123369029 -194513409 2138828511 -1013468481 -85474705 817625855 -58796809</internalNodes>
          <leafValues>
            -0.5123769044876099 0.5791834592819214</leafValues></_></weakClassifiers></_>
    
    <_>
      <maxWeakCount>5</maxWeakCount>
      <stageThreshold>-0.5549971461296082</stageThreshold>
      <weakClassifiers>
        
        <_>
          <internalNodes> 0 -1 42 -268457797 -17473 -21846 -20481 -21829 -17409 -134239493 -1</internalNodes>
          <leafValues>
            -0.3763174116611481 0.7298233509063721</leafValues></_>
        
        <_>
          <internalNodes> 0 -1 6 -269504725 2147483519 -268472385 -2098262358 -1090519233 -805310737 682502698 1740574719</internalNodes>
          <leafValues>
            -0.5352765917778015 0.5659480094909668</leafValues></_>
        
        <_>
          <internalNodes> 0 -1 61 -8 -20481 -16849696 -6145 -50856216 -67109678 -87884584 -1073762305</internalNodes>
          <leafValues>
            -0.5678374171257019 0.4961479902267456</leafValues></_>
        
        <_>
          <internalNodes> 0 -1 123 -1359008245 -1346685918 -1346371657 1002418167 -1359010520 -138428633 -1908670465 910098423</internalNodes>
          <leafValues>
            -0.5706262588500977 0.4572288393974304</leafValues></_>
        
        <_>
          <internalNodes> 0 -1 9 1256531674 1216308261 -151796633 -4196353 33498198 -89138513 -1330665426 -36190633</internalNodes>
          <leafValues>
            -0.5344601869583130 0.4672054052352905</leafValues></_></weakClassifiers></_>
    
    <_>
      <maxWeakCount>5</maxWeakCount>
      <stageThreshold>-0.8776460289955139</stageThreshold>
      <weakClassifiers>
        
        <_>
          <internalNodes> 0 -1 105 -34013449 -789514004 -264193 206601725 -690225153 1073769576 -33554433 -101384321</internalNodes>
          <leafValues>
            -0.7700348496437073 0.5943940877914429</leafValues></_>
        
        <_>
          <internalNodes> 0 -1 30 -49153 -269484035 -1277955 -823623681 -1078198273 -1432340997 -34291724 -1342767105</internalNodes>
          <leafValues>
            -0.5043668746948242 0.6151274442672730</leafValues></_>
        
        <_>
          <internalNodes> 0 -1 35 -436748425 -50855988 -1 -195758209 -1 -1067385040 -134217731 -129</internalNodes>
          <leafValues>
            -0.6808040738105774 0.4667325913906097</leafValues></_>
        
        <_>
          <internalNodes> 0 -1 119 -26050561 -268468364 -17367185 -34111555 -2114244 832534325 -423659521 2105014143</internalNodes>
          <leafValues>
            -0.4927591383457184 0.5401885509490967</leafValues></_>
        
        <_>
          <internalNodes> 0 -1 82 2143059967 -1140949004 -739516 -1080524865 -2361356 -1089439888 -1114121 -3</internalNodes>
          <leafValues>
            -0.6445107460021973 0.4227822124958038</leafValues></_></weakClassifiers></_>
    
    <_>
      <maxWeakCount>6</maxWeakCount>
      <stageThreshold>-1.1139287948608398</stageThreshold>
      <weakClassifiers>
        
        <_>
          <internalNodes> 0 -1 52 -1 -5324817 582134442 -1074003969 -335548482 -1074071553 -1280135430 -1</internalNodes>
          <leafValues>
            -0.5307556986808777 0.6258179545402527</leafValues></_>
        
        <_>
          <internalNodes> 0 -1 99 -540016724 -570630659 -35848193 -705364068 -33628164 -706937396 -570495027 -587857963</internalNodes>
          <leafValues>
            -0.5227634310722351 0.5049746036529541</leafValues></_>
        
        <_>
          <internalNodes> 0 -1 18 -268503053 261017599 -805306449 42119158 1954394111 -2035630093 -1671444 1325432815</internalNodes>
          <leafValues>
            -0.4983572661876679 0.5106441378593445</leafValues></_>
        
        <_>
          <internalNodes> 0 -1 111 1426018736 -546832487 -570427929 -1558073088 -34243375 -282529488 -170526448 -5113037</internalNodes>
          <leafValues>
            -0.4990860521793366 0.5060507059097290</leafValues></_>
        
        <_>
          <internalNodes> 0 -1 92 915094269 -1837027144 1067975613 -606301707 2147318747 1016332500 -1080086049 -1361600280</internalNodes>
          <leafValues>
            -0.5695009231567383 0.4460467398166657</leafValues></_>
        
        <_>
          <internalNodes> 0 -1 51 -141599534 1505950458 -1326199134 -15413034 -79823438 -656420166 -603435836 -787556946</internalNodes>
          <leafValues>
            -0.6590405106544495 0.3616424500942230</leafValues></_></weakClassifiers></_>
    
    <_>
      <maxWeakCount>7</maxWeakCount>
      <stageThreshold>-0.8243625760078430</stageThreshold>
      <weakClassifiers>
        
        <_>
          <internalNodes> 0 -1 28 -262 -143312112 -1 -201916417 -41943178 -901591776 -67371009 -524289</internalNodes>
          <leafValues>
            -0.4972776770591736 0.6027074456214905</leafValues></_>
        
        <_>
          <internalNodes> 0 -1 112 -268437513 -17350859 -29377 -411340929 -71344315 -4507851 -67502145 -32901</internalNodes>
          <leafValues>
            -0.4383158981800079 0.5966237187385559</leafValues></_>
        
        <_>
          <internalNodes> 0 -1 69 -239063587 1485072126 801906927 -117379438 2123118847 -75894785 -12538500 2076233213</internalNodes>
          <leafValues>
            -0.6386105418205261 0.3977999985218048</leafValues></_>
        
        <_>
          <internalNodes> 0 -1 19 -16876049 242165211 -455082829 786628589 -696268833 -823480413 -1364262914 1315930109</internalNodes>
          <leafValues>
            -0.5512794256210327 0.4282079637050629</leafValues></_>
        
        <_>
          <internalNodes> 0 -1 73 -1396236286 -185612509 -1041235973 6746762 -143132877 -521411968 -2038436114 57669627</internalNodes>
          <leafValues>
            -0.6418755054473877 0.3549866080284119</leafValues></_>
        
        <_>
          <internalNodes> 0 -1 126 -1645895615 -557859073 -1058802061 1076028979 1442574528 -478153869 1365298272 -339771473</internalNodes>
          <leafValues>
            -0.4841901361942291 0.4668019413948059</leafValues></_>
        
        <_>
          <internalNodes> 0 -1 45 -1610612745 1467604861 -4481349 -1650402048 1476263935 -246350404 -788400696 -2787397</internalNodes>
          <leafValues>
            -0.5855734348297119 0.3879135847091675</leafValues></_></weakClassifiers></_>
    
    <_>
      <maxWeakCount>7</maxWeakCount>
      <stageThreshold>-1.2237116098403931</stageThreshold>
      <weakClassifiers>
        
        <_>
          <internalNodes> 0 -1 114 -16809993 2146778388 -34865205 1572863935 -268608444 -24819 -67108865 1433927541</internalNodes>
          <leafValues>
            -0.2518476545810700 0.7088654041290283</leafValues></_>
        
        <_>
          <internalNodes> 0 -1 97 -32769 -1116675 -33603327 -134271049 -8231 -1841359 -5767369 -2185</internalNodes>
          <leafValues>
            -0.4303432404994965 0.5283288359642029</leafValues></_>
        
        <_>
          <internalNodes> 0 -1 25 -1073778729 -809512977 -134758978 -1360593090 -41959433 -1359507589 -269553812 1744707583</internalNodes>
          <leafValues>
            -0.4259553551673889 0.5440809130668640</leafValues></_>
        
        <_>
          <internalNodes> 0 -1 34 -1140907329 658456383 -16385 -134270989 -1140900929 729753407 -235200777 2147467263</internalNodes>
          <leafValues>
            -0.5605589151382446 0.4220733344554901</leafValues></_>
        
        <_>
          <internalNodes> 0 -1 134 -193005472 1205338070 -420544526 -420675595 887604324 -310380553 -353568129 -990380036</internalNodes>
          <leafValues>
            -0.5192656517028809 0.4399855434894562</leafValues></_>
        
        <_>
          <internalNodes> 0 -1 16 -287119734 114759245 -671660453 1978920959 -707510259 -1427119361 -487068946 -540578051</internalNodes>
          <leafValues>
            -0.5013077259063721 0.4570254683494568</leafValues></_>
        
        <_>
          <internalNodes> 0 -1 74 -328301948 -1142658284 -263185 -889949281 2146417353 -738463762 -121832450 -1863576559</internalNodes>
          <leafValues>
            -0.4631414115428925 0.4790246188640595</leafValues></_></weakClassifiers></_>
    
    <_>
      <maxWeakCount>7</maxWeakCount>
      <stageThreshold>-0.5544230937957764</stageThreshold>
      <weakClassifiers>
        
        <_>
          <internalNodes> 0 -1 113 -1 -148007 -272842924 -65538 -221796 -76228780 -67174401 -33</internalNodes>
          <leafValues>
            -0.3949716091156006 0.6082032322883606</leafValues></_>
        
        <_>
          <internalNodes> 0 -1 110 2138570036 790708019 -4456483 -1625232112 799948719 369147696 -1189900 -1212613127</internalNodes>
          <leafValues>
            -0.4855885505676270 0.4785369932651520</leafValues></_>
        
        <_>
          <internalNodes> 0 -1 37 536832799 -1342414991 -268456129 -290015241 -176769 784215839 -402984963 -838864897</internalNodes>
          <leafValues>
            -0.4620285332202911 0.4989669024944305</leafValues></_>
        
        <_>
          <internalNodes> 0 -1 41 -340294900 -519766032 -585322623 -171915327 -73096060 -486418688 -21938 -772751172</internalNodes>
          <leafValues>
            -0.6420643329620361 0.3624351918697357</leafValues></_>
        
        <_>
          <internalNodes> 0 -1 117 -1423463824 -4849669 -1071915349 -475332625 -219032928 -33554953 -2077230421 -2080505925</internalNodes>
          <leafValues>
            -0.4820112884044647 0.4632140696048737</leafValues></_>
        
        <_>
          <internalNodes> 0 -1 65 -1349314083 -619913764 -1979118423 -134217476 -1386890321 -834130468 -1073803559 -1449131844</internalNodes>
          <leafValues>
            -0.4465552568435669 0.5061788558959961</leafValues></_>
        
        <_>
          <internalNodes> 0 -1 56 -16530 -1161904146 -1464078708 1912569855 -268439634 -285249779 -1731022870 -1342177297</internalNodes>
          <leafValues>
            -0.5190586447715759 0.4441480338573456</leafValues></_></weakClassifiers></_>
    
    <_>
      <maxWeakCount>7</maxWeakCount>
      <stageThreshold>-0.7161560654640198</stageThreshold>
      <weakClassifiers>
        
        <_>
          <internalNodes> 0 -1 20 -10027057 -277348353 1195769615 1078001186 -1210581153 1246232575 60102 -43646987</internalNodes>
          <leafValues>
            -0.4323809444904327 0.5663768053054810</leafValues></_>
        
        <_>
          <internalNodes> 0 -1 15 -578775890 -1946580497 -12103599 -612921106 -1986687009 -778583572 -4036478 -1164766570</internalNodes>
          <leafValues>
            -0.4588732719421387 0.4547033011913300</leafValues></_>
        
        <_>
          <internalNodes> 0 -1 129 -1363169553 -1414286549 -1077936257 2013231743 -1356133589 -1073759445 -1082459201 868185983</internalNodes>
          <leafValues>
            -0.5218553543090820 0.4111092388629913</leafValues></_>
        
        <_>
          <internalNodes> 0 -1 102 -1204850272 -67121221 -776734797 -2093417722 -1309195902 -84148365 564290299 -1342177350</internalNodes>
          <leafValues>
            -0.4920000731945038 0.4326725304126740</leafValues></_>
        
        <_>
          <internalNodes> 0 -1 88 -290216278 2083877442 -234882162 67104495 -144191964 -25694458 -168563037 1702788383</internalNodes>
          <leafValues>
            -0.4494568109512329 0.4448510706424713</leafValues></_>
        
        <_>
          <internalNodes> 0 -1 59 -1612267521 1550862252 -4579409 904682741 -357380888 -857980836 232279415 -574825221</internalNodes>
          <leafValues>
            -0.5180826783180237 0.3888972699642181</leafValues></_>
        
        <_>
          <internalNodes> 0 -1 27 494928389 939541351 2137216273 -137838400 -620603549 -98549440 -246013630 -1196072350</internalNodes>
          <leafValues>
            -0.6081240773200989 0.3333222270011902</leafValues></_></weakClassifiers></_>
    
    <_>
      <maxWeakCount>8</maxWeakCount>
      <stageThreshold>-0.6743940711021423</stageThreshold>
      <weakClassifiers>
        
        <_>
          <internalNodes> 0 -1 29 -1302151626 -1059008937 -268369925 2071191945 1147328110 -150995201 536934335 914128709</internalNodes>
          <leafValues>
            -0.1790193915367127 0.6605972051620483</leafValues></_>
        
        <_>
          <internalNodes> 0 -1 128 -1342177289 -1107833788 -136319041 1610575703 -333558568 -134509479 1861484541 1577058173</internalNodes>
          <leafValues>
            -0.3681024610996246 0.5139749646186829</leafValues></_>
        
        <_>
          <internalNodes> 0 -1 70 -1090984524 -539492875 -321 1060154476 -839568424 -1 -630918524 779616255</internalNodes>
          <leafValues>
            -0.3217232525348663 0.6171553134918213</leafValues></_>
        
        <_>
          <internalNodes> 0 -1 4 -791084350 235286671 -966276889 -285029906 1344390399 -269562385 -17923776 1275504943</internalNodes>
          <leafValues>
            -0.4373284578323364 0.4358185231685638</leafValues></_>
        
        <_>
          <internalNodes> 0 -1 76 595427229 575672208 -1155858277 -747628419 872217086 17825984 1474759671 -1684005538</internalNodes>
          <leafValues>
            -0.4404836893081665 0.4601220190525055</leafValues></_>
        
        <_>
          <internalNodes> 0 -1 124 -822231622 -470820869 -1015285005 1873735591 -1057132384 -336593039 -355795238 -1997537409</internalNodes>
          <leafValues>
            -0.4294152259826660 0.4452161788940430</leafValues></_>
        
        <_>
          <internalNodes> 0 -1 54 -322142257 -951029539 -79249765 -593694721 -1615106053 -834212130 -364892500 -302125121</internalNodes>
          <leafValues>
            -0.3973052501678467 0.4854526817798615</leafValues></_>
        
        <_>
          <internalNodes> 0 -1 95 -33554561 -855685912 536827383 2147431935 1988052447 1342144479 -47873 -1</internalNodes>
          <leafValues>
            -0.7054683566093445 0.2697997391223908</leafValues></_></weakClassifiers></_>
    
    <_>
      <maxWeakCount>9</maxWeakCount>
      <stageThreshold>-1.2042298316955566</stageThreshold>
      <weakClassifiers>
        
        <_>
          <internalNodes> 0 -1 39 -537002499 1560590321 -513 -183437936 -2097193 1431368960 -137497097 -84611081</internalNodes>
          <leafValues>
            -0.5905947685241699 0.5101932883262634</leafValues></_>
        
        <_>
          <internalNodes> 0 -1 120 2130706431 -8567536 -21004417 2105491231 -33780003 -1645259691 1458995007 -42483883</internalNodes>
          <leafValues>
            -0.4449204802513123 0.4490709304809570</leafValues></_>
        
        <_>
          <internalNodes> 0 -1 89 -362027516 275854917 -134221825 -505806938 -12600561 -612381022 -452985106 1920431639</internalNodes>
          <leafValues>
            -0.4693818688392639 0.4061094820499420</leafValues></_>
        
        <_>
          <internalNodes> 0 -1 14 -554172679 -16779441 -150997129 -161 -33604275 -805573153 -530519488 2000682871</internalNodes>
          <leafValues>
            -0.3600351214408875 0.5056326985359192</leafValues></_>
        
        <_>
          <internalNodes> 0 -1 67 1467449341 -1608493775 -71365637 435166195 -1083162625 6192 2046691505 -4755729</internalNodes>
          <leafValues>
            -0.4459891915321350 0.4132415652275085</leafValues></_>
        
        <_>
          <internalNodes> 0 -1 86 1853357967 -415924289 -825311232 -3281034 -1088293113 -41689215 -420712635 -270209208</internalNodes>
          <leafValues>
            -0.4466069042682648 0.4135067760944367</leafValues></_>
        
        <_>
          <internalNodes> 0 -1 80 2080374461 -542008165 -1073796897 -42203396 -1091125345 -117391116 -188709 -356831940</internalNodes>
          <leafValues>
            -0.3394956290721893 0.5658645033836365</leafValues></_>
        
        <_>
          <internalNodes> 0 -1 75 -1342181951 1073740607 170896931 1378714472 -415761549 -276830049 757272098 -282199241</internalNodes>
          <leafValues>
            -0.5346512198448181 0.3584479391574860</leafValues></_>
        
        <_>
          <internalNodes> 0 -1 55 2113667055 -1107432194 -391188771 -123166849 -806359809 -796075825 -217530421 -16385</internalNodes>
          <leafValues>
            -0.4379335641860962 0.4123645126819611</leafValues></_></weakClassifiers></_>
    
    <_>
      <maxWeakCount>10</maxWeakCount>
      <stageThreshold>-0.8402050137519836</stageThreshold>
      <weakClassifiers>
        
        <_>
          <internalNodes> 0 -1 71 -487690486 -1212319899 -469829921 15525883 -68159890 -890246622 47116238 -1291847681</internalNodes>
          <leafValues>
            -0.2670986354351044 0.6014143228530884</leafValues></_>
        
        <_>
          <internalNodes> 0 -1 31 -1090588811 -1074016265 -262145 -1898008841 2147221487 -1361180685 -285410071 -840443905</internalNodes>
          <leafValues>
            -0.4149844348430634 0.4670888185501099</leafValues></_>
        
        <_>
          <internalNodes> 0 -1 40 2142731795 -508232452 -65 1899364271 -41960001 1426190596 -142607505 -21563393</internalNodes>
          <leafValues>
            -0.4985891580581665 0.3719584941864014</leafValues></_>
        
        <_>
          <internalNodes> 0 -1 109 -236498096 1974565825 -190058309 10543906 921907633 -201337965 -746195597 -15204415</internalNodes>
          <leafValues>
            -0.4568729996681213 0.3965812027454376</leafValues></_>
        
        <_>
          <internalNodes> 0 -1 130 -268649235 -440600392 -2004088646 -656401928 -358810952 -595026732 -571490699 -133131</internalNodes>
          <leafValues>
            -0.4770836830139160 0.3862601518630981</leafValues></_>
        
        <_>
          <internalNodes> 0 -1 66 1332789109 -1360463693 733546933 -1107882114 -609108546 941674740 -67691015 -1556612430</internalNodes>
          <leafValues>
            -0.4877715110778809 0.3778986334800720</leafValues></_>
        
        <_>
          <internalNodes> 0 -1 49 1552871558 -932393844 -99042357 -240061474 -532635478 -17114945 -82775604 -1308544889</internalNodes>
          <leafValues>
            -0.3721654713153839 0.4994400143623352</leafValues></_>
        
        <_>
          <internalNodes> 0 -1 133 -939205164 -498859222 -286264385 1405502603 -1928559445 -655906006 1884929228 559417357</internalNodes>
          <leafValues>
            -0.3934195041656494 0.4769641458988190</leafValues></_>
        
        <_>
          <internalNodes> 0 -1 0 -90 931096183 -671232197 1860677295 2013265917 -335837777 -1946186226 251612987</internalNodes>
          <leafValues>
            -0.4323300719261169 0.4342164099216461</leafValues></_>
        
        <_>
          <internalNodes> 0 -1 103 374692301 -536176194 1069089930 -137772680 807009019 37769424 2002666345 -1644484728</internalNodes>
          <leafValues>
            -0.4993278682231903 0.3665378093719482</leafValues></_></weakClassifiers></_>
    
    <_>
      <maxWeakCount>9</maxWeakCount>
      <stageThreshold>-1.1974394321441650</stageThreshold>
      <weakClassifiers>
        
        <_>
          <internalNodes> 0 -1 43 2143265466 -16450 -71333206 2147462911 -201348440 -5505 -4511070 -257</internalNodes>
          <leafValues>
            -0.3310225307941437 0.5624626278877258</leafValues></_>
        
        <_>
          <internalNodes> 0 -1 90 2015250980 -641665744 -134892563 -499330741 -1147864792 -136842268 -87107126 -788524639</internalNodes>
          <leafValues>
            -0.5266560912132263 0.3704403042793274</leafValues></_>
        
        <_>
          <internalNodes> 0 -1 104 2111170033 -16777551 -839131947 -1780368555 -1646463595 -146800880 -140904684 -1946681885</internalNodes>
          <leafValues>
            -0.4171888828277588 0.4540435671806335</leafValues></_>
        
        <_>
          <internalNodes> 0 -1 85 -301990281 -932319000 -69206017 -981663763 -33555201 -832054034 -578814081 -1997406723</internalNodes>
          <leafValues>
            -0.4556705355644226 0.3704262077808380</leafValues></_>
        
        <_>
          <internalNodes> 0 -1 24 1119023838 1112948738 -139469193 -1209026825 1378887291 -118492417 -1334313353 -297319313</internalNodes>
          <leafValues>
            -0.4182529747486115 0.4267231225967407</leafValues></_>
        
        <_>
          <internalNodes> 0 -1 78 -112094959 -1567058760 -1074972227 -2353704 -342315012 -1714382628 -549613092 -1718550464</internalNodes>
          <leafValues>
            -0.3625369668006897 0.4684656262397766</leafValues></_>
        
        <_>
          <internalNodes> 0 -1 5 -33279 2117267315 -88607770 316836394 -621461759 -85219702 1904970288 -260901769</internalNodes>
          <leafValues>
            -0.4742925167083740 0.3689507246017456</leafValues></_>
        
        <_>
          <internalNodes> 0 -1 11 -1641159686 -2080899877 -152044037 -353603585 -143132713 -294654041 -50331921 1145569279</internalNodes>
          <leafValues>
            -0.3666271567344666 0.4580127298831940</leafValues></_>
        
        <_>
          <internalNodes> 0 -1 32 -1877976819 -1071067983 1060190561 -638545712 -583338277 1887453658 -34320972 -661345416</internalNodes>
          <leafValues>
            -0.4567637443542481 0.3894708156585693</leafValues></_></weakClassifiers></_>
    
    <_>
      <maxWeakCount>9</maxWeakCount>
      <stageThreshold>-0.5733128190040588</stageThreshold>
      <weakClassifiers>
        
        <_>
          <internalNodes> 0 -1 122 -318837116 1102566613 -134744129 1088745462 -121679694 -994063296 -319881377 1165490103</internalNodes>
          <leafValues>
            -0.4055117964744568 0.5487945079803467</leafValues></_>
        
        <_>
          <internalNodes> 0 -1 68 1811935199 -529 -1561401854 -538992907 -20505 -285233233 -369234005 -20593</internalNodes>
          <leafValues>
            -0.3787897229194641 0.4532003402709961</leafValues></_>
        
        <_>
          <internalNodes> 0 -1 58 1940861695 -1226071367 1000020667 1968917183 457026619 -1335245632 536816369 -570908176</internalNodes>
          <leafValues>
            -0.4258328974246979 0.4202791750431061</leafValues></_>
        
        <_>
          <internalNodes> 0 -1 94 -50435249 -608879292 -17840167 -1979797897 -269304244 -1360318719 -18646473 -805306691</internalNodes>
          <leafValues>
            -0.4561023116111755 0.4002747833728790</leafValues></_>
        
        <_>
          <internalNodes> 0 -1 87 -1275080721 45764335 -570464322 -16449 -772846337 2062765935 -16406 -1090552065</internalNodes>
          <leafValues>
            -0.4314672648906708 0.4086346626281738</leafValues></_>
        
        <_>
          <internalNodes> 0 -1 127 -738234288 -2082767969 -990381609 1080817663 1993822934 -536896021 -965478709 1290855887</internalNodes>
          <leafValues>
            -0.4174543321132660 0.4249868988990784</leafValues></_>
        
        <_>
          <internalNodes> 0 -1 3 -293610428 669224671 1473768907 168730891 1086506807 -818943025 -79249354 621166734</internalNodes>
          <leafValues>
            -0.4321364760398865 0.4090838730335236</leafValues></_>
        
        <_>
          <internalNodes> 0 -1 79 -1414315879 -619843344 1043203389 -67107736 -1081990469 -68895696 -841676168 -1180610531</internalNodes>
          <leafValues>
            -0.5018386244773865 0.3702533841133118</leafValues></_>
        
        <_>
          <internalNodes> 0 -1 116 -2124882422 -115617074 -2140472445 -543485719 -1096024366 -54002134 -1437445858 -1195787391</internalNodes>
          <leafValues>
            -0.5037505626678467 0.3564981222152710</leafValues></_></weakClassifiers></_>
    
    <_>
      <maxWeakCount>9</maxWeakCount>
      <stageThreshold>-0.4892596900463104</stageThreshold>
      <weakClassifiers>
        
        <_>
          <internalNodes> 0 -1 132 1862135111 -2752 1937223539 2003808111 -273154752 -67113211 846461923 2002237273</internalNodes>
          <leafValues>
            -0.2448196411132813 0.5689709186553955</leafValues></_>
        
        <_>
          <internalNodes> 0 -1 62 -611839555 -1289358360 -1432827684 -78064940 -892540499 1179423888 -539167899 -1650810108</internalNodes>
          <leafValues>
            -0.4633283913135529 0.3587929606437683</leafValues></_>
        
        <_>
          <internalNodes> 0 -1 23 -656212031 -27787425 -135796924 -78450761 -547662981 -285212705 -264050110 -1334349961</internalNodes>
          <leafValues>
            -0.3731099069118500 0.4290455579757690</leafValues></_>
        
        <_>
          <internalNodes> 0 -1 77 -550588417 -1080690735 -1153717473 403702016 -1388580949 341863476 1600194541 951127993</internalNodes>
          <leafValues>
            -0.3658909499645233 0.4556473195552826</leafValues></_>
        
        <_>
          <internalNodes> 0 -1 22 -100644596 -1191150794 -75806957 -204831512 457203315 -586880702 -39319550 705692513</internalNodes>
          <leafValues>
            -0.5214384198188782 0.3221037387847900</leafValues></_>
        
        <_>
          <internalNodes> 0 -1 72 -673716192 -264113598 -204474641 545911370 -183369982 -416546870 -775559454 139424</internalNodes>
          <leafValues>
            -0.4289036989212036 0.4004956185817719</leafValues></_>
        
        <_>
          <internalNodes> 0 -1 50 -1740499937 1348491006 -633909413 -589692154 -1109853489 -1026505020 -1563770497 -60710713</internalNodes>
          <leafValues>
            -0.4621542394161224 0.3832748532295227</leafValues></_>
        
        <_>
          <internalNodes> 0 -1 108 -1778390608 -1789923416 -1415842113 -477895040 -805306693 -1448872304 -772418127 -1612057181</internalNodes>
          <leafValues>
            -0.3711548447608948 0.4612701535224915</leafValues></_>
        
        <_>
          <internalNodes> 0 -1 92 52654751 -285103725 1057955850 -582449988 1871559083 407905424 -1294472 -74633006</internalNodes>
          <leafValues>
            -0.5180652141571045 0.3205870389938355</leafValues></_></weakClassifiers></_>
    
    <_>
      <maxWeakCount>10</maxWeakCount>
      <stageThreshold>-0.5911940932273865</stageThreshold>
      <weakClassifiers>
        
        <_>
          <internalNodes> 0 -1 81 -846671428 1838164148 -1074263896 -1259563825 -90653988 4112 -100902460 -74153752</internalNodes>
          <leafValues>
            -0.2592592537403107 0.5873016119003296</leafValues></_>
        
        <_>
          <internalNodes> 0 -1 1 -1085589 1207959293 -2097169 -823206977 2097133565 -285216785 -1081346 1157103471</internalNodes>
          <leafValues>
            -0.3801195919513702 0.4718827307224274</leafValues></_>
        
        <_>
          <internalNodes> 0 -1 121 2147478367 -37765492 -1392509185 -536875169 -318782328 -12465 2130706303 -866124467</internalNodes>
          <leafValues>
            -0.3509117066860199 0.5094807147979736</leafValues></_>
        
        <_>
          <internalNodes> 0 -1 38 -16794757 -16710 -67663041 -20741 -8406341 2147449663 1945873146 -1</internalNodes>
          <leafValues>
            -0.4068757295608521 0.4130136370658875</leafValues></_>
        
        <_>
          <internalNodes> 0 -1 17 1651407483 -479201468 -261884429 866117231 1354229504 -155191713 548272812 -447742449</internalNodes>
          <leafValues>
            -0.4557141065597534 0.3539792001247406</leafValues></_>
        
        <_>
          <internalNodes> 0 -1 100 -492783986 -1287261695 -213909521 -251682065 -11274182 -225319378 -792341777 1393643841</internalNodes>
          <leafValues>
            -0.4117803275585175 0.4118592441082001</leafValues></_>
        
        <_>
          <internalNodes> 0 -1 63 -51404800 -923011069 -1042557441 -2002072729 -2066104743 -382220122 -371201558 -2135301457</internalNodes>
          <leafValues>
            -0.4008397758007050 0.4034757018089294</leafValues></_>
        
        <_>
          <internalNodes> 0 -1 101 1581203952 -105268268 -1061107126 -48295149 -638126888 -627353764 -436258614 -1435893445</internalNodes>
          <leafValues>
            -0.5694189667701721 0.2964762747287750</leafValues></_>
        
        <_>
          <internalNodes> 0 -1 118 -621022752 -12582915 -1648362021 1058107691 -994397789 -8399181 -251003468 -574619739</internalNodes>
          <leafValues>
            -0.3195341229438782 0.5294018983840942</leafValues></_>
        
        <_>
          <internalNodes> 0 -1 92 1717960437 -1783841602 -1076950384 -1078389516 -457572354 -348343812 364735981 -4883137</internalNodes>
          <leafValues>
            -0.3365339040756226 0.5067458748817444</leafValues></_></weakClassifiers></_>
    
    <_>
      <maxWeakCount>10</maxWeakCount>
      <stageThreshold>-0.7612916231155396</stageThreshold>
      <weakClassifiers>
        
        <_>
          <internalNodes> 0 -1 10 -1659497122 43591089 -1077438561 -287957604 1435470000 -1976661318 -782068 -453637880</internalNodes>
          <leafValues>
            -0.4204545319080353 0.5165745615959168</leafValues></_>
        
        <_>
          <internalNodes> 0 -1 131 -142633168 2046713291 -789579837 14874979 1473503712 -67110925 -1338923040 -2067933195</internalNodes>
          <leafValues>
            -0.3762553930282593 0.4075302779674530</leafValues></_>
        
        <_>
          <internalNodes> 0 -1 83 -1118685 -1052289 -355523038 -1577073 -538971154 -272814301 -305156120 -1073813756</internalNodes>
          <leafValues>
            -0.4253497421741486 0.3728055357933044</leafValues></_>
        
        <_>
          <internalNodes> 0 -1 135 -538514758 -159390971 -203424005 -214486242 -973738098 -2233 573747007 1994225489</internalNodes>
          <leafValues>
            -0.3601998090744019 0.4563256204128265</leafValues></_>
        
        <_>
          <internalNodes> 0 -1 115 -641860609 -1306461192 683139823 -1330369299 -1529767778 -261031688 1029570301 -1196149518</internalNodes>
          <leafValues>
            -0.4034293889999390 0.4160816967487335</leafValues></_>
        
        <_>
          <internalNodes> 0 -1 64 -417865 -1433365268 -1279457063 -34042628 -1920939864 -572993608 -111109 -19869715</internalNodes>
          <leafValues>
            -0.3620899617671967 0.4594142735004425</leafValues></_>
        
        <_>
          <internalNodes> 0 -1 36 1651946018 2016559730 -16580645 -615256993 -799868165 -626275097 805366393 -430780849</internalNodes>
          <leafValues>
            -0.3903816640377045 0.4381459355354309</leafValues></_>
        
        <_>
          <internalNodes> 0 -1 93 1976418270 -1851873892 -1108399474 -1090957603 -1153521668 1354797300 -1342502178 -1194637077</internalNodes>
          <leafValues>
            -0.3591445386409760 0.4624078869819641</leafValues></_>
        
        <_>
          <internalNodes> 0 -1 91 -304759523 798797750 -1145357350 1211368313 648167355 68157712 1063017136 -275513546</internalNodes>
          <leafValues>
            -0.4297670423984528 0.4023293554782867</leafValues></_>
        
        <_>
          <internalNodes> 0 -1 107 -163577944 -545456389 -1058473386 -1628569602 -380446736 -546318240 -537002306 -1325465645</internalNodes>
          <leafValues>
            -0.5727006793022156 0.2995934784412384</leafValues></_></weakClassifiers></_></stages>
  <features>
    <_>
      <rect> 0 21 5 3 </rect></_>
    <_>
      <rect> 0 20 2 4 </rect></_>
    <_>
      <rect> 0 18 3 6 </rect></_>
    <_>
      <rect> 1 22 3 2 </rect></_>
    <_>
      <rect> 1 21 3 3 </rect></_>
    <_>
      <rect> 1 21 7 3 </rect></_>
    <_>
      <rect> 4 21 3 3 </rect></_>
    <_>
      <rect> 11 21 4 3 </rect></_>
    <_>
      <rect> 12 16 4 8 </rect></_>
    <_>
      <rect> 14 20 3 4 </rect></_>
    <_>
      <rect> 0 18 3 5 </rect></_>
    <_>
      <rect> 1 21 2 2 </rect></_>
    <_>
      <rect> 3 20 1 3 </rect></_>
    <_>
      <rect> 7 19 4 4 </rect></_>
    <_>
      <rect> 12 21 2 2 </rect></_>
    <_>
      <rect> 13 19 1 4 </rect></_>
    <_>
      <rect> 14 19 3 4 </rect></_>
    <_>
      <rect> 17 20 2 3 </rect></_>
    <_>
      <rect> 0 20 3 2 </rect></_>
    <_>
      <rect> 1 20 2 2 </rect></_>
    <_>
      <rect> 2 18 6 4 </rect></_>
    <_>
      <rect> 3 18 4 4 </rect></_>
    <_>
      <rect> 7 20 1 2 </rect></_>
    <_>
      <rect> 11 20 3 2 </rect></_>
    <_>
      <rect> 17 19 2 3 </rect></_>
    <_>
      <rect> 0 19 2 2 </rect></_>
    <_>
      <rect> 1 14 3 7 </rect></_>
    <_>
      <rect> 7 19 1 2 </rect></_>
    <_>
      <rect> 7 19 4 2 </rect></_>
    <_>
      <rect> 18 19 2 2 </rect></_>
    <_>
      <rect> 0 18 3 2 </rect></_>
    <_>
      <rect> 3 18 1 2 </rect></_>
    <_>
      <rect> 6 18 1 2 </rect></_>
    <_>
      <rect> 6 18 5 2 </rect></_>
    <_>
      <rect> 7 15 2 5 </rect></_>
    <_>
      <rect> 8 16 3 4 </rect></_>
    <_>
      <rect> 18 18 2 2 </rect></_>
    <_>
      <rect> 0 17 2 2 </rect></_>
    <_>
      <rect> 3 15 4 4 </rect></_>
    <_>
      <rect> 6 17 5 2 </rect></_>
    <_>
      <rect> 9 17 2 2 </rect></_>
    <_>
      <rect> 10 17 2 2 </rect></_>
    <_>
      <rect> 3 14 4 4 </rect></_>
    <_>
      <rect> 4 14 3 4 </rect></_>
    <_>
      <rect> 5 16 3 2 </rect></_>
    <_>
      <rect> 5 16 5 2 </rect></_>
    <_>
      <rect> 5 14 3 4 </rect></_>
    <_>
      <rect> 6 14 2 4 </rect></_>
    <_>
      <rect> 6 14 4 4 </rect></_>
    <_>
      <rect> 18 17 2 1 </rect></_>
    <_>
      <rect> 21 16 1 2 </rect></_>
    <_>
      <rect> 0 14 7 3 </rect></_>
    <_>
      <rect> 4 15 3 2 </rect></_>
    <_>
      <rect> 9 12 1 5 </rect></_>
    <_>
      <rect> 21 15 1 2 </rect></_>
    <_>
      <rect> 0 15 4 1 </rect></_>
    <_>
      <rect> 5 14 2 2 </rect></_>
    <_>
      <rect> 5 13 2 3 </rect></_>
    <_>
      <rect> 17 13 1 3 </rect></_>
    <_>
      <rect> 18 15 2 1 </rect></_>
    <_>
      <rect> 0 10 3 5 </rect></_>
    <_>
      <rect> 2 13 6 2 </rect></_>
    <_>
      <rect> 5 14 1 1 </rect></_>
    <_>
      <rect> 11 14 1 1 </rect></_>
    <_>
      <rect> 16 14 1 1 </rect></_>
    <_>
      <rect> 16 13 1 2 </rect></_>
    <_>
      <rect> 17 14 1 1 </rect></_>
    <_>
      <rect> 18 14 1 1 </rect></_>
    <_>
      <rect> 5 13 2 1 </rect></_>
    <_>
      <rect> 5 11 3 3 </rect></_>
    <_>
      <rect> 7 13 5 1 </rect></_>
    <_>
      <rect> 8 13 1 1 </rect></_>
    <_>
      <rect> 9 13 1 1 </rect></_>
    <_>
      <rect> 10 13 1 1 </rect></_>
    <_>
      <rect> 10 13 2 1 </rect></_>
    <_>
      <rect> 14 11 3 3 </rect></_>
    <_>
      <rect> 15 13 1 1 </rect></_>
    <_>
      <rect> 15 12 1 2 </rect></_>
    <_>
      <rect> 16 13 1 1 </rect></_>
    <_>
      <rect> 16 12 1 2 </rect></_>
    <_>
      <rect> 17 13 1 1 </rect></_>
    <_>
      <rect> 21 13 1 1 </rect></_>
    <_>
      <rect> 3 11 2 2 </rect></_>
    <_>
      <rect> 5 12 2 1 </rect></_>
    <_>
      <rect> 5 10 3 3 </rect></_>
    <_>
      <rect> 5 9 6 4 </rect></_>
    <_>
      <rect> 6 12 1 1 </rect></_>
    <_>
      <rect> 7 11 2 2 </rect></_>
    <_>
      <rect> 8 12 2 1 </rect></_>
    <_>
      <rect> 10 12 1 1 </rect></_>
    <_>
      <rect> 10 12 2 1 </rect></_>
    <_>
      <rect> 15 12 1 1 </rect></_>
    <_>
      <rect> 17 12 1 1 </rect></_>
    <_>
      <rect> 18 12 1 1 </rect></_>
    <_>
      <rect> 0 10 2 2 </rect></_>
    <_>
      <rect> 1 10 5 2 </rect></_>
    <_>
      <rect> 2 8 1 4 </rect></_>
    <_>
      <rect> 3 11 3 1 </rect></_>
    <_>
      <rect> 7 9 4 3 </rect></_>
    <_>
      <rect> 10 9 2 3 </rect></_>
    <_>
      <rect> 11 11 1 1 </rect></_>
    <_>
      <rect> 12 9 2 3 </rect></_>
    <_>
      <rect> 14 8 3 4 </rect></_>
    <_>
      <rect> 17 11 1 1 </rect></_>
    <_>
      <rect> 21 10 1 2 </rect></_>
    <_>
      <rect> 6 9 5 2 </rect></_>
    <_>
      <rect> 7 8 5 3 </rect></_>
    <_>
      <rect> 11 8 2 3 </rect></_>
    <_>
      <rect> 17 9 2 2 </rect></_>
    <_>
      <rect> 17 8 2 3 </rect></_>
    <_>
      <rect> 18 10 2 1 </rect></_>
    <_>
      <rect> 18 9 2 2 </rect></_>
    <_>
      <rect> 0 8 2 2 </rect></_>
    <_>
      <rect> 1 9 3 1 </rect></_>
    <_>
      <rect> 2 7 2 3 </rect></_>
    <_>
      <rect> 7 8 1 2 </rect></_>
    <_>
      <rect> 13 8 1 2 </rect></_>
    <_>
      <rect> 13 7 3 3 </rect></_>
    <_>
      <rect> 17 8 2 2 </rect></_>
    <_>
      <rect> 0 7 2 2 </rect></_>
    <_>
      <rect> 0 7 3 2 </rect></_>
    <_>
      <rect> 4 6 2 3 </rect></_>
    <_>
      <rect> 4 6 6 3 </rect></_>
    <_>
      <rect> 6 6 2 3 </rect></_>
    <_>
      <rect> 11 6 4 3 </rect></_>
    <_>
      <rect> 13 6 2 3 </rect></_>
    <_>
      <rect> 17 7 2 2 </rect></_>
    <_>
      <rect> 17 6 2 3 </rect></_>
    <_>
      <rect> 1 6 3 2 </rect></_>
    <_>
      <rect> 3 6 4 2 </rect></_>
    <_>
      <rect> 6 7 1 1 </rect></_>
    <_>
      <rect> 16 6 2 2 </rect></_>
    <_>
      <rect> 1 5 2 2 </rect></_>
    <_>
      <rect> 1 5 5 2 </rect></_>
    <_>
      <rect> 12 5 2 2 </rect></_>
    <_>
      <rect> 0 4 2 2 </rect></_></features></cascade>
</opencv_storage>