<?xml version="1.0" encoding="utf-8"?>
<opencv_storage>
<cascade type_id="opencv-cascade-classifier">
  <stageType>BOOST</stageType>
  <featureType>LBP</featureType>
  <height>24</height>
  <width>24</width>
  <stageParams>
    <boostType>GAB</boostType>
    <minHitRate>0.9950000047683716</minHitRate>
    <maxFalseAlarm>0.5000000000000000</maxFalseAlarm>
    <weightTrimRate>0.9500000000000000</weightTrimRate>
    <maxDepth>1</maxDepth>
    <maxWeakCount>100</maxWeakCount></stageParams>
  <featureParams>
    <maxCatCount>256</maxCatCount></featureParams>
  <stageNum>20</stageNum>
  <stages>
    
    <_>
      <maxWeakCount>3</maxWeakCount>
      <stageThreshold>-0.7520892024040222</stageThreshold>
      <weakClassifiers>
        
        <_>
          <internalNodes> 0 -1 46 37577337472 -1536320 -16782688 -5408 -356530008 -318781304 -5398 -4097</internalNodes>
          <leafValues>
            -0.6543210148811340 0.8888888955116272</leafValues></_>
        
        <_>
          <internalNodes> 0 -1 13 -33554560 -64 -40878208 -192398448 -2506760 -65540 -128614464 -48398339</internalNodes>
          <leafValues>
            -0.7739216089248657 0.7278633713722229</leafValues></_>
        
        <_>
          <internalNodes> 0 -1 2 -47458877568 -101781568 -90984224 -223300928 -334487008 -34226976 272195684 -33554432</internalNodes>
          <leafValues>
            -0.7068563103675842 0.6761534214019775</leafValues></_></weakClassifiers></_>
    
    <_>
      <maxWeakCount>4</maxWeakCount>
      <stageThreshold>-0.4872078299522400</stageThreshold>
      <weakClassifiers>
        
        <_>
          <internalNodes> 0 -1 84 15565095552 137436585920 536870880 486531056 -134217736 536862716 184533122 265275391</internalNodes>
          <leafValues>
            -0.8083735704421997 0.7685696482658386</leafValues></_>
        
        <_>
          <internalNodes> 0 -1 21 -17179869312 51271167936 536870880 65794016 469762040 63687368 469762046 -33563137</internalNodes>
          <leafValues>
            -0.7698410153388977 0.6592915654182434</leafValues></_>
        
        <_>
          <internalNodes> 0 -1 106 -36545708544 -16777280 -24527584 402734880 -71371104 -212502596 -47333594 -417988609</internalNodes>
          <leafValues>
            -0.7506558895111084 0.5444605946540833</leafValues></_>
        
        <_>
          <internalNodes> 0 -1 48 -13870575744 -4429187136 -199672672 -32784 273942784 -59286020 -16394 -1</internalNodes>
          <leafValues>
            -0.7775990366935730 0.5465461611747742</leafValues></_></weakClassifiers></_>
    
    <_>
      <maxWeakCount>4</maxWeakCount>
      <stageThreshold>-1.1592328548431396</stageThreshold>
      <weakClassifiers>
        
        <_>
          <internalNodes> 0 -1 47 -9665074560 -8591267136 -5408 -5152 -25204568 -184563544 -5142 -9217</internalNodes>
          <leafValues>
            -0.5601882934570313 0.7743113040924072</leafValues></_>
        
        <_>
          <internalNodes> 0 -1 12 -18354274944 -25769803840 -71500832 45858800 -67248656 -105332740 -100671522 272596991</internalNodes>
          <leafValues>
            -0.6124526262283325 0.6978127956390381</leafValues></_>
        
        <_>
          <internalNodes> 0 -1 26 -2151679488 -11039408192 -12586784 242720720 -12615880 -313348 -33554564 -12591129</internalNodes>
          <leafValues>
            -0.6114496588706970 0.6537628173828125</leafValues></_>
        
        <_>
          <internalNodes> 0 -1 8 -1210281088 70094799808 -96 -33816592 469494432 -522060856 -33554498 536731643</internalNodes>
          <leafValues>
            -0.6854077577590942 0.5403239130973816</leafValues></_></weakClassifiers></_>
    
    <_>
      <maxWeakCount>5</maxWeakCount>
      <stageThreshold>-0.7562355995178223</stageThreshold>
      <weakClassifiers>
        
        <_>
          <internalNodes> 0 -1 96 -16000 -9663742016 -320 467664864 -5242904 -16908292 -33562684 501218781</internalNodes>
          <leafValues>
            -0.4051094949245453 0.7584033608436585</leafValues></_>
        
        <_>
          <internalNodes> 0 -1 33 -170001280 -33554496 -217040576 -19202576 -1065544 -68 366302996 -67239969</internalNodes>
          <leafValues>
            -0.7388162612915039 0.5340843200683594</leafValues></_>
        
        <_>
          <internalNodes> 0 -1 57 -73848064 -4638654464 -3232 -16 -135275848 -38240 -9750 -5121</internalNodes>
          <leafValues>
            -0.6582943797111511 0.5339496731758118</leafValues></_>
        
        <_>
          <internalNodes> 0 -1 125 -31294418944 -33340655424 -67371072 -113246256 -79954048 -398508036 -528 -247529473</internalNodes>
          <leafValues>
            -0.5981323719024658 0.5323504805564880</leafValues></_>
        
        <_>
          <internalNodes> 0 -1 53 -2148542592 -64 139446848 167566288 -335548424 -268973060 499632078 264241151</internalNodes>
          <leafValues>
            -0.6498787999153137 0.4913350641727448</leafValues></_></weakClassifiers></_>
    
    <_>
      <maxWeakCount>5</maxWeakCount>
      <stageThreshold>-0.8085358142852783</stageThreshold>
      <weakClassifiers>
        
        <_>
          <internalNodes> 0 -1 60 -1073744640 -2147496064 -134218432 220048832 -4210704 -5242884 -44171820 -42106915</internalNodes>
          <leafValues>
            -0.5278195738792419 0.6946372389793396</leafValues></_>
        
        <_>
          <internalNodes> 0 -1 7 -2532992 -33991615040 -32 -15745392 -272647784 201332744 -2097208 -10486447</internalNodes>
          <leafValues>
            -0.5206505060195923 0.6329920291900635</leafValues></_>
        
        <_>
          <internalNodes> 0 -1 98 -128 -64 -181321856 336936880 -213128 -4202500 372470258 -41975811</internalNodes>
          <leafValues>
            -0.7516061067581177 0.4232024252414703</leafValues></_>
        
        <_>
          <internalNodes> 0 -1 44 -128 46968721088 -8224 251645632 -24 233828040 -2097154 -269549569</internalNodes>
          <leafValues>
            -0.7639313936233521 0.4123568832874298</leafValues></_>
        
        <_>
          <internalNodes> 0 -1 24 -64861982848 -12448858176 -21368704 534707120 -259109192 204406460 280842256 -14699203</internalNodes>
          <leafValues>
            -0.5123769044876099 0.5791834592819214</leafValues></_></weakClassifiers></_>
    
    <_>
      <maxWeakCount>5</maxWeakCount>
      <stageThreshold>-0.5549971461296082</stageThreshold>
      <weakClassifiers>
        
        <_>
          <internalNodes> 0 -1 42 -1397120 -1398144 -4384 -5136 -67114456 -33559876 -4370 -1</internalNodes>
          <leafValues>
            -0.3763174116611481 0.7298233509063721</leafValues></_>
        
        <_>
          <internalNodes> 0 -1 6 -69793230976 -17182232640 -201327712 -524565600 -67376184 170625672 536870878 435143679</internalNodes>
          <leafValues>
            -0.5352765917778015 0.5659480094909668</leafValues></_>
        
        <_>
          <internalNodes> 0 -1 61 -3254797824 -1078380544 -16777440 -1552 -8 -21971148 -5122 -268440577</internalNodes>
          <leafValues>
            -0.5678374171257019 0.4961479902267456</leafValues></_>
        
        <_>
          <internalNodes> 0 -1 123 -86976673280 -86167786048 -34607168 250604528 -339752064 -477167620 -336671480 227524605</internalNodes>
          <leafValues>
            -0.5706262588500977 0.4572288393974304</leafValues></_>
        
        <_>
          <internalNodes> 0 -1 9 2143884672 -9714984512 -22284640 -1049104 314132912 -332666360 304077064 -9047659</internalNodes>
          <leafValues>
            -0.5344601869583130 0.4672054052352905</leafValues></_></weakClassifiers></_>
    
    <_>
      <maxWeakCount>5</maxWeakCount>
      <stageThreshold>-0.8776460289955139</stageThreshold>
      <weakClassifiers>
        
        <_>
          <internalNodes> 0 -1 105 -44174409856 -16908352 268442368 51650416 -8503368 -8388612 -197378502 -25346081</internalNodes>
          <leafValues>
            -0.7700348496437073 0.5943940877914429</leafValues></_>
        
        <_>
          <internalNodes> 0 -1 30 -69004689536 -81789120 -358085280 -205905936 -12296 -8572932 -67371010 -335691777</internalNodes>
          <leafValues>
            -0.5043668746948242 0.6151274442672730</leafValues></_>
        
        <_>
          <internalNodes> 0 -1 35 -128 -64 -266846272 -48939568 -109187112 -33554436 -12713998 -33</internalNodes>
          <leafValues>
            -0.6808040738105774 0.4667325913906097</leafValues></_>
        
        <_>
          <internalNodes> 0 -1 119 -135311616 -1111499840 208133568 -8527904 -6512648 -105914884 -67117092 526253535</internalNodes>
          <leafValues>
            -0.4927591383457184 0.5401885509490967</leafValues></_>
        
        <_>
          <internalNodes> 0 -1 82 -151126784 -47329024 -272360000 -270131232 535764984 -278532 -285237252 -1</internalNodes>
          <leafValues>
            -0.6445107460021973 0.4227822124958038</leafValues></_></weakClassifiers></_>
    
    <_>
      <maxWeakCount>6</maxWeakCount>
      <stageThreshold>-1.1139287948608398</stageThreshold>
      <weakClassifiers>
        
        <_>
          <internalNodes> 0 -1 52 -21475102848 37256604288 -268517920 -268501008 -8 -320033860 -1331206 -1</internalNodes>
          <leafValues>
            -0.5307556986808777 0.6258179545402527</leafValues></_>
        
        <_>
          <internalNodes> 0 -1 99 -2152202496 -2294284352 -176734368 -176341024 -135004184 -142623760 -142657666 -146964491</internalNodes>
          <leafValues>
            -0.5227634310722351 0.5049746036529541</leafValues></_>
        
        <_>
          <internalNodes> 0 -1 18 125081223040 -51539612736 -508907552 10529776 -67125768 -417864 65254398 331358203</internalNodes>
          <leafValues>
            -0.4983572661876679 0.5106441378593445</leafValues></_>
        
        <_>
          <internalNodes> 0 -1 111 -2191576064 -36507387456 -70632384 -389518272 356504680 -42631612 -136708122 -1278260</internalNodes>
          <leafValues>
            -0.4990860521793366 0.5060507059097290</leafValues></_>
        
        <_>
          <internalNodes> 0 -1 92 137428399744 68350439232 254083104 -151575440 228773560 -270021516 -459256786 -340400070</internalNodes>
          <leafValues>
            -0.5695009231567383 0.4460467398166657</leafValues></_>
        
        <_>
          <internalNodes> 0 -1 51 -5108700032 -84876744576 -164105056 -3853264 -35399888 -150858960 376487614 -196889237</internalNodes>
          <leafValues>
            -0.6590405106544495 0.3616424500942230</leafValues></_></weakClassifiers></_>
    
    <_>
      <maxWeakCount>7</maxWeakCount>
      <stageThreshold>-0.8243625760078430</stageThreshold>
      <weakClassifiers>
        
        <_>
          <internalNodes> 0 -1 28 -2684363392 -64 -225397952 -50479120 -72 -16842756 -35828028 -131073</internalNodes>
          <leafValues>
            -0.4972776770591736 0.6027074456214905</leafValues></_>
        
        <_>
          <internalNodes> 0 -1 112 -4566036224 -1880128 -1126976 -102835248 -67109384 -16875540 -4337716 -8226</internalNodes>
          <leafValues>
            -0.4383158981800079 0.5966237187385559</leafValues></_>
        
        <_>
          <internalNodes> 0 -1 69 135879606144 51322043328 -18973728 -29344864 -59765904 -3134628 371268030 519058303</internalNodes>
          <leafValues>
            -0.6386105418205261 0.3977999985218048</leafValues></_>
        
        <_>
          <internalNodes> 0 -1 19 -44561205376 -29125301056 -205870112 196657136 -4219016 -341065732 60541302 328982527</internalNodes>
          <leafValues>
            -0.5512794256210327 0.4282079637050629</leafValues></_>
        
        <_>
          <internalNodes> 0 -1 73 -9160504192 -66639102272 -130352992 1686688 -349059072 -509609032 -46403128 14417406</internalNodes>
          <leafValues>
            -0.6418755054473877 0.3549866080284119</leafValues></_>
        
        <_>
          <internalNodes> 0 -1 126 92324769792 -67763331904 -119538496 269007232 -411473904 341324568 -139464770 -84942869</internalNodes>
          <leafValues>
            -0.4841901361942291 0.4668019413948059</leafValues></_>
        
        <_>
          <internalNodes> 0 -1 45 94480891776 -286806336 -61587616 -412600512 -402653192 -197100176 366901214 -696850</internalNodes>
          <leafValues>
            -0.5855734348297119 0.3879135847091675</leafValues></_></weakClassifiers></_>
    
    <_>
      <maxWeakCount>7</maxWeakCount>
      <stageThreshold>-1.2237116098403931</stageThreshold>
      <weakClassifiers>
        
        <_>
          <internalNodes> 0 -1 114 -17190940416 -2231373120 -6208 393215968 -4202504 -16777220 536694596 358481885</internalNodes>
          <leafValues>
            -0.2518476545810700 0.7088654041290283</leafValues></_>
        
        <_>
          <internalNodes> 0 -1 97 -526848 -2150612928 -460352 -33567776 -8200 -1441844 -279170 -547</internalNodes>
          <leafValues>
            -0.4303432404994965 0.5283288359642029</leafValues></_>
        
        <_>
          <internalNodes> 0 -1 25 -2685403776 -8624574592 -339876928 -340148288 -268444688 -67388456 -202378246 436176895</internalNodes>
          <leafValues>
            -0.4259553551673889 0.5440809130668640</leafValues></_>
        
        <_>
          <internalNodes> 0 -1 34 -73017659520 -1048640 182438336 -33567760 -285226840 -58800196 164614094 536866815</internalNodes>
          <leafValues>
            -0.5605589151382446 0.4220733344554901</leafValues></_>
        
        <_>
          <internalNodes> 0 -1 134 56806676736 -26914849664 -77595168 -105168912 -48251368 -88392036 301334516 -247595009</internalNodes>
          <leafValues>
            -0.5192656517028809 0.4399855434894562</leafValues></_>
        
        <_>
          <internalNodes> 0 -1 16 -45280656640 -42986268992 -356779872 494730224 -71779936 -121767240 28689810 -135144513</internalNodes>
          <leafValues>
            -0.5013077259063721 0.4570254683494568</leafValues></_>
        
        <_>
          <internalNodes> 0 -1 74 137370710528 -16843840 -184615968 -222487328 -82075488 -30458116 -285664572 -465894140</internalNodes>
          <leafValues>
            -0.4631414115428925 0.4790246188640595</leafValues></_></weakClassifiers></_>
    
    <_>
      <maxWeakCount>7</maxWeakCount>
      <stageThreshold>-0.5544230937957764</stageThreshold>
      <weakClassifiers>
        
        <_>
          <internalNodes> 0 -1 113 -14194944 -17461947136 -19057216 -16400 -8 -16793604 -37002 -9</internalNodes>
          <leafValues>
            -0.3949716091156006 0.6082032322883606</leafValues></_>
        
        <_>
          <internalNodes> 0 -1 110 51196717952 -285214912 92286912 -406308032 534642504 -297476 197677004 -303153282</internalNodes>
          <leafValues>
            -0.4855885505676270 0.4785369932651520</leafValues></_>
        
        <_>
          <internalNodes> 0 -1 37 -11313280 -17181192256 196053952 -72503824 134208192 -100746244 -335603748 -209716225</internalNodes>
          <leafValues>
            -0.4620285332202911 0.4989669024944305</leafValues></_>
        
        <_>
          <internalNodes> 0 -1 41 -4678147840 -37460647872 -121604672 -42978832 -85073728 -5488 -129941508 -193187793</internalNodes>
          <leafValues>
            -0.6420643329620361 0.3624351918697357</leafValues></_>
        
        <_>
          <internalNodes> 0 -1 117 -14018107392 -68602582336 -8388768 -118833168 -355865960 -519307608 -1212418 -520126482</internalNodes>
          <leafValues>
            -0.4820112884044647 0.4632140696048737</leafValues></_>
        
        <_>
          <internalNodes> 0 -1 65 -88760980608 -126663579072 -208532640 -33554384 -337328528 -268450892 -154978442 -362282961</internalNodes>
          <leafValues>
            -0.4465552568435669 0.5061788558959961</leafValues></_>
        
        <_>
          <internalNodes> 0 -1 56 -17180136576 -93701037312 -71312448 478142448 -4136 -432755720 -290476038 -335544325</internalNodes>
          <leafValues>
            -0.5190586447715759 0.4441480338573456</leafValues></_></weakClassifiers></_>
    
    <_>
      <maxWeakCount>7</maxWeakCount>
      <stageThreshold>-0.7161560654640198</stageThreshold>
      <weakClassifiers>
        
        <_>
          <internalNodes> 0 -1 20 -77477193856 76529255360 311558112 269500288 -2506768 15024 -69337090 -10911747</internalNodes>
          <leafValues>
            -0.4323809444904327 0.5663768053054810</leafValues></_>
        
        <_>
          <internalNodes> 0 -1 15 -127147968640 -774630336 -194645920 -153230288 -144693976 -1009120 -486645126 -291191643</internalNodes>
          <leafValues>
            -0.4588732719421387 0.4547033011913300</leafValues></_>
        
        <_>
          <internalNodes> 0 -1 129 -86792549760 -68987920448 -268439872 503307920 -340792392 -270614804 -353571638 217046495</internalNodes>
          <leafValues>
            -0.5218553543090820 0.4111092388629913</leafValues></_>
        
        <_>
          <internalNodes> 0 -1 102 -83788537728 -49711027008 -21037120 -523354432 -301212568 141072572 -16780306 -335544338</internalNodes>
          <leafValues>
            -0.4920000731945038 0.4326725304126740</leafValues></_>
        
        <_>
          <internalNodes> 0 -1 88 -9228285696 -15032458368 -6423616 16776112 -72554072 -42140760 520969360 425697095</internalNodes>
          <leafValues>
            -0.4494568109512329 0.4448510706424713</leafValues></_>
        
        <_>
          <internalNodes> 0 -1 59 -22872376832 -293082176 -214495232 226170672 -403066888 58069852 387715562 -143706306</internalNodes>
          <leafValues>
            -0.5180826783180237 0.3888972699642181</leafValues></_>
        
        <_>
          <internalNodes> 0 -1 27 -39718627200 136781841472 -24637376 -34459600 123732096 -61503408 234885336 -299018088</internalNodes>
          <leafValues>
            -0.6081240773200989 0.3333222270011902</leafValues></_></weakClassifiers></_>
    
    <_>
      <maxWeakCount>8</maxWeakCount>
      <stageThreshold>-0.6743940711021423</stageThreshold>
      <weakClassifiers>
        
        <_>
          <internalNodes> 0 -1 29 73428999040 -17175675200 -37748832 517797984 -325537912 134233580 -264752236 228532177</internalNodes>
          <leafValues>
            -0.1790193915367127 0.6605972051620483</leafValues></_>
        
        <_>
          <internalNodes> 0 -1 128 -21347748352 -8724418624 -33627392 402643920 -335544328 465371132 -276958448 394264543</internalNodes>
          <leafValues>
            -0.3681024610996246 0.5139749646186829</leafValues></_>
        
        <_>
          <internalNodes> 0 -1 70 -53732379136 -20544 -32 265038608 -272746136 -157729632 -134873220 194904063</internalNodes>
          <leafValues>
            -0.3217232525348663 0.6171553134918213</leafValues></_>
        
        <_>
          <internalNodes> 0 -1 4 86040985472 -61841720896 -67390624 -71257488 -197771088 -4480944 58821666 318876235</internalNodes>
          <leafValues>
            -0.4373284578323364 0.4358185231685638</leafValues></_>
        
        <_>
          <internalNodes> 0 -1 76 55821893504 -73974929728 4456480 -186907120 148856800 368689916 143918052 -421001385</internalNodes>
          <leafValues>
            -0.4404836893081665 0.4601220190525055</leafValues></_>
        
        <_>
          <internalNodes> 0 -1 124 -67656472576 -64978240320 -84148288 468433888 -205557912 -88948812 -117705218 -499384353</internalNodes>
          <leafValues>
            -0.4294152259826660 0.4452161788940430</leafValues></_>
        
        <_>
          <internalNodes> 0 -1 54 -103366787456 -5071984960 -208553056 -148423696 -80535568 -91223128 -237757386 -75531281</internalNodes>
          <leafValues>
            -0.3973052501678467 0.4854526817798615</leafValues></_>
        
        <_>
          <internalNodes> 0 -1 95 127235356544 34356952512 335536096 536857968 -8388648 -11972 -213921478 -1</internalNodes>
          <leafValues>
            -0.7054683566093445 0.2697997391223908</leafValues></_></weakClassifiers></_>
    
    <_>
      <maxWeakCount>9</maxWeakCount>
      <stageThreshold>-1.2042298316955566</stageThreshold>
      <weakClassifiers>
        
        <_>
          <internalNodes> 0 -1 39 -134220416 -32832 357842240 -45859488 -134250632 -34374276 390147580 -21152771</internalNodes>
          <leafValues>
            -0.5905947685241699 0.5101932883262634</leafValues></_>
        
        <_>
          <internalNodes> 0 -1 120 -2161920256 -1344282688 -411314944 526372800 532676600 364748748 -2141884 -10620971</internalNodes>
          <leafValues>
            -0.4449204802513123 0.4490709304809570</leafValues></_>
        
        <_>
          <internalNodes> 0 -1 89 -806435968 -8590196800 -153095264 -126451744 -90506880 -113246280 68963728 480107909</internalNodes>
          <leafValues>
            -0.4693818688392639 0.4061094820499420</leafValues></_>
        
        <_>
          <internalNodes> 0 -1 14 -2150673664 -9663816256 -201393312 -48 -138543176 -132629872 -4194862 500170717</internalNodes>
          <leafValues>
            -0.3600351214408875 0.5056326985359192</leafValues></_>
        
        <_>
          <internalNodes> 0 -1 67 -69322408064 -4567400768 1536 108791536 366862328 511672876 -402123444 -1188933</internalNodes>
          <leafValues>
            -0.4459891915321350 0.4132415652275085</leafValues></_>
        
        <_>
          <internalNodes> 0 -1 86 -69650759296 -52819918848 -10422304 -820272 463339488 -105178160 -103981074 -67552302</internalNodes>
          <leafValues>
            -0.4466069042682648 0.4135067760944367</leafValues></_>
        
        <_>
          <internalNodes> 0 -1 80 -69832022144 -68723001408 -29347808 -10550864 520093608 -47180 -135502042 -89207985</internalNodes>
          <leafValues>
            -0.3394956290721893 0.5658645033836365</leafValues></_>
        
        <_>
          <internalNodes> 0 -1 75 -26608739200 10937403584 -69207520 344678608 -335545488 189318024 268435150 -70549811</internalNodes>
          <leafValues>
            -0.5346512198448181 0.3584479391574860</leafValues></_>
        
        <_>
          <internalNodes> 0 -1 55 -51607027840 -25036081344 -199018976 -30791728 528416760 -54382608 -276858050 -4097</internalNodes>
          <leafValues>
            -0.4379335641860962 0.4123645126819611</leafValues></_></weakClassifiers></_>
    
    <_>
      <maxWeakCount>10</maxWeakCount>
      <stageThreshold>-0.8402050137519836</stageThreshold>
      <weakClassifiers>
        
        <_>
          <internalNodes> 0 -1 71 -4362232960 -30069114944 -222561664 3881456 -121922624 11779056 -303079976 -322961921</internalNodes>
          <leafValues>
            -0.2670986354351044 0.6014143228530884</leafValues></_>
        
        <_>
          <internalNodes> 0 -1 31 137422175104 -16777280 -340295200 -474502224 -272647208 -71352520 -268504068 -210110977</internalNodes>
          <leafValues>
            -0.4149844348430634 0.4670888185501099</leafValues></_>
        
        <_>
          <internalNodes> 0 -1 40 -2685440128 -4160 356547648 474841056 535682944 -35651880 -127058114 -5390849</internalNodes>
          <leafValues>
            -0.4985891580581665 0.3719584941864014</leafValues></_>
        
        <_>
          <internalNodes> 0 -1 109 59002088448 -12163731776 -50334496 2635968 -59124528 -186548900 493641456 -3801104</internalNodes>
          <leafValues>
            -0.4568729996681213 0.3965812027454376</leafValues></_>
        
        <_>
          <internalNodes> 0 -1 130 -22963900928 -128261673344 -148756704 -164100496 -67162312 -142872676 -110150098 -33283</internalNodes>
          <leafValues>
            -0.4770836830139160 0.3862601518630981</leafValues></_>
        
        <_>
          <internalNodes> 0 -1 66 -38982946944 46947003712 235418656 -276970544 333197272 -16922756 -340115924 -389153108</internalNodes>
          <leafValues>
            -0.4877715110778809 0.3778986334800720</leafValues></_>
        
        <_>
          <internalNodes> 0 -1 49 -34088670592 -6338710848 -4278752 -60015376 388217888 -20693904 -233098462 -327136223</internalNodes>
          <leafValues>
            -0.3721654713153839 0.4994400143623352</leafValues></_>
        
        <_>
          <internalNodes> 0 -1 133 -123427804544 -18320920640 -163976512 351375648 -234801296 471232304 -124714806 139854339</internalNodes>
          <leafValues>
            -0.3934195041656494 0.4769641458988190</leafValues></_>
        
        <_>
          <internalNodes> 0 -1 0 128849018624 -42958860608 -83959456 465169312 -24 -486546560 232774044 62903246</internalNodes>
          <leafValues>
            -0.4323300719261169 0.4342164099216461</leafValues></_>
        
        <_>
          <internalNodes> 0 -1 103 51648577152 68421755520 9442336 -34443184 93673072 500666584 -134044050 -411121182</internalNodes>
          <leafValues>
            -0.4993278682231903 0.3665378093719482</leafValues></_></weakClassifiers></_>
    
    <_>
      <maxWeakCount>9</maxWeakCount>
      <stageThreshold>-1.1974394321441650</stageThreshold>
      <weakClassifiers>
        
        <_>
          <internalNodes> 0 -1 43 -12886300160 -4565325184 -1408 536865712 535816360 -1127768 -4114 -65</internalNodes>
          <leafValues>
            -0.3310225307941437 0.5624626278877258</leafValues></_>
        
        <_>
          <internalNodes> 0 -1 90 -73463346688 -8633124032 -34210592 -124832688 503812744 -21776784 -160416436 -197131160</internalNodes>
          <leafValues>
            -0.5266560912132263 0.3704403042793274</leafValues></_>
        
        <_>
          <internalNodes> 0 -1 104 -105373670144 -53704444608 -36700224 -445092144 527792504 -35226172 -4194388 -486670472</internalNodes>
          <leafValues>
            -0.4171888828277588 0.4540435671806335</leafValues></_>
        
        <_>
          <internalNodes> 0 -1 85 -2147532928 -4429185088 -208013536 -245415952 -75497576 -144703524 -233079750 -499351681</internalNodes>
          <leafValues>
            -0.4556705355644226 0.3704262077808380</leafValues></_>
        
        <_>
          <internalNodes> 0 -1 24 88248786560 -8926028352 -29623136 -302256720 279755952 -333578340 278237184 -74329829</internalNodes>
          <leafValues>
            -0.4182529747486115 0.4267231225967407</leafValues></_>
        
        <_>
          <internalNodes> 0 -1 78 -21908160768 -68798222528 -428595680 -588432 -28023744 -137403276 -391764690 -429637616</internalNodes>
          <leafValues>
            -0.3625369668006897 0.4684656262397766</leafValues></_>
        
        <_>
          <internalNodes> 0 -1 5 -39773552640 -5670897280 -21304928 79209088 -8320 476242572 529316828 -65225443</internalNodes>
          <leafValues>
            -0.4742925167083740 0.3689507246017456</leafValues></_>
        
        <_>
          <internalNodes> 0 -1 11 -9160493696 -9730818368 -73663520 -88400912 -410289928 -12582984 -520224970 286392319</internalNodes>
          <leafValues>
            -0.3666271567344666 0.4580127298831940</leafValues></_>
        
        <_>
          <internalNodes> 0 -1 32 -37333649792 67852195904 471863392 -159636432 -469494208 -8580244 -267766996 -165336354</internalNodes>
          <leafValues>
            -0.4567637443542481 0.3894708156585693</leafValues></_></weakClassifiers></_>
    
    <_>
      <maxWeakCount>9</maxWeakCount>
      <stageThreshold>-0.5733128190040588</stageThreshold>
      <weakClassifiers>
        
        <_>
          <internalNodes> 0 -1 122 -7787500416 -8623624256 -248515840 272186352 -79709280 -79970348 275641652 291372525</internalNodes>
          <leafValues>
            -0.4055117964744568 0.5487945079803467</leafValues></_>
        
        <_>
          <internalNodes> 0 -1 68 -1312384 -99929718656 -71308320 -134748240 452983792 -92308504 -134 -5149</internalNodes>
          <leafValues>
            -0.3787897229194641 0.4532003402709961</leafValues></_>
        
        <_>
          <internalNodes> 0 -1 58 29249703552 64001322688 -333811424 492229280 485215416 134204092 -306517842 -142727044</internalNodes>
          <leafValues>
            -0.4258328974246979 0.4202791750431061</leafValues></_>
        
        <_>
          <internalNodes> 0 -1 94 -17235471616 -1141770688 -340079680 -494949488 -12608816 -4661620 -152219824 -201326673</internalNodes>
          <leafValues>
            -0.4561023116111755 0.4002747833728790</leafValues></_>
        
        <_>
          <internalNodes> 0 -1 87 -49462165632 -36509716608 515691456 -4128 -318770184 -4104 11441082 -272638017</internalNodes>
          <leafValues>
            -0.4314672648906708 0.4086346626281738</leafValues></_>
        
        <_>
          <internalNodes> 0 -1 127 127604667776 -63384422976 -134224032 270204400 -184558576 -241369680 -520691994 322713971</internalNodes>
          <leafValues>
            -0.4174543321132660 0.4249868988990784</leafValues></_>
        
        <_>
          <internalNodes> 0 -1 3 69536435584 94321210048 -204735776 42182720 -73402608 -19812340 167306166 155291683</internalNodes>
          <leafValues>
            -0.4321364760398865 0.4090838730335236</leafValues></_>
        
        <_>
          <internalNodes> 0 -1 79 -69247390080 66765016896 -17223936 -16776944 -353578976 -210419044 -154960836 -295152633</internalNodes>
          <leafValues>
            -0.5018386244773865 0.3702533841133118</leafValues></_>
        
        <_>
          <internalNodes> 0 -1 116 -70145559424 -136990236480 -13500544 -135871440 -531220608 -359361468 -28904270 -298946848</internalNodes>
          <leafValues>
            -0.5037505626678467 0.3564981222152710</leafValues></_></weakClassifiers></_>
    
    <_>
      <maxWeakCount>9</maxWeakCount>
      <stageThreshold>-0.4892596900463104</stageThreshold>
      <weakClassifiers>
        
        <_>
          <internalNodes> 0 -1 132 -17481904128 123982306496 -16778304 500952016 465533776 211615480 -688 500559318</internalNodes>
          <leafValues>
            -0.2448196411132813 0.5689709186553955</leafValues></_>
        
        <_>
          <internalNodes> 0 -1 62 -57122592000 -91700971776 294855968 -19516240 -152959896 -134791976 -322339590 -412702527</internalNodes>
          <leafValues>
            -0.4633283913135529 0.3587929606437683</leafValues></_>
        
        <_>
          <internalNodes> 0 -1 23 -35050430848 -8691003136 -71303200 -19612704 -164053008 -66012528 -6946858 -333587491</internalNodes>
          <leafValues>
            -0.3731099069118500 0.4290455579757690</leafValues></_>
        
        <_>
          <internalNodes> 0 -1 77 -88869180800 -73837918272 85465856 100925504 -137647112 400048632 -270172684 237781998</internalNodes>
          <leafValues>
            -0.3658909499645233 0.4556473195552826</leafValues></_>
        
        <_>
          <internalNodes> 0 -1 22 29261012096 -4851645248 -146720192 -51207888 -25161152 -9829888 -297787700 176423128</internalNodes>
          <leafValues>
            -0.5214384198188782 0.3221037387847900</leafValues></_>
        
        <_>
          <internalNodes> 0 -1 72 -11735678848 -13086377024 -104136736 136477840 -168429048 -193889864 -66028400 34856</internalNodes>
          <leafValues>
            -0.4289036989212036 0.4004956185817719</leafValues></_>
        
        <_>
          <internalNodes> 0 -1 50 -71030623360 -40570202432 -256626272 -147423040 -435124992 -390942628 337122750 -15177679</internalNodes>
          <leafValues>
            -0.4621542394161224 0.3832748532295227</leafValues></_>
        
        <_>
          <internalNodes> 0 -1 108 -51539628416 -90613895232 -362218080 -119473760 -444597656 -193104532 -447480854 -403014296</internalNodes>
          <leafValues>
            -0.3711548447608948 0.4612701535224915</leafValues></_>
        
        <_>
          <internalNodes> 0 -1 92 119779781248 67709174400 101976352 -145612512 13163680 -323620 -71275932 -18658252</internalNodes>
          <leafValues>
            -0.5180652141571045 0.3205870389938355</leafValues></_></weakClassifiers></_>
    
    <_>
      <maxWeakCount>10</maxWeakCount>
      <stageThreshold>-0.5911940932273865</stageThreshold>
      <weakClassifiers>
        
        <_>
          <internalNodes> 0 -1 81 -5801855232 -68752889344 1024 -314890960 -211667864 -25225616 459541036 -18538438</internalNodes>
          <leafValues>
            -0.2592592537403107 0.5873016119003296</leafValues></_>
        
        <_>
          <internalNodes> 0 -1 1 134216548096 -134218816 -71304224 -205801760 -271400 -270340 301989822 289275867</internalNodes>
          <leafValues>
            -0.3801195919513702 0.4718827307224274</leafValues></_>
        
        <_>
          <internalNodes> 0 -1 121 -20402068992 -89120587840 -3136 -134218800 536869584 532676572 -9441374 -216531117</internalNodes>
          <leafValues>
            -0.3509117066860199 0.5094807147979736</leafValues></_>
        
        <_>
          <internalNodes> 0 -1 38 -538005888 -4330434624 536862400 -5200 -4198696 486468284 -4178 -1</internalNodes>
          <leafValues>
            -0.4068757295608521 0.4130136370658875</leafValues></_>
        
        <_>
          <internalNodes> 0 -1 17 86670688256 -16760603456 -38797952 216529296 412851864 137068200 -119800368 -111935613</internalNodes>
          <leafValues>
            -0.4557141065597534 0.3539792001247406</leafValues></_>
        
        <_>
          <internalNodes> 0 -1 100 -721547648 -13690209344 -56329856 -62920528 -123196000 -198085448 -321815424 348410960</internalNodes>
          <leafValues>
            -0.4117803275585175 0.4118592441082001</leafValues></_>
        
        <_>
          <internalNodes> 0 -1 63 -132230703616 -66723676224 -95555040 -500518192 -12851200 -92800392 -230752768 -533825365</internalNodes>
          <leafValues>
            -0.4008397758007050 0.4034757018089294</leafValues></_>
        
        <_>
          <internalNodes> 0 -1 101 -40840120832 -67910856064 -156838464 -12073792 395300984 -109064656 -26317068 -358973362</internalNodes>
          <leafValues>
            -0.5694189667701721 0.2964762747287750</leafValues></_>
        
        <_>
          <internalNodes> 0 -1 118 -63641458560 -105495169344 -2099808 264526912 -155255688 -62750868 -3145730 -143654935</internalNodes>
          <leafValues>
            -0.3195341229438782 0.5294018983840942</leafValues></_>
        
        <_>
          <internalNodes> 0 -1 92 -29284630656 -68924824576 -87085984 -269597392 429490104 91183992 -445960402 -1220785</internalNodes>
          <leafValues>
            -0.3365339040756226 0.5067458748817444</leafValues></_></weakClassifiers></_>
    
    <_>
      <maxWeakCount>10</maxWeakCount>
      <stageThreshold>-0.7612916231155396</stageThreshold>
      <weakClassifiers>
        
        <_>
          <internalNodes> 0 -1 10 91870080000 -68956067904 -494165344 -71989408 -414874288 -195520 10897772 -113409470</internalNodes>
          <leafValues>
            -0.4204545319080353 0.5165745615959168</leafValues></_>
        
        <_>
          <internalNodes> 0 -1 131 94304237568 -50533109568 -16777760 3718736 -35658296 -334730760 511678322 -516983299</internalNodes>
          <leafValues>
            -0.3762553930282593 0.4075302779674530</leafValues></_>
        
        <_>
          <internalNodes> 0 -1 83 -34494153856 -22753474432 -68203584 -394272 -279672 -76289032 -263074 -268453439</internalNodes>
          <leafValues>
            -0.4253497421741486 0.3728055357933044</leafValues></_>
        
        <_>
          <internalNodes> 0 -1 135 -62319238272 -13019136320 -576 -53621568 -134628696 143436748 -39847744 498556372</internalNodes>
          <leafValues>
            -0.3601998090744019 0.4563256204128265</leafValues></_>
        
        <_>
          <internalNodes> 0 -1 115 -97905137792 43720948672 -65257952 -332592336 -160465160 257392572 -326615298 -299037380</internalNodes>
          <leafValues>
            -0.4034293889999390 0.4160816967487335</leafValues></_>
        
        <_>
          <internalNodes> 0 -1 64 -122940151296 -81885252032 -143248416 -8510672 -104472 -27780 -358341318 -4967429</internalNodes>
          <leafValues>
            -0.3620899617671967 0.4594142735004425</leafValues></_>
        
        <_>
          <internalNodes> 0 -1 36 -51191562624 -1061161280 -156568800 -153814256 412986504 201341596 504139932 -107695213</internalNodes>
          <leafValues>
            -0.3903816640377045 0.4381459355354309</leafValues></_>
        
        <_>
          <internalNodes> 0 -1 93 -73825386752 -70937566336 338699296 -272739408 494104560 -335625548 -462968474 -298659270</internalNodes>
          <leafValues>
            -0.3591445386409760 0.4624078869819641</leafValues></_>
        
        <_>
          <internalNodes> 0 -1 91 41482710656 -73302870400 17039424 302842064 -76189888 265754284 199699436 -68878387</internalNodes>
          <leafValues>
            -0.4297670423984528 0.4023293554782867</leafValues></_>
        
        <_>
          <internalNodes> 0 -1 107 -24348591104 -67742296704 -136579584 -407142416 -40894488 -134250580 -136364098 -331366412</internalNodes>
          <leafValues>
            -0.5727006793022156 0.2995934784412384</leafValues></_></weakClassifiers></_></stages>
  <features>
    <_>
      <rect> 9 0 5 3 </rect></_>
    <_>
      <rect> 18 0 2 4 </rect></_>
    <_>
      <rect> 15 0 3 6 </rect></_>
    <_>
      <rect> 14 0 3 2 </rect></_>
    <_>
      <rect> 14 0 3 3 </rect></_>
    <_>
      <rect> 2 0 7 3 </rect></_>
    <_>
      <rect> 11 0 3 3 </rect></_>
    <_>
      <rect> 1 0 4 3 </rect></_>
    <_>
      <rect> 0 0 4 8 </rect></_>
    <_>
      <rect> 1 0 3 4 </rect></_>
    <_>
      <rect> 15 1 3 5 </rect></_>
    <_>
      <rect> 17 1 2 2 </rect></_>
    <_>
      <rect> 18 1 1 3 </rect></_>
    <_>
      <rect> 5 1 4 4 </rect></_>
    <_>
      <rect> 6 1 2 2 </rect></_>
    <_>
      <rect> 8 1 1 4 </rect></_>
    <_>
      <rect> 1 1 3 4 </rect></_>
    <_>
      <rect> 1 1 2 3 </rect></_>
    <_>
      <rect> 15 2 3 2 </rect></_>
    <_>
      <rect> 17 2 2 2 </rect></_>
    <_>
      <rect> 4 2 6 4 </rect></_>
    <_>
      <rect> 9 2 4 4 </rect></_>
    <_>
      <rect> 14 2 1 2 </rect></_>
    <_>
      <rect> 4 2 3 2 </rect></_>
    <_>
      <rect> 1 2 2 3 </rect></_>
    <_>
      <rect> 18 3 2 2 </rect></_>
    <_>
      <rect> 14 3 3 7 </rect></_>
    <_>
      <rect> 14 3 1 2 </rect></_>
    <_>
      <rect> 5 3 4 2 </rect></_>
    <_>
      <rect> 0 3 2 2 </rect></_>
    <_>
      <rect> 15 4 3 2 </rect></_>
    <_>
      <rect> 18 4 1 2 </rect></_>
    <_>
      <rect> 15 4 1 2 </rect></_>
    <_>
      <rect> 3 4 5 2 </rect></_>
    <_>
      <rect> 11 4 2 5 </rect></_>
    <_>
      <rect> 7 4 3 4 </rect></_>
    <_>
      <rect> 0 4 2 2 </rect></_>
    <_>
      <rect> 18 5 2 2 </rect></_>
    <_>
      <rect> 9 5 4 4 </rect></_>
    <_>
      <rect> 3 5 5 2 </rect></_>
    <_>
      <rect> 9 5 2 2 </rect></_>
    <_>
      <rect> 8 5 2 2 </rect></_>
    <_>
      <rect> 9 6 4 4 </rect></_>
    <_>
      <rect> 11 6 3 4 </rect></_>
    <_>
      <rect> 10 6 3 2 </rect></_>
    <_>
      <rect> 4 6 5 2 </rect></_>
    <_>
      <rect> 10 6 3 4 </rect></_>
    <_>
      <rect> 12 6 2 4 </rect></_>
    <_>
      <rect> 6 6 4 4 </rect></_>
    <_>
      <rect> 0 6 2 1 </rect></_>
    <_>
      <rect> 0 6 1 2 </rect></_>
    <_>
      <rect> 3 7 7 3 </rect></_>
    <_>
      <rect> 11 7 3 2 </rect></_>
    <_>
      <rect> 12 7 1 5 </rect></_>
    <_>
      <rect> 0 7 1 2 </rect></_>
    <_>
      <rect> 12 8 4 1 </rect></_>
    <_>
      <rect> 13 8 2 2 </rect></_>
    <_>
      <rect> 13 8 2 3 </rect></_>
    <_>
      <rect> 4 8 1 3 </rect></_>
    <_>
      <rect> 0 8 2 1 </rect></_>
    <_>
      <rect> 15 9 3 5 </rect></_>
    <_>
      <rect> 4 9 6 2 </rect></_>
    <_>
      <rect> 16 9 1 1 </rect></_>
    <_>
      <rect> 10 9 1 1 </rect></_>
    <_>
      <rect> 5 9 1 1 </rect></_>
    <_>
      <rect> 5 9 1 2 </rect></_>
    <_>
      <rect> 4 9 1 1 </rect></_>
    <_>
      <rect> 3 9 1 1 </rect></_>
    <_>
      <rect> 13 10 2 1 </rect></_>
    <_>
      <rect> 10 10 3 3 </rect></_>
    <_>
      <rect> 2 10 5 1 </rect></_>
    <_>
      <rect> 13 10 1 1 </rect></_>
    <_>
      <rect> 12 10 1 1 </rect></_>
    <_>
      <rect> 11 10 1 1 </rect></_>
    <_>
      <rect> 8 10 2 1 </rect></_>
    <_>
      <rect> 1 10 3 3 </rect></_>
    <_>
      <rect> 6 10 1 1 </rect></_>
    <_>
      <rect> 6 10 1 2 </rect></_>
    <_>
      <rect> 5 10 1 1 </rect></_>
    <_>
      <rect> 5 10 1 2 </rect></_>
    <_>
      <rect> 4 10 1 1 </rect></_>
    <_>
      <rect> 0 10 1 1 </rect></_>
    <_>
      <rect> 15 11 2 2 </rect></_>
    <_>
      <rect> 13 11 2 1 </rect></_>
    <_>
      <rect> 10 11 3 3 </rect></_>
    <_>
      <rect> 1 11 6 4 </rect></_>
    <_>
      <rect> 15 11 1 1 </rect></_>
    <_>
      <rect> 11 11 2 2 </rect></_>
    <_>
      <rect> 10 11 2 1 </rect></_>
    <_>
      <rect> 11 11 1 1 </rect></_>
    <_>
      <rect> 8 11 2 1 </rect></_>
    <_>
      <rect> 6 11 1 1 </rect></_>
    <_>
      <rect> 4 11 1 1 </rect></_>
    <_>
      <rect> 3 11 1 1 </rect></_>
    <_>
      <rect> 18 12 2 2 </rect></_>
    <_>
      <rect> 8 12 5 2 </rect></_>
    <_>
      <rect> 19 12 1 4 </rect></_>
    <_>
      <rect> 12 12 3 1 </rect></_>
    <_>
      <rect> 5 12 4 3 </rect></_>
    <_>
      <rect> 8 12 2 3 </rect></_>
    <_>
      <rect> 10 12 1 1 </rect></_>
    <_>
      <rect> 6 12 2 3 </rect></_>
    <_>
      <rect> 1 12 3 4 </rect></_>
    <_>
      <rect> 4 12 1 1 </rect></_>
    <_>
      <rect> 0 12 1 2 </rect></_>
    <_>
      <rect> 3 13 5 2 </rect></_>
    <_>
      <rect> 2 13 5 3 </rect></_>
    <_>
      <rect> 7 13 2 3 </rect></_>
    <_>
      <rect> 1 13 2 2 </rect></_>
    <_>
      <rect> 1 13 2 3 </rect></_>
    <_>
      <rect> 0 13 2 1 </rect></_>
    <_>
      <rect> 0 13 2 2 </rect></_>
    <_>
      <rect> 18 14 2 2 </rect></_>
    <_>
      <rect> 14 14 3 1 </rect></_>
    <_>
      <rect> 16 14 2 3 </rect></_>
    <_>
      <rect> 14 14 1 2 </rect></_>
    <_>
      <rect> 8 14 1 2 </rect></_>
    <_>
      <rect> 2 14 3 3 </rect></_>
    <_>
      <rect> 1 14 2 2 </rect></_>
    <_>
      <rect> 18 15 2 2 </rect></_>
    <_>
      <rect> 15 15 3 2 </rect></_>
    <_>
      <rect> 14 15 2 3 </rect></_>
    <_>
      <rect> 2 15 6 3 </rect></_>
    <_>
      <rect> 12 15 2 3 </rect></_>
    <_>
      <rect> 1 15 4 3 </rect></_>
    <_>
      <rect> 5 15 2 3 </rect></_>
    <_>
      <rect> 1 15 2 2 </rect></_>
    <_>
      <rect> 1 15 2 3 </rect></_>
    <_>
      <rect> 14 16 3 2 </rect></_>
    <_>
      <rect> 9 16 4 2 </rect></_>
    <_>
      <rect> 15 16 1 1 </rect></_>
    <_>
      <rect> 2 16 2 2 </rect></_>
    <_>
      <rect> 17 17 2 2 </rect></_>
    <_>
      <rect> 8 17 5 2 </rect></_>
    <_>
      <rect> 6 17 2 2 </rect></_>
    <_>
      <rect> 18 18 2 2 </rect></_></features></cascade>
</opencv_storage>