<?xml version="1.0" encoding="utf-8"?>
<opencv_storage>
<cascade type_id="opencv-cascade-classifier">
  <stageType>BOOST</stageType>
  <featureType>LBP</featureType>
  <height>24</height>
  <width>24</width>
  <orientation>90</orientation>
  <stageParams>
    <boostType>GAB</boostType>
    <minHitRate>0.9950000047683716</minHitRate>
    <maxFalseAlarm>0.5000000000000000</maxFalseAlarm>
    <weightTrimRate>0.9500000000000000</weightTrimRate>
    <maxDepth>1</maxDepth>
    <maxWeakCount>100</maxWeakCount></stageParams>
  <featureParams>
    <maxCatCount>256</maxCatCount></featureParams>
  <stageNum>20</stageNum>
  <stages>
    
    <_>
      <maxWeakCount>3</maxWeakCount>
      <stageThreshold>-0.7520892024040222</stageThreshold>
      <weakClassifiers>
        
        <_>
          <internalNodes> 0 -1 46 -5704480052 -5100500820 -86340 -65540 2348583596 -96020 -1048917 -337</internalNodes>
          <leafValues>
            -0.6543210148811340 0.8888888955116272</leafValues></_>
        
        <_>
          <internalNodes> 0 -1 13 -40108036 -1048580 -2057831416 -774373412 -2097156 -4 -2554886 -12024902</internalNodes>
          <leafValues>
            -0.7739216089248657 0.7278633713722229</leafValues></_>
        
        <_>
          <internalNodes> 0 -1 2 -5351792040 -547631576 4355130944 -536870904 -2966179844 -6361348 -5686512 -13956307</internalNodes>
          <leafValues>
            -0.7068563103675842 0.6761534214019775</leafValues></_></weakClassifiers></_>
    
    <_>
      <maxWeakCount>4</maxWeakCount>
      <stageThreshold>-0.4872078299522400</stageThreshold>
      <weakClassifiers>
        
        <_>
          <internalNodes> 0 -1 84 -2147483652 8589803516 2952529960 4244406268 972818476 8589786620 33554431 30408191</internalNodes>
          <leafValues>
            -0.8083735704421997 0.7685696482658386</leafValues></_>
        
        <_>
          <internalNodes> 0 -1 21 7516192764 1018997948 7516192764 -537010180 -1073741828 3204447996 33554431 4112126</internalNodes>
          <leafValues>
            -0.7698410153388977 0.6592915654182434</leafValues></_>
        
        <_>
          <internalNodes> 0 -1 106 -1141937600 -3400041524 -757337488 -6687817732 -2284106780 -1048580 -1532973 25170930</internalNodes>
          <leafValues>
            -0.7506558895111084 0.5444605946540833</leafValues></_>
        
        <_>
          <internalNodes> 0 -1 48 4383084612 -948576292 -262276 -4 -866910980 -276824196 -12479540 -2048</internalNodes>
          <leafValues>
            -0.7775990366935730 0.5465461611747742</leafValues></_></weakClassifiers></_>
    
    <_>
      <maxWeakCount>4</maxWeakCount>
      <stageThreshold>-1.1592328548431396</stageThreshold>
      <weakClassifiers>
        
        <_>
          <internalNodes> 0 -1 47 -403273048 -2953016696 -82244 -147460 -604067160 -536954196 -337 -321</internalNodes>
          <leafValues>
            -0.5601882934570313 0.7743113040924072</leafValues></_>
        
        <_>
          <internalNodes> 0 -1 12 -1075978456 -1685323780 -1610744324 4361551864 -1147142180 -1610612740 -4468800 2866175</internalNodes>
          <leafValues>
            -0.6124526262283325 0.6978127956390381</leafValues></_>
        
        <_>
          <internalNodes> 0 -1 26 -201853968 -5013508 -536873004 -201458052 -134479968 -689963012 -786672 15170045</internalNodes>
          <leafValues>
            -0.6114496588706970 0.6537628173828125</leafValues></_>
        
        <_>
          <internalNodes> 0 -1 8 7511910952 -8352973672 -536871948 8587706300 -75642568 4380924988 -4 -2113536</internalNodes>
          <leafValues>
            -0.6854077577590942 0.5403239130973816</leafValues></_></weakClassifiers></_>
    
    <_>
      <maxWeakCount>5</maxWeakCount>
      <stageThreshold>-0.7562355995178223</stageThreshold>
      <weakClassifiers>
        
        <_>
          <internalNodes> 0 -1 96 -83886408 -270532612 -537002924 8019500508 -1000 -603983876 -19 29229054</internalNodes>
          <leafValues>
            -0.4051094949245453 0.7584033608436585</leafValues></_>
        
        <_>
          <internalNodes> 0 -1 33 -17048580 -1028 5860847956 -1075839492 -10625076 -2097156 -13565034 -1200160</internalNodes>
          <leafValues>
            -0.7388162612915039 0.5340843200683594</leafValues></_>
        
        <_>
          <internalNodes> 0 -1 57 -2164413512 -611800 -155972 -81924 -4615504 -289915904 -200 0</internalNodes>
          <leafValues>
            -0.6582943797111511 0.5339496731758118</leafValues></_>
        
        <_>
          <internalNodes> 0 -1 125 -1279264720 -6376128520 -8444 -3960471564 -1955901184 -2083790964 -4210690 -7077890</internalNodes>
          <leafValues>
            -0.5981323719024658 0.5323504805564880</leafValues></_>
        
        <_>
          <internalNodes> 0 -1 53 -5368774660 -4303568900 7994113272 4227858428 -134283908 -4 8715428 10472893</internalNodes>
          <leafValues>
            -0.6498787999153137 0.4913350641727448</leafValues></_></weakClassifiers></_>
    
    <_>
      <maxWeakCount>5</maxWeakCount>
      <stageThreshold>-0.8085358142852783</stageThreshold>
      <weakClassifiers>
        
        <_>
          <internalNodes> 0 -1 60 -67371152 -83886084 -706749104 -673710636 -67109040 -134218504 -8388651 13753052</internalNodes>
          <leafValues>
            -0.5278195738792419 0.6946372389793396</leafValues></_>
        
        <_>
          <internalNodes> 0 -1 7 -4362364520 3221323912 -33555308 -167783148 -158308 -2124475940 0 -984086</internalNodes>
          <leafValues>
            -0.5206505060195923 0.6329920291900635</leafValues></_>
        
        <_>
          <internalNodes> 0 -1 98 -3409956 -67239972 5959524144 -671612964 -4 -4 -11332614 21058555</internalNodes>
          <leafValues>
            -0.7516061067581177 0.4232024252414703</leafValues></_>
        
        <_>
          <internalNodes> 0 -1 44 -260 3741248684 -33554436 -4312793092 -4 2935545068 -512 15727852</internalNodes>
          <leafValues>
            -0.7639313936233521 0.4123568832874298</leafValues></_>
        
        <_>
          <internalNodes> 0 -1 24 -4145747016 3270503420 4493476116 -235187236 -4053873924 -778053636 -1335542 33419195</internalNodes>
          <leafValues>
            -0.5123769044876099 0.5791834592819214</leafValues></_></weakClassifiers></_>
    
    <_>
      <maxWeakCount>5</maxWeakCount>
      <stageThreshold>-0.5549971461296082</stageThreshold>
      <weakClassifiers>
        
        <_>
          <internalNodes> 0 -1 42 -1073831188 -536957972 -69892 -4 -87316 -87384 -272 -320</internalNodes>
          <leafValues>
            -0.3763174116611481 0.7298233509063721</leafValues></_>
        
        <_>
          <internalNodes> 0 -1 6 -1078018900 2730010792 8589934076 6962298876 -4362076932 -1073889540 -12582980 -32785349</internalNodes>
          <leafValues>
            -0.5352765917778015 0.5659480094909668</leafValues></_>
        
        <_>
          <internalNodes> 0 -1 61 -32 -351538336 -81924 -4295049220 -203424864 -67398784 -1048588 -96</internalNodes>
          <leafValues>
            -0.5678374171257019 0.4961479902267456</leafValues></_>
        
        <_>
          <internalNodes> 0 -1 123 -5436032980 -7634681860 -5386743672 3640393692 -5436042080 -5385486628 -2162947 15662783</internalNodes>
          <leafValues>
            -0.5706262588500977 0.4572288393974304</leafValues></_>
        
        <_>
          <internalNodes> 0 -1 9 5026126696 -5322661704 4865233044 -144762532 133992792 -607186532 -1392789 -65568</internalNodes>
          <leafValues>
            -0.5344601869583130 0.4672054052352905</leafValues></_></weakClassifiers></_>
    
    <_>
      <maxWeakCount>5</maxWeakCount>
      <stageThreshold>-0.8776460289955139</stageThreshold>
      <weakClassifiers>
        
        <_>
          <internalNodes> 0 -1 105 -136053796 -134217732 -3158056016 -405537284 -2760900612 -1056772 16777649 3228151</internalNodes>
          <leafValues>
            -0.7700348496437073 0.5943940877914429</leafValues></_>
        
        <_>
          <internalNodes> 0 -1 30 -196612 -137166896 -1077936140 -5371068420 -4312793092 -5111820 -22380328 -12869120</internalNodes>
          <leafValues>
            -0.5043668746948242 0.6151274442672730</leafValues></_>
        
        <_>
          <internalNodes> 0 -1 35 -1746993700 -536870924 -203423952 -516 -4 -4 -16677891 -3058722</internalNodes>
          <leafValues>
            -0.6808040738105774 0.4667325913906097</leafValues></_>
        
        <_>
          <internalNodes> 0 -1 119 -104202244 -1694638084 -1073873456 8420056572 -8456976 -69468740 13008348 -532993</internalNodes>
          <leafValues>
            -0.4927591383457184 0.5401885509490967</leafValues></_>
        
        <_>
          <internalNodes> 0 -1 82 8572239868 -4456484 -4563796016 -12 -9445424 -2958064 -17022498 -16883201</internalNodes>
          <leafValues>
            -0.6445107460021973 0.4227822124958038</leafValues></_></weakClassifiers></_>
    
    <_>
      <maxWeakCount>6</maxWeakCount>
      <stageThreshold>-1.1139287948608398</stageThreshold>
      <weakClassifiers>
        
        <_>
          <internalNodes> 0 -1 52 -4 -5120541720 -21299268 -4 -1342193928 2328537768 -16782368 -16781312</internalNodes>
          <leafValues>
            -0.5307556986808777 0.6258179545402527</leafValues></_>
        
        <_>
          <internalNodes> 0 -1 99 -2160066896 -2281980108 -2282522636 -2351431852 -134512656 -143392772 -11045896 -11021313</internalNodes>
          <leafValues>
            -0.5227634310722351 0.5049746036529541</leafValues></_>
        
        <_>
          <internalNodes> 0 -1 18 -1074012212 -6685776 1044070396 5301731260 7817576444 -3221225796 -31806720 658111</internalNodes>
          <leafValues>
            -0.4983572661876679 0.5106441378593445</leafValues></_>
        
        <_>
          <internalNodes> 0 -1 111 5704074944 -682105792 -2187329948 -20452148 -136973500 -2281711716 -4414523 -24344892</internalNodes>
          <leafValues>
            -0.4990860521793366 0.5060507059097290</leafValues></_>
        
        <_>
          <internalNodes> 0 -1 92 3660377076 -4320344196 -7348108576 -5446401120 8589274988 4271902452 15880195 -9473464</internalNodes>
          <leafValues>
            -0.5695009231567383 0.4460467398166657</leafValues></_>
        
        <_>
          <internalNodes> 0 -1 51 -566398136 -2413743344 6023801832 -3150227784 -319293752 -5304796536 -10256565 -240828</internalNodes>
          <leafValues>
            -0.6590405106544495 0.3616424500942230</leafValues></_></weakClassifiers></_>
    
    <_>
      <maxWeakCount>7</maxWeakCount>
      <stageThreshold>-0.8243625760078430</stageThreshold>
      <weakClassifiers>
        
        <_>
          <internalNodes> 0 -1 28 -1048 -269484036 -573248448 -2097156 -167772712 -4 -14087371 -3154944</internalNodes>
          <leafValues>
            -0.4972776770591736 0.6027074456214905</leafValues></_>
        
        <_>
          <internalNodes> 0 -1 112 -1073750052 -270008580 -69403436 -131604 -285377260 -117508 -70435 -6427202</internalNodes>
          <leafValues>
            -0.4383158981800079 0.5966237187385559</leafValues></_>
        
        <_>
          <internalNodes> 0 -1 69 -956254348 -50154000 5940288504 8304932852 8492475388 3207627708 -1185856 -1834053</internalNodes>
          <leafValues>
            -0.6386105418205261 0.3977999985218048</leafValues></_>
        
        <_>
          <internalNodes> 0 -1 19 -67504196 -5457051656 968660844 5263720436 -2785075332 -1820331316 -12866881 12291071</internalNodes>
          <leafValues>
            -0.5512794256210327 0.4282079637050629</leafValues></_>
        
        <_>
          <internalNodes> 0 -1 73 -5584945144 -8153744456 -742450036 230678508 -572531508 -4164943892 -8147062 105418</internalNodes>
          <leafValues>
            -0.6418755054473877 0.3549866080284119</leafValues></_>
        
        <_>
          <internalNodes> 0 -1 126 -6583582460 5461193088 -2231436292 -1359085892 5770298112 -4235208244 -7471154 16812952</internalNodes>
          <leafValues>
            -0.4841901361942291 0.4668019413948059</leafValues></_>
        
        <_>
          <internalNodes> 0 -1 45 -6442450980 -3153602784 5870419444 -11149588 5905055740 -17925396 -3849225 -25787532</internalNodes>
          <leafValues>
            -0.5855734348297119 0.3879135847091675</leafValues></_></weakClassifiers></_>
    
    <_>
      <maxWeakCount>7</maxWeakCount>
      <stageThreshold>-1.2237116098403931</stageThreshold>
      <weakClassifiers>
        
        <_>
          <internalNodes> 0 -1 114 -67239972 -268435460 8587113552 5735710164 -1074433776 -139460820 -387 24575998</internalNodes>
          <leafValues>
            -0.2518476545810700 0.7088654041290283</leafValues></_>
        
        <_>
          <internalNodes> 0 -1 97 -131076 -23069476 -4466700 -8740 -32924 -134413308 -28771 -2097985</internalNodes>
          <leafValues>
            -0.4303432404994965 0.5283288359642029</leafValues></_>
        
        <_>
          <internalNodes> 0 -1 25 -4295114916 -1078215248 -3238051908 6978830332 -167837732 -539035912 -21242306 -21259267</internalNodes>
          <leafValues>
            -0.4259553551673889 0.5440809130668640</leafValues></_>
        
        <_>
          <internalNodes> 0 -1 34 -4563629316 -940803108 2633825532 8589869052 -4563603716 -65540 11402396 -2097984</internalNodes>
          <leafValues>
            -0.5605589151382446 0.4220733344554901</leafValues></_>
        
        <_>
          <internalNodes> 0 -1 134 -772021888 -1414272516 4821352280 -3961520144 3550417296 -1682178104 -4849696 -6573056</internalNodes>
          <leafValues>
            -0.5192656517028809 0.4399855434894562</leafValues></_>
        
        <_>
          <internalNodes> 0 -1 16 -1148478936 -1948275784 459036980 -2162312204 -2830041036 -2686641812 -22298740 30920639</internalNodes>
          <leafValues>
            -0.5013077259063721 0.4570254683494568</leafValues></_>
        
        <_>
          <internalNodes> 0 -1 74 -1313207792 -487329800 -4570633136 -7454306236 8585669412 -1052740 -11538496 -13905457</internalNodes>
          <leafValues>
            -0.4631414115428925 0.4790246188640595</leafValues></_></weakClassifiers></_>
    
    <_>
      <maxWeakCount>7</maxWeakCount>
      <stageThreshold>-0.5544230937957764</stageThreshold>
      <weakClassifiers>
        
        <_>
          <internalNodes> 0 -1 113 -4 -268697604 -592028 -132 -887184 -1091371696 -1191074 -1024</internalNodes>
          <leafValues>
            -0.3949716091156006 0.6082032322883606</leafValues></_>
        
        <_>
          <internalNodes> 0 -1 110 8554280144 -4759600 3162832076 -4850452508 3199794876 -17825932 5767932 -25394251</internalNodes>
          <leafValues>
            -0.4855885505676270 0.4785369932651520</leafValues></_>
        
        <_>
          <internalNodes> 0 -1 37 2147331196 -1611939852 -5369659964 -3355459588 -707076 -1073824516 12253372 -4531488</internalNodes>
          <leafValues>
            -0.4620285332202911 0.4989669024944305</leafValues></_>
        
        <_>
          <internalNodes> 0 -1 41 -1361179600 -87752 -2079064128 -3091004688 -292384240 -2341290492 -7600292 -2686176</internalNodes>
          <leafValues>
            -0.6420643329620361 0.3624351918697357</leafValues></_>
        
        <_>
          <internalNodes> 0 -1 117 -5693855296 -8308921684 -19398676 -8322023700 -876131712 -4287661396 -524296 -7427072</internalNodes>
          <leafValues>
            -0.4820112884044647 0.4632140696048737</leafValues></_>
        
        <_>
          <internalNodes> 0 -1 65 -5397256332 -4295214236 -2479655056 -5796527376 -5547561284 -7916473692 -13033288 -2097148</internalNodes>
          <leafValues>
            -0.4465552568435669 0.5061788558959961</leafValues></_>
        
        <_>
          <internalNodes> 0 -1 56 -66120 -6924091480 -4647616584 -5368709188 -1073758536 -5856314832 -4457027 29883903</internalNodes>
          <leafValues>
            -0.5190586447715759 0.4441480338573456</leafValues></_></weakClassifiers></_>
    
    <_>
      <maxWeakCount>7</maxWeakCount>
      <stageThreshold>-0.7161560654640198</stageThreshold>
      <weakClassifiers>
        
        <_>
          <internalNodes> 0 -1 20 -40108228 240408 -1109393412 -174587948 -4842324612 4783078460 19472383 16843768</internalNodes>
          <leafValues>
            -0.4323809444904327 0.5663768053054810</leafValues></_>
        
        <_>
          <internalNodes> 0 -1 15 -2315103560 -16145912 -7786321988 -4659066280 -7946748036 -48414396 -12165368 -9576892</internalNodes>
          <leafValues>
            -0.4588732719421387 0.4547033011913300</leafValues></_>
        
        <_>
          <internalNodes> 0 -1 129 -5452678212 -4329836804 -5657146196 3472743932 -5424534356 -4311745028 -16777491 31456745</internalNodes>
          <leafValues>
            -0.5218553543090820 0.4111092388629913</leafValues></_>
        
        <_>
          <internalNodes> 0 -1 102 -4819401088 2257161196 -268484884 -5368709400 -5236783608 -3106939188 -1314818 -32709651</internalNodes>
          <leafValues>
            -0.4920000731945038 0.4326725304126740</leafValues></_>
        
        <_>
          <internalNodes> 0 -1 88 -1160865112 -674252148 8335509768 6811153532 -576767856 -939528648 -401475 1048507</internalNodes>
          <leafValues>
            -0.4494568109512329 0.4448510706424713</leafValues></_>
        
        <_>
          <internalNodes> 0 -1 59 -6449070084 929117660 6203449008 -2299300884 -1429523552 -18317636 -13405950 14135667</internalNodes>
          <leafValues>
            -0.5180826783180237 0.3888972699642181</leafValues></_>
        
        <_>
          <internalNodes> 0 -1 27 1979713556 -984054520 3758165404 -4784289400 -2482414196 8548865092 -1539835 -2153725</internalNodes>
          <leafValues>
            -0.6081240773200989 0.3333222270011902</leafValues></_></weakClassifiers></_>
    
    <_>
      <maxWeakCount>8</maxWeakCount>
      <stageThreshold>-0.6743940711021423</stageThreshold>
      <weakClassifiers>
        
        <_>
          <internalNodes> 0 -1 29 -5208606504 2147737340 -4236035748 3656514836 4589312440 -1073479700 -2359300 32362374</internalNodes>
          <leafValues>
            -0.1790193915367127 0.6605972051620483</leafValues></_>
        
        <_>
          <internalNodes> 0 -1 128 -5368709156 7445938164 -4431335152 6308232692 -1334234272 -545276164 -2101710 25165245</internalNodes>
          <leafValues>
            -0.3681024610996246 0.5139749646186829</leafValues></_>
        
        <_>
          <internalNodes> 0 -1 70 -4363938096 -2523674096 -2157971500 3118465020 -3358273696 -1284 0 16564913</internalNodes>
          <leafValues>
            -0.3217232525348663 0.6171553134918213</leafValues></_>
        
        <_>
          <internalNodes> 0 -1 4 -3164337400 -71695104 941146684 5102019772 5377561596 -3865107556 -4211912 -4453592</internalNodes>
          <leafValues>
            -0.4373284578323364 0.4358185231685638</leafValues></_>
        
        <_>
          <internalNodes> 0 -1 76 2381708916 5899038684 2302688832 -6736022152 3488868344 -4623433108 278531 -11681694</internalNodes>
          <leafValues>
            -0.4404836893081665 0.4601220190525055</leafValues></_>
        
        <_>
          <internalNodes> 0 -1 124 -3288926488 -1423180952 -1883283476 -7990149636 -4228529536 -4061140020 -5259266 29277118</internalNodes>
          <leafValues>
            -0.4294152259826660 0.4452161788940430</leafValues></_>
        
        <_>
          <internalNodes> 0 -1 54 -1288569028 -1459570000 -3804118156 -1208500484 -6460424212 -316999060 -13034564 -9276480</internalNodes>
          <leafValues>
            -0.3973052501678467 0.4854526817798615</leafValues></_>
        
        <_>
          <internalNodes> 0 -1 95 -134218244 -191492 -3422743648 -4 7952209788 2147309532 20971007 33553623</internalNodes>
          <leafValues>
            -0.7054683566093445 0.2697997391223908</leafValues></_></weakClassifiers></_>
    
    <_>
      <maxWeakCount>9</maxWeakCount>
      <stageThreshold>-1.2042298316955566</stageThreshold>
      <weakClassifiers>
        
        <_>
          <internalNodes> 0 -1 39 -2148009996 -549988388 6242361284 -338444324 -8388772 -2052 22365140 -2866217</internalNodes>
          <leafValues>
            -0.5905947685241699 0.5101932883262634</leafValues></_>
        
        <_>
          <internalNodes> 0 -1 120 8522825724 5835980028 -34270144 -169935532 -135120012 -84017668 -25707182 32898300</internalNodes>
          <leafValues>
            -0.4449204802513123 0.4490709304809570</leafValues></_>
        
        <_>
          <internalNodes> 0 -1 89 -1448110064 -1811940424 1103419668 7681726556 -50402244 -536887300 -9568453 -7903233</internalNodes>
          <leafValues>
            -0.4693818688392639 0.4061094820499420</leafValues></_>
        
        <_>
          <internalNodes> 0 -1 14 -2216690716 -2122077952 -67117764 8002731484 -134417100 -603988516 -12587080 -2</internalNodes>
          <leafValues>
            -0.3600351214408875 0.5056326985359192</leafValues></_>
        
        <_>
          <internalNodes> 0 -1 67 5869797364 8186766020 -6433975100 -19022916 -4332650500 -285462548 96 6799471</internalNodes>
          <leafValues>
            -0.4459891915321350 0.4132415652275085</leafValues></_>
        
        <_>
          <internalNodes> 0 -1 86 7413431868 -1682850540 -1663697156 -1080836832 -4353172452 -3301244928 -651393 -51266</internalNodes>
          <leafValues>
            -0.4466069042682648 0.4135067760944367</leafValues></_>
        
        <_>
          <internalNodes> 0 -1 80 8321497844 -754836 -2168032660 -1427327760 -4364501380 -4295187588 -1834236 -659428</internalNodes>
          <leafValues>
            -0.3394956290721893 0.5658645033836365</leafValues></_>
        
        <_>
          <internalNodes> 0 -1 75 -5368727804 3029088392 4294962428 -1128796964 -1663046196 683587724 -4325469 21542413</internalNodes>
          <leafValues>
            -0.5346512198448181 0.3584479391574860</leafValues></_>
        
        <_>
          <internalNodes> 0 -1 55 8454668220 -870121684 -4429728776 -65540 -3225439236 -1564755084 -12438684 -1924482</internalNodes>
          <leafValues>
            -0.4379335641860962 0.4123645126819611</leafValues></_></weakClassifiers></_>
    
    <_>
      <maxWeakCount>10</maxWeakCount>
      <stageThreshold>-0.8402050137519836</stageThreshold>
      <weakClassifiers>
        
        <_>
          <internalNodes> 0 -1 71 -1950761944 188464952 -4849279596 -5167390724 -272639560 -1879319684 -13910103 242591</internalNodes>
          <leafValues>
            -0.2670986354351044 0.6014143228530884</leafValues></_>
        
        <_>
          <internalNodes> 0 -1 31 -4362355244 -1141640284 -4296065060 -3361775620 8588885948 -1048580 -21268448 -29656388</internalNodes>
          <leafValues>
            -0.4149844348430634 0.4670888185501099</leafValues></_>
        
        <_>
          <internalNodes> 0 -1 40 8570927180 -570430020 -2032929808 -86253572 -167840004 -260 22284228 29677566</internalNodes>
          <leafValues>
            -0.4985891580581665 0.3719584941864014</leafValues></_>
        
        <_>
          <internalNodes> 0 -1 109 -945992384 -2984782388 7898263300 -60817660 3687630532 -760233236 -3145905 164748</internalNodes>
          <leafValues>
            -0.4568729996681213 0.3965812027454376</leafValues></_>
        
        <_>
          <internalNodes> 0 -1 130 -1074596940 -2285962796 -1762401568 -532524 -1435243808 -8016354584 -9297292 -10256280</internalNodes>
          <leafValues>
            -0.4770836830139160 0.3862601518630981</leafValues></_>
        
        <_>
          <internalNodes> 0 -1 66 5331156436 -270764060 -5441854772 -6226449720 -2436434184 2934187732 14713667 -17310658</internalNodes>
          <leafValues>
            -0.4877715110778809 0.3778986334800720</leafValues></_>
        
        <_>
          <internalNodes> 0 -1 49 6211486232 -331102416 -3729575376 -5234179556 -2130541912 -396169428 -267421 -3750960</internalNodes>
          <leafValues>
            -0.3721654713153839 0.4994400143623352</leafValues></_>
        
        <_>
          <internalNodes> 0 -1 133 -3756820656 7539716912 -1995436888 2237669428 -7714237780 -1145057540 -10248531 21960978</internalNodes>
          <leafValues>
            -0.3934195041656494 0.4769641458988190</leafValues></_>
        
        <_>
          <internalNodes> 0 -1 0 -360 -7784744904 3724384732 1006451948 8053063668 -2684928788 -5247465 29073082</internalNodes>
          <leafValues>
            -0.4323300719261169 0.4342164099216461</leafValues></_>
        
        <_>
          <internalNodes> 0 -1 103 1498769204 8010665380 -2144704776 -6577938912 3228036076 4276359720 590147 -2152698</internalNodes>
          <leafValues>
            -0.4993278682231903 0.3665378093719482</leafValues></_></weakClassifiers></_>
    
    <_>
      <maxWeakCount>9</maxWeakCount>
      <stageThreshold>-1.1974394321441650</stageThreshold>
      <weakClassifiers>
        
        <_>
          <internalNodes> 0 -1 43 8573061864 -18044280 -65800 -1028 -805393760 -285332824 -86 33554107</internalNodes>
          <leafValues>
            -0.3310225307941437 0.5624626278877258</leafValues></_>
        
        <_>
          <internalNodes> 0 -1 90 8061003920 -348428504 -2566662976 -3154098556 -4591459168 -539570252 -2138160 -7802042</internalNodes>
          <leafValues>
            -0.5266560912132263 0.3704403042793274</leafValues></_>
        
        <_>
          <internalNodes> 0 -1 104 8444680132 -563618736 -67110204 -7786727540 -6585854380 -3356527788 -2293763 -27818258</internalNodes>
          <leafValues>
            -0.4171888828277588 0.4540435671806335</leafValues></_>
        
        <_>
          <internalNodes> 0 -1 85 -1207961124 -2315256324 -3729276000 -7989626892 -134220804 -276824068 -13000844 -15338496</internalNodes>
          <leafValues>
            -0.4556705355644226 0.3704262077808380</leafValues></_>
        
        <_>
          <internalNodes> 0 -1 24 4476095352 -5337253412 4451794952 -1189277252 5515549164 -557876772 -1851444 -18891044</internalNodes>
          <leafValues>
            -0.4182529747486115 0.4267231225967407</leafValues></_>
        
        <_>
          <internalNodes> 0 -1 78 -448379836 -2198452368 -6268235040 -6874201856 -1369260048 -4299888908 -26787228 -36776</internalNodes>
          <leafValues>
            -0.3625369668006897 0.4684656262397766</leafValues></_>
        
        <_>
          <internalNodes> 0 -1 5 -133116 7619881152 8469069260 -1043607076 -2485847036 -354431080 -1331557 4950568</internalNodes>
          <leafValues>
            -0.4742925167083740 0.3689507246017456</leafValues></_>
        
        <_>
          <internalNodes> 0 -1 11 -6564638744 -201327684 -8323599508 4582277116 -572530852 -608176148 -4603969 -5525056</internalNodes>
          <leafValues>
            -0.3666271567344666 0.4580127298831940</leafValues></_>
        
        <_>
          <internalNodes> 0 -1 32 -7511907276 -137283888 -4284271932 -2645381664 -2333353108 4240762244 29491463 -9977276</internalNodes>
          <leafValues>
            -0.4567637443542481 0.3894708156585693</leafValues></_></weakClassifiers></_>
    
    <_>
      <maxWeakCount>9</maxWeakCount>
      <stageThreshold>-0.5733128190040588</stageThreshold>
      <weakClassifiers>
        
        <_>
          <internalNodes> 0 -1 122 -1275348464 -1279525508 4410266452 4661960412 -486718776 -538976516 -15532239 17011647</internalNodes>
          <leafValues>
            -0.4055117964744568 0.5487945079803467</leafValues></_>
        
        <_>
          <internalNodes> 0 -1 68 7247740796 -1476936020 -2116 -82372 -82020 -6245607416 -4456769 -8421764</internalNodes>
          <leafValues>
            -0.3787897229194641 0.4532003402709961</leafValues></_>
        
        <_>
          <internalNodes> 0 -1 58 7763446780 2147265476 -4904285468 -2283632704 1828106476 4000082668 -20863213 30764330</internalNodes>
          <leafValues>
            -0.4258328974246979 0.4202791750431061</leafValues></_>
        
        <_>
          <internalNodes> 0 -1 94 -201740996 -74585892 -2435517168 -3221226764 -1077216976 -71360668 -21254979 -30934342</internalNodes>
          <leafValues>
            -0.4561023116111755 0.4002747833728790</leafValues></_>
        
        <_>
          <internalNodes> 0 -1 87 -5100322884 -65624 183057340 -4362208260 -3091385348 -2281857288 32230717 -257</internalNodes>
          <leafValues>
            -0.4314672648906708 0.4086346626281738</leafValues></_>
        
        <_>
          <internalNodes> 0 -1 127 -2952937152 -3861914836 -8331071876 5163423548 7975291736 -3961526436 -8389000 16887775</internalNodes>
          <leafValues>
            -0.4174543321132660 0.4249868988990784</leafValues></_>
        
        <_>
          <internalNodes> 0 -1 3 -1174441712 -316997416 2676898684 2484666936 4346027228 5895075628 -12795984 2636420</internalNodes>
          <leafValues>
            -0.4321364760398865 0.4090838730335236</leafValues></_>
        
        <_>
          <internalNodes> 0 -1 79 -5657263516 -3366704672 -2479373376 -4722442124 -4327961876 4172813556 -1076495 -1048558</internalNodes>
          <leafValues>
            -0.5018386244773865 0.3702533841133118</leafValues></_>
        
        <_>
          <internalNodes> 0 -1 116 -8499529688 -5749783432 -462468296 -4783149564 -4384097464 -8561889780 -843783 -8491964</internalNodes>
          <leafValues>
            -0.5037505626678467 0.3564981222152710</leafValues></_></weakClassifiers></_>
    
    <_>
      <maxWeakCount>9</maxWeakCount>
      <stageThreshold>-0.4892596900463104</stageThreshold>
      <weakClassifiers>
        
        <_>
          <internalNodes> 0 -1 132 7448540444 3385847692 -11008 8008949092 -1092619008 7748894156 -1048643 31309501</internalNodes>
          <leafValues>
            -0.2448196411132813 0.5689709186553955</leafValues></_>
        
        <_>
          <internalNodes> 0 -1 62 -2447358220 -2156671596 -5157433440 -6603240432 -3570161996 -5731310736 18428498 -1219764</internalNodes>
          <leafValues>
            -0.4633283913135529 0.3587929606437683</leafValues></_>
        
        <_>
          <internalNodes> 0 -1 23 -2624848124 -1056200440 -111149700 -5337399844 -2190651924 -543187696 -4456448 -1225793</internalNodes>
          <leafValues>
            -0.3731099069118500 0.4290455579757690</leafValues></_>
        
        <_>
          <internalNodes> 0 -1 77 -2202353668 6400778164 -4322762940 3804511972 -5554323796 -4614869892 5341616 6307844</internalNodes>
          <leafValues>
            -0.3658909499645233 0.4556473195552826</leafValues></_>
        
        <_>
          <internalNodes> 0 -1 22 -402578384 -157278200 -4764603176 2822770052 1828813260 -303227828 -9170010 -3200492</internalNodes>
          <leafValues>
            -0.5214384198188782 0.3221037387847900</leafValues></_>
        
        <_>
          <internalNodes> 0 -1 72 -2694864768 -3102237816 -1056454392 557696 -733479928 -817898564 -6508544 8529865</internalNodes>
          <leafValues>
            -0.4289036989212036 0.4004956185817719</leafValues></_>
        
        <_>
          <internalNodes> 0 -1 50 -6961999748 -6255081988 5393964024 -242842852 -4439413956 -2535637652 -16039140 -9213939</internalNodes>
          <leafValues>
            -0.4621542394161224 0.3832748532295227</leafValues></_>
        
        <_>
          <internalNodes> 0 -1 108 -7113562432 -3089672508 -7159693664 -6448228724 -3221226772 -5663368452 -22638629 -7467110</internalNodes>
          <leafValues>
            -0.3711548447608948 0.4612701535224915</leafValues></_>
        
        <_>
          <internalNodes> 0 -1 92 210619004 -5177888 -1140414900 -298532024 7486236332 4231823400 6373522 -9100781</internalNodes>
          <leafValues>
            -0.5180652141571045 0.3205870389938355</leafValues></_></weakClassifiers></_>
    
    <_>
      <maxWeakCount>10</maxWeakCount>
      <stageThreshold>-0.5911940932273865</stageThreshold>
      <weakClassifiers>
        
        <_>
          <internalNodes> 0 -1 81 -3386685712 -403609840 7352656592 -296615008 -362615952 -4297055584 64 -19680684</internalNodes>
          <leafValues>
            -0.2592592537403107 0.5873016119003296</leafValues></_>
        
        <_>
          <internalNodes> 0 -1 1 -4342356 -4325384 4831837172 4628413884 8388534260 -8388676 -4456512 -12862609</internalNodes>
          <leafValues>
            -0.3801195919513702 0.4718827307224274</leafValues></_>
        
        <_>
          <internalNodes> 0 -1 121 8589913468 8522825212 -151061968 -3464497868 -1275129312 -5570036740 -194 -8388674</internalNodes>
          <leafValues>
            -0.3509117066860199 0.5094807147979736</leafValues></_>
        
        <_>
          <internalNodes> 0 -1 38 -67179028 7783492584 -66840 -4 -33625364 -270652164 33553900 -324</internalNodes>
          <leafValues>
            -0.4068757295608521 0.4130136370658875</leafValues></_>
        
        <_>
          <internalNodes> 0 -1 17 6605629932 2193091248 -1916805872 -1790969796 5416918016 -1047537716 -2424870 13533081</internalNodes>
          <leafValues>
            -0.4557141065597534 0.3539792001247406</leafValues></_>
        
        <_>
          <internalNodes> 0 -1 100 -1971135944 -3169367108 -5149046780 5574575364 -45096728 -855638084 -3520615 -3932532</internalNodes>
          <leafValues>
            -0.4117803275585175 0.4118592441082001</leafValues></_>
        
        <_>
          <internalNodes> 0 -1 63 -205619200 -1484806232 -3692044276 -8541205828 -8264418972 -4170229764 -5972189 -31282386</internalNodes>
          <leafValues>
            -0.4008397758007050 0.4034757018089294</leafValues></_>
        
        <_>
          <internalNodes> 0 -1 101 6324815808 -1745034456 -421073072 -5743573780 -2552507552 -4244428504 -9802402 -754611</internalNodes>
          <leafValues>
            -0.5694189667701721 0.2964762747287750</leafValues></_>
        
        <_>
          <internalNodes> 0 -1 118 -2484091008 -1004013872 -50331660 -2298478956 -3977591156 -6593448084 -131237 16532932</internalNodes>
          <leafValues>
            -0.3195341229438782 0.5294018983840942</leafValues></_>
        
        <_>
          <internalNodes> 0 -1 92 6871841748 1458943924 -7135366408 -19532548 -1830289416 -4307801536 -5442872 -16849836</internalNodes>
          <leafValues>
            -0.3365339040756226 0.5067458748817444</leafValues></_></weakClassifiers></_>
    
    <_>
      <maxWeakCount>10</maxWeakCount>
      <stageThreshold>-0.7612916231155396</stageThreshold>
      <weakClassifiers>
        
        <_>
          <internalNodes> 0 -1 10 -6637988488 -3128272 174364356 -1814551520 5741880000 -4309754244 -30885333 -4499337</internalNodes>
          <leafValues>
            -0.4204545319080353 0.5165745615959168</leafValues></_>
        
        <_>
          <internalNodes> 0 -1 131 -570532672 -5355692160 8186853164 -8271732780 5894014848 -3158319348 -1048608 232421</internalNodes>
          <leafValues>
            -0.3762553930282593 0.4075302779674530</leafValues></_>
        
        <_>
          <internalNodes> 0 -1 83 -4474740 -1220624480 -4209156 -4295255024 -2155884616 -1422092152 -4262723 -24641</internalNodes>
          <leafValues>
            -0.4253497421741486 0.3728055357933044</leafValues></_>
        
        <_>
          <internalNodes> 0 -1 135 -2154059032 2294988028 -637563884 7976901956 -3894952392 -813696020 -34 -3351347</internalNodes>
          <leafValues>
            -0.3601998090744019 0.4563256204128265</leafValues></_>
        
        <_>
          <internalNodes> 0 -1 115 -2567442436 4118281204 -5225844768 -4784598072 -6119071112 2732559292 -4078620 -20787020</internalNodes>
          <leafValues>
            -0.4034293889999390 0.4160816967487335</leafValues></_>
        
        <_>
          <internalNodes> 0 -1 64 -1671460 -444436 -5733461072 -79478860 -7683759456 -5117828252 -8953025 -531916</internalNodes>
          <leafValues>
            -0.3620899617671967 0.4594142735004425</leafValues></_>
        
        <_>
          <internalNodes> 0 -1 36 6607784072 3221465572 8066238920 -1723123396 -3199472660 -66322580 -9785548 -9613390</internalNodes>
          <leafValues>
            -0.3903816640377045 0.4381459355354309</leafValues></_>
        
        <_>
          <internalNodes> 0 -1 93 7905673080 -5370008712 -7407495568 -4778548308 -4614086672 -4433597896 21168707 -17046212</internalNodes>
          <leafValues>
            -0.3591445386409760 0.4624078869819641</leafValues></_>
        
        <_>
          <internalNodes> 0 -1 91 -1219038092 4252068544 3195191000 -1102054184 2592669420 -4581429400 1064964 18927629</internalNodes>
          <leafValues>
            -0.4297670423984528 0.4023293554782867</leafValues></_>
        
        <_>
          <internalNodes> 0 -1 107 -654311776 -2148009224 -2181825556 -5301862580 -1521786944 -4233893544 -8536222 -25446400</internalNodes>
          <leafValues>
            -0.5727006793022156 0.2995934784412384</leafValues></_></weakClassifiers></_></stages>
  <features>
    <_>
      <rect> 0 15 5 3 </rect></_>
    <_>
      <rect> 0 12 2 4 </rect></_>
    <_>
      <rect> 0 6 3 6 </rect></_>
    <_>
      <rect> 1 18 3 2 </rect></_>
    <_>
      <rect> 1 15 3 3 </rect></_>
    <_>
      <rect> 1 15 7 3 </rect></_>
    <_>
      <rect> 4 15 3 3 </rect></_>
    <_>
      <rect> 11 15 4 3 </rect></_>
    <_>
      <rect> 12 0 4 8 </rect></_>
    <_>
      <rect> 14 12 3 4 </rect></_>
    <_>
      <rect> 0 8 3 5 </rect></_>
    <_>
      <rect> 1 17 2 2 </rect></_>
    <_>
      <rect> 3 14 1 3 </rect></_>
    <_>
      <rect> 7 11 4 4 </rect></_>
    <_>
      <rect> 12 17 2 2 </rect></_>
    <_>
      <rect> 13 11 1 4 </rect></_>
    <_>
      <rect> 14 11 3 4 </rect></_>
    <_>
      <rect> 17 14 2 3 </rect></_>
    <_>
      <rect> 0 16 3 2 </rect></_>
    <_>
      <rect> 1 16 2 2 </rect></_>
    <_>
      <rect> 2 10 6 4 </rect></_>
    <_>
      <rect> 3 10 4 4 </rect></_>
    <_>
      <rect> 7 16 1 2 </rect></_>
    <_>
      <rect> 11 16 3 2 </rect></_>
    <_>
      <rect> 17 13 2 3 </rect></_>
    <_>
      <rect> 0 15 2 2 </rect></_>
    <_>
      <rect> 1 0 3 7 </rect></_>
    <_>
      <rect> 7 15 1 2 </rect></_>
    <_>
      <rect> 7 15 4 2 </rect></_>
    <_>
      <rect> 18 15 2 2 </rect></_>
    <_>
      <rect> 0 14 3 2 </rect></_>
    <_>
      <rect> 3 14 1 2 </rect></_>
    <_>
      <rect> 6 14 1 2 </rect></_>
    <_>
      <rect> 6 14 5 2 </rect></_>
    <_>
      <rect> 7 5 2 5 </rect></_>
    <_>
      <rect> 8 8 3 4 </rect></_>
    <_>
      <rect> 18 14 2 2 </rect></_>
    <_>
      <rect> 0 13 2 2 </rect></_>
    <_>
      <rect> 3 7 4 4 </rect></_>
    <_>
      <rect> 6 13 5 2 </rect></_>
    <_>
      <rect> 9 13 2 2 </rect></_>
    <_>
      <rect> 10 13 2 2 </rect></_>
    <_>
      <rect> 3 6 4 4 </rect></_>
    <_>
      <rect> 4 6 3 4 </rect></_>
    <_>
      <rect> 5 12 3 2 </rect></_>
    <_>
      <rect> 5 12 5 2 </rect></_>
    <_>
      <rect> 5 6 3 4 </rect></_>
    <_>
      <rect> 6 6 2 4 </rect></_>
    <_>
      <rect> 6 6 4 4 </rect></_>
    <_>
      <rect> 18 15 2 1 </rect></_>
    <_>
      <rect> 21 12 1 2 </rect></_>
    <_>
      <rect> 0 8 7 3 </rect></_>
    <_>
      <rect> 4 11 3 2 </rect></_>
    <_>
      <rect> 9 2 1 5 </rect></_>
    <_>
      <rect> 21 11 1 2 </rect></_>
    <_>
      <rect> 0 13 4 1 </rect></_>
    <_>
      <rect> 5 10 2 2 </rect></_>
    <_>
      <rect> 5 7 2 3 </rect></_>
    <_>
      <rect> 17 7 1 3 </rect></_>
    <_>
      <rect> 18 13 2 1 </rect></_>
    <_>
      <rect> 0 0 3 5 </rect></_>
    <_>
      <rect> 2 9 6 2 </rect></_>
    <_>
      <rect> 5 12 1 1 </rect></_>
    <_>
      <rect> 11 12 1 1 </rect></_>
    <_>
      <rect> 16 12 1 1 </rect></_>
    <_>
      <rect> 16 9 1 2 </rect></_>
    <_>
      <rect> 17 12 1 1 </rect></_>
    <_>
      <rect> 18 12 1 1 </rect></_>
    <_>
      <rect> 5 11 2 1 </rect></_>
    <_>
      <rect> 5 5 3 3 </rect></_>
    <_>
      <rect> 7 11 5 1 </rect></_>
    <_>
      <rect> 8 11 1 1 </rect></_>
    <_>
      <rect> 9 11 1 1 </rect></_>
    <_>
      <rect> 10 11 1 1 </rect></_>
    <_>
      <rect> 10 11 2 1 </rect></_>
    <_>
      <rect> 14 5 3 3 </rect></_>
    <_>
      <rect> 15 11 1 1 </rect></_>
    <_>
      <rect> 15 8 1 2 </rect></_>
    <_>
      <rect> 16 11 1 1 </rect></_>
    <_>
      <rect> 16 8 1 2 </rect></_>
    <_>
      <rect> 17 11 1 1 </rect></_>
    <_>
      <rect> 21 11 1 1 </rect></_>
    <_>
      <rect> 3 7 2 2 </rect></_>
    <_>
      <rect> 5 10 2 1 </rect></_>
    <_>
      <rect> 5 4 3 3 </rect></_>
    <_>
      <rect> 5 1 6 4 </rect></_>
    <_>
      <rect> 6 10 1 1 </rect></_>
    <_>
      <rect> 7 7 2 2 </rect></_>
    <_>
      <rect> 8 10 2 1 </rect></_>
    <_>
      <rect> 10 10 1 1 </rect></_>
    <_>
      <rect> 10 10 2 1 </rect></_>
    <_>
      <rect> 15 10 1 1 </rect></_>
    <_>
      <rect> 17 10 1 1 </rect></_>
    <_>
      <rect> 18 10 1 1 </rect></_>
    <_>
      <rect> 0 6 2 2 </rect></_>
    <_>
      <rect> 1 6 5 2 </rect></_>
    <_>
      <rect> 2 0 1 4 </rect></_>
    <_>
      <rect> 3 9 3 1 </rect></_>
    <_>
      <rect> 7 3 4 3 </rect></_>
    <_>
      <rect> 10 3 2 3 </rect></_>
    <_>
      <rect> 11 9 1 1 </rect></_>
    <_>
      <rect> 12 3 2 3 </rect></_>
    <_>
      <rect> 14 0 3 4 </rect></_>
    <_>
      <rect> 17 9 1 1 </rect></_>
    <_>
      <rect> 21 6 1 2 </rect></_>
    <_>
      <rect> 6 5 5 2 </rect></_>
    <_>
      <rect> 7 2 5 3 </rect></_>
    <_>
      <rect> 11 2 2 3 </rect></_>
    <_>
      <rect> 17 5 2 2 </rect></_>
    <_>
      <rect> 17 2 2 3 </rect></_>
    <_>
      <rect> 18 8 2 1 </rect></_>
    <_>
      <rect> 18 5 2 2 </rect></_>
    <_>
      <rect> 0 4 2 2 </rect></_>
    <_>
      <rect> 1 7 3 1 </rect></_>
    <_>
      <rect> 2 1 2 3 </rect></_>
    <_>
      <rect> 7 4 1 2 </rect></_>
    <_>
      <rect> 13 4 1 2 </rect></_>
    <_>
      <rect> 13 1 3 3 </rect></_>
    <_>
      <rect> 17 4 2 2 </rect></_>
    <_>
      <rect> 0 3 2 2 </rect></_>
    <_>
      <rect> 0 3 3 2 </rect></_>
    <_>
      <rect> 4 0 2 3 </rect></_>
    <_>
      <rect> 4 0 6 3 </rect></_>
    <_>
      <rect> 6 0 2 3 </rect></_>
    <_>
      <rect> 11 0 4 3 </rect></_>
    <_>
      <rect> 13 0 2 3 </rect></_>
    <_>
      <rect> 17 3 2 2 </rect></_>
    <_>
      <rect> 17 0 2 3 </rect></_>
    <_>
      <rect> 1 2 3 2 </rect></_>
    <_>
      <rect> 3 2 4 2 </rect></_>
    <_>
      <rect> 6 5 1 1 </rect></_>
    <_>
      <rect> 16 2 2 2 </rect></_>
    <_>
      <rect> 1 1 2 2 </rect></_>
    <_>
      <rect> 1 1 5 2 </rect></_>
    <_>
      <rect> 12 1 2 2 </rect></_>
    <_>
      <rect> 0 0 2 2 </rect></_></features></cascade>
</opencv_storage>