<opencv_storage>
<cascade type_id="opencv-cascade-classifier">
  <stageType>BOOST</stageType>
  <featureType>LBP</featureType>
  <height>24</height>
  <width>24</width>
  <stageParams>
    <boostType>GAB</boostType>
    <minHitRate>0.9950000047683716</minHitRate>
    <maxFalseAlarm>0.5000000000000000</maxFalseAlarm>
    <weightTrimRate>0.9500000000000000</weightTrimRate>
    <maxDepth>1</maxDepth>
    <maxWeakCount>100</maxWeakCount></stageParams>
  <featureParams>
    <maxCatCount>256</maxCatCount></featureParams>
  <stageNum>20</stageNum>
  <stages>
    
    <_>
      <maxWeakCount>3</maxWeakCount>
      <stageThreshold>-0.7520892024040222</stageThreshold>
      <weakClassifiers>
        
        <_>
          <internalNodes> 0 -1 46 -24005 587145899 -16385 -21585 -1275125205 -1426120013 -21569 -67130709</internalNodes>
          <leafValues>
            -0.6543210148811340 0.8888888955116272</leafValues></_>
        
        <_>
          <internalNodes> 0 -1 13 -1 -524289 -193593353 -514457854 -262145 -10027009 -769593758 -163512766</internalNodes>
          <leafValues>
            -0.7739216089248657 0.7278633713722229</leafValues></_>
        
        <_>
          <internalNodes> 0 -1 2 -1590337 -741544961 -134217726 1088782736 -136907894 -1337948010 -893203669 -363936790</internalNodes>
          <leafValues>
            -0.7068563103675842 0.6761534214019775</leafValues></_></weakClassifiers></_>
    
    <_>
      <maxWeakCount>4</maxWeakCount>
      <stageThreshold>-0.4872078299522400</stageThreshold>
      <weakClassifiers>
        
        <_>
          <internalNodes> 0 -1 84 2147446655 243204619 1061101567 738132490 2147450879 -536870913 1946124287 2147483647</internalNodes>
          <leafValues>
            -0.8083735704421997 0.7685696482658386</leafValues></_>
        
        <_>
          <internalNodes> 0 -1 21 801111999 -268435457 -134252545 1879048191 254749487 1879048191 263176079 2147483647</internalNodes>
          <leafValues>
            -0.7698410153388977 0.6592915654182434</leafValues></_>
        
        <_>
          <internalNodes> 0 -1 106 -262145 -571026695 -1671954433 -189334372 -850010381 -285484400 1610939566 -98110272</internalNodes>
          <leafValues>
            -0.7506558895111084 0.5444605946540833</leafValues></_>
        
        <_>
          <internalNodes> 0 -1 48 -69206049 -216727745 -1 -65569 -237144073 1095771153 -131075 -798690576</internalNodes>
          <leafValues>
            -0.7775990366935730 0.5465461611747742</leafValues></_></weakClassifiers></_>
    
    <_>
      <maxWeakCount>4</maxWeakCount>
      <stageThreshold>-1.1592328548431396</stageThreshold>
      <weakClassifiers>
        
        <_>
          <internalNodes> 0 -1 47 -134238549 -151016790 -36865 -20561 -738254174 -100818262 -20549 -21585</internalNodes>
          <leafValues>
            -0.5601882934570313 0.7743113040924072</leafValues></_>
        
        <_>
          <internalNodes> 0 -1 12 -402653185 -286785545 1090387966 -402686081 -421330945 -268994614 183435247 -286003217</internalNodes>
          <leafValues>
            -0.6124526262283325 0.6978127956390381</leafValues></_>
        
        <_>
          <internalNodes> 0 -1 26 -172490753 -33619992 -50364513 -134218251 -1253377 -50463492 970882927 -50347012</internalNodes>
          <leafValues>
            -0.6114496588706970 0.6537628173828125</leafValues></_>
        
        <_>
          <internalNodes> 0 -1 8 1095231247 -18910642 2146926575 -134217987 -2088243418 1877977738 -135266321 -273</internalNodes>
          <leafValues>
            -0.6854077577590942 0.5403239130973816</leafValues></_></weakClassifiers></_>
    
    <_>
      <maxWeakCount>5</maxWeakCount>
      <stageThreshold>-0.7562355995178223</stageThreshold>
      <weakClassifiers>
        
        <_>
          <internalNodes> 0 -1 96 -150995969 -250 2004875127 -134250731 -67633153 -20971602 1870659519 -1273</internalNodes>
          <leafValues>
            -0.4051094949245453 0.7584033608436585</leafValues></_>
        
        <_>
          <internalNodes> 0 -1 33 -524289 -2656269 -268959873 1465211989 -257 -4262145 -76810262 -868162224</internalNodes>
          <leafValues>
            -0.7388162612915039 0.5340843200683594</leafValues></_>
        
        <_>
          <internalNodes> 0 -1 57 -72478976 -1153876 -20481 -38993 -152950 -541103378 -49 -12817</internalNodes>
          <leafValues>
            -0.6582943797111511 0.5339496731758118</leafValues></_>
        
        <_>
          <internalNodes> 0 -1 125 -520947741 -488975296 -990117891 -2111 -1594032130 -319816180 -452984961 -269484161</internalNodes>
          <leafValues>
            -0.5981323719024658 0.5323504805564880</leafValues></_>
        
        <_>
          <internalNodes> 0 -1 53 -1 -33570977 1056964607 1998528318 -1075892225 -1342193665 670265215 557787431</internalNodes>
          <leafValues>
            -0.6498787999153137 0.4913350641727448</leafValues></_></weakClassifiers></_>
    
    <_>
      <maxWeakCount>5</maxWeakCount>
      <stageThreshold>-0.8085358142852783</stageThreshold>
      <weakClassifiers>
        
        <_>
          <internalNodes> 0 -1 60 -33554626 -16777260 -168427659 -176687276 -20971521 -16842788 880195381 -536873708</internalNodes>
          <leafValues>
            -0.5278195738792419 0.6946372389793396</leafValues></_>
        
        <_>
          <internalNodes> 0 -1 7 -531118985 -39577 -41945787 -8388827 805330978 -1090591130 -62981529 -1</internalNodes>
          <leafValues>
            -0.5206505060195923 0.6329920291900635</leafValues></_>
        
        <_>
          <internalNodes> 0 -1 98 -1 -1 -167903241 1489881036 -16809993 -852489 1347747543 -725287348</internalNodes>
          <leafValues>
            -0.7516061067581177 0.4232024252414703</leafValues></_>
        
        <_>
          <internalNodes> 0 -1 44 733886267 -1 -1078198273 -8388609 935312171 -65 1006582562 -32777</internalNodes>
          <leafValues>
            -0.7639313936233521 0.4123568832874298</leafValues></_>
        
        <_>
          <internalNodes> 0 -1 24 -194513409 -1013468481 -58796809 1123369029 817625855 -1036436754 2138828511 -85474705</internalNodes>
          <leafValues>
            -0.5123769044876099 0.5791834592819214</leafValues></_></weakClassifiers></_>
    
    <_>
      <maxWeakCount>5</maxWeakCount>
      <stageThreshold>-0.5549971461296082</stageThreshold>
      <weakClassifiers>
        
        <_>
          <internalNodes> 0 -1 42 -21846 -21829 -1 -17473 -134239493 -268457797 -20481 -17409</internalNodes>
          <leafValues>
            -0.3763174116611481 0.7298233509063721</leafValues></_>
        
        <_>
          <internalNodes> 0 -1 6 -268472385 -1090519233 1740574719 2147483519 682502698 -269504725 -2098262358 -805310737</internalNodes>
          <leafValues>
            -0.5352765917778015 0.5659480094909668</leafValues></_>
        
        <_>
          <internalNodes> 0 -1 61 -16849696 -50856216 -1073762305 -20481 -87884584 -8 -6145 -67109678</internalNodes>
          <leafValues>
            -0.5678374171257019 0.4961479902267456</leafValues></_>
        
        <_>
          <internalNodes> 0 -1 123 -1346371657 -1359010520 910098423 -1346685918 -1908670465 -1359008245 1002418167 -138428633</internalNodes>
          <leafValues>
            -0.5706262588500977 0.4572288393974304</leafValues></_>
        
        <_>
          <internalNodes> 0 -1 9 -151796633 33498198 -36190633 1216308261 -1330665426 1256531674 -4196353 -89138513</internalNodes>
          <leafValues>
            -0.5344601869583130 0.4672054052352905</leafValues></_></weakClassifiers></_>
    
    <_>
      <maxWeakCount>5</maxWeakCount>
      <stageThreshold>-0.8776460289955139</stageThreshold>
      <weakClassifiers>
        
        <_>
          <internalNodes> 0 -1 105 -264193 -690225153 -101384321 -789514004 -33554433 -34013449 206601725 1073769576</internalNodes>
          <leafValues>
            -0.7700348496437073 0.5943940877914429</leafValues></_>
        
        <_>
          <internalNodes> 0 -1 30 -1277955 -1078198273 -1342767105 -269484035 -34291724 -49153 -823623681 -1432340997</internalNodes>
          <leafValues>
            -0.5043668746948242 0.6151274442672730</leafValues></_>
        
        <_>
          <internalNodes> 0 -1 35 -1 -1 -129 -50855988 -134217731 -436748425 -195758209 -1067385040</internalNodes>
          <leafValues>
            -0.6808040738105774 0.4667325913906097</leafValues></_>
        
        <_>
          <internalNodes> 0 -1 119 -17367185 -2114244 2105014143 -268468364 -423659521 -26050561 -34111555 832534325</internalNodes>
          <leafValues>
            -0.4927591383457184 0.5401885509490967</leafValues></_>
        
        <_>
          <internalNodes> 0 -1 82 -739516 -2361356 -3 -1140949004 -1114121 2143059967 -1080524865 -1089439888</internalNodes>
          <leafValues>
            -0.6445107460021973 0.4227822124958038</leafValues></_></weakClassifiers></_>
    
    <_>
      <maxWeakCount>6</maxWeakCount>
      <stageThreshold>-1.1139287948608398</stageThreshold>
      <weakClassifiers>
        
        <_>
          <internalNodes> 0 -1 52 582134442 -335548482 -1 -5324817 -1280135430 -1 -1074003969 -1074071553</internalNodes>
          <leafValues>
            -0.5307556986808777 0.6258179545402527</leafValues></_>
        
        <_>
          <internalNodes> 0 -1 99 -35848193 -33628164 -587857963 -570630659 -570495027 -540016724 -705364068 -706937396</internalNodes>
          <leafValues>
            -0.5227634310722351 0.5049746036529541</leafValues></_>
        
        <_>
          <internalNodes> 0 -1 18 -805306449 1954394111 1325432815 261017599 -1671444 -268503053 42119158 -2035630093</internalNodes>
          <leafValues>
            -0.4983572661876679 0.5106441378593445</leafValues></_>
        
        <_>
          <internalNodes> 0 -1 111 -570427929 -34243375 -5113037 -546832487 -170526448 1426018736 -1558073088 -282529488</internalNodes>
          <leafValues>
            -0.4990860521793366 0.5060507059097290</leafValues></_>
        
        <_>
          <internalNodes> 0 -1 92 1067975613 2147318747 -1361600280 -1837027144 -1080086049 915094269 -606301707 1016332500</internalNodes>
          <leafValues>
            -0.5695009231567383 0.4460467398166657</leafValues></_>
        
        <_>
          <internalNodes> 0 -1 51 -1326199134 -79823438 -787556946 1505950458 -603435836 -141599534 -15413034 -656420166</internalNodes>
          <leafValues>
            -0.6590405106544495 0.3616424500942230</leafValues></_></weakClassifiers></_>
    
    <_>
      <maxWeakCount>7</maxWeakCount>
      <stageThreshold>-0.8243625760078430</stageThreshold>
      <weakClassifiers>
        
        <_>
          <internalNodes> 0 -1 28 -1 -41943178 -524289 -143312112 -67371009 -262 -201916417 -901591776</internalNodes>
          <leafValues>
            -0.4972776770591736 0.6027074456214905</leafValues></_>
        
        <_>
          <internalNodes> 0 -1 112 -29377 -71344315 -32901 -17350859 -67502145 -268437513 -411340929 -4507851</internalNodes>
          <leafValues>
            -0.4383158981800079 0.5966237187385559</leafValues></_>
        
        <_>
          <internalNodes> 0 -1 69 801906927 2123118847 2076233213 1485072126 -12538500 -239063587 -117379438 -75894785</internalNodes>
          <leafValues>
            -0.6386105418205261 0.3977999985218048</leafValues></_>
        
        <_>
          <internalNodes> 0 -1 19 -455082829 -696268833 1315930109 242165211 -1364262914 -16876049 786628589 -823480413</internalNodes>
          <leafValues>
            -0.5512794256210327 0.4282079637050629</leafValues></_>
        
        <_>
          <internalNodes> 0 -1 73 -1041235973 -143132877 57669627 -185612509 -2038436114 -1396236286 6746762 -521411968</internalNodes>
          <leafValues>
            -0.6418755054473877 0.3549866080284119</leafValues></_>
        
        <_>
          <internalNodes> 0 -1 126 -1058802061 1442574528 -339771473 -557859073 1365298272 -1645895615 1076028979 -478153869</internalNodes>
          <leafValues>
            -0.4841901361942291 0.4668019413948059</leafValues></_>
        
        <_>
          <internalNodes> 0 -1 45 -4481349 1476263935 -2787397 1467604861 -788400696 -1610612745 -1650402048 -246350404</internalNodes>
          <leafValues>
            -0.5855734348297119 0.3879135847091675</leafValues></_></weakClassifiers></_>
    
    <_>
      <maxWeakCount>7</maxWeakCount>
      <stageThreshold>-1.2237116098403931</stageThreshold>
      <weakClassifiers>
        
        <_>
          <internalNodes> 0 -1 114 -34865205 -268608444 1433927541 2146778388 -67108865 -16809993 1572863935 -24819</internalNodes>
          <leafValues>
            -0.2518476545810700 0.7088654041290283</leafValues></_>
        
        <_>
          <internalNodes> 0 -1 97 -33603327 -8231 -2185 -1116675 -5767369 -32769 -134271049 -1841359</internalNodes>
          <leafValues>
            -0.4303432404994965 0.5283288359642029</leafValues></_>
        
        <_>
          <internalNodes> 0 -1 25 -134758978 -41959433 1744707583 -809512977 -269553812 -1073778729 -1360593090 -1359507589</internalNodes>
          <leafValues>
            -0.4259553551673889 0.5440809130668640</leafValues></_>
        
        <_>
          <internalNodes> 0 -1 34 -16385 -1140900929 2147467263 658456383 -235200777 -1140907329 -134270989 729753407</internalNodes>
          <leafValues>
            -0.5605589151382446 0.4220733344554901</leafValues></_>
        
        <_>
          <internalNodes> 0 -1 134 -420544526 887604324 -990380036 1205338070 -353568129 -193005472 -420675595 -310380553</internalNodes>
          <leafValues>
            -0.5192656517028809 0.4399855434894562</leafValues></_>
        
        <_>
          <internalNodes> 0 -1 16 -671660453 -707510259 -540578051 114759245 -487068946 -287119734 1978920959 -1427119361</internalNodes>
          <leafValues>
            -0.5013077259063721 0.4570254683494568</leafValues></_>
        
        <_>
          <internalNodes> 0 -1 74 -263185 2146417353 -1863576559 -1142658284 -121832450 -328301948 -889949281 -738463762</internalNodes>
          <leafValues>
            -0.4631414115428925 0.4790246188640595</leafValues></_></weakClassifiers></_>
    
    <_>
      <maxWeakCount>7</maxWeakCount>
      <stageThreshold>-0.5544230937957764</stageThreshold>
      <weakClassifiers>
        
        <_>
          <internalNodes> 0 -1 113 -272842924 -221796 -33 -148007 -67174401 -1 -65538 -76228780</internalNodes>
          <leafValues>
            -0.3949716091156006 0.6082032322883606</leafValues></_>
        
        <_>
          <internalNodes> 0 -1 110 -4456483 799948719 -1212613127 790708019 -1189900 2138570036 -1625232112 369147696</internalNodes>
          <leafValues>
            -0.4855885505676270 0.4785369932651520</leafValues></_>
        
        <_>
          <internalNodes> 0 -1 37 -268456129 -176769 -838864897 -1342414991 -402984963 536832799 -290015241 784215839</internalNodes>
          <leafValues>
            -0.4620285332202911 0.4989669024944305</leafValues></_>
        
        <_>
          <internalNodes> 0 -1 41 -585322623 -73096060 -772751172 -519766032 -21938 -340294900 -171915327 -486418688</internalNodes>
          <leafValues>
            -0.6420643329620361 0.3624351918697357</leafValues></_>
        
        <_>
          <internalNodes> 0 -1 117 -1071915349 -219032928 -2080505925 -4849669 -2077230421 -1423463824 -475332625 -33554953</internalNodes>
          <leafValues>
            -0.4820112884044647 0.4632140696048737</leafValues></_>
        
        <_>
          <internalNodes> 0 -1 65 -1979118423 -1386890321 -1449131844 -619913764 -1073803559 -1349314083 -134217476 -834130468</internalNodes>
          <leafValues>
            -0.4465552568435669 0.5061788558959961</leafValues></_>
        
        <_>
          <internalNodes> 0 -1 56 -1464078708 -268439634 -1342177297 -1161904146 -1731022870 -16530 1912569855 -285249779</internalNodes>
          <leafValues>
            -0.5190586447715759 0.4441480338573456</leafValues></_></weakClassifiers></_>
    
    <_>
      <maxWeakCount>7</maxWeakCount>
      <stageThreshold>-0.7161560654640198</stageThreshold>
      <weakClassifiers>
        
        <_>
          <internalNodes> 0 -1 20 1195769615 -1210581153 -43646987 -277348353 60102 -10027057 1078001186 1246232575</internalNodes>
          <leafValues>
            -0.4323809444904327 0.5663768053054810</leafValues></_>
        
        <_>
          <internalNodes> 0 -1 15 -12103599 -1986687009 -1164766570 -1946580497 -4036478 -578775890 -612921106 -778583572</internalNodes>
          <leafValues>
            -0.4588732719421387 0.4547033011913300</leafValues></_>
        
        <_>
          <internalNodes> 0 -1 129 -1077936257 -1356133589 868185983 -1414286549 -1082459201 -1363169553 2013231743 -1073759445</internalNodes>
          <leafValues>
            -0.5218553543090820 0.4111092388629913</leafValues></_>
        
        <_>
          <internalNodes> 0 -1 102 -776734797 -1309195902 -1342177350 -67121221 564290299 -1204850272 -2093417722 -84148365</internalNodes>
          <leafValues>
            -0.4920000731945038 0.4326725304126740</leafValues></_>
        
        <_>
          <internalNodes> 0 -1 88 -234882162 -144191964 1702788383 2083877442 -168563037 -290216278 67104495 -25694458</internalNodes>
          <leafValues>
            -0.4494568109512329 0.4448510706424713</leafValues></_>
        
        <_>
          <internalNodes> 0 -1 59 -4579409 -357380888 -574825221 1550862252 232279415 -1612267521 904682741 -857980836</internalNodes>
          <leafValues>
            -0.5180826783180237 0.3888972699642181</leafValues></_>
        
        <_>
          <internalNodes> 0 -1 27 2137216273 -620603549 -1196072350 939541351 -246013630 494928389 -137838400 -98549440</internalNodes>
          <leafValues>
            -0.6081240773200989 0.3333222270011902</leafValues></_></weakClassifiers></_>
    
    <_>
      <maxWeakCount>8</maxWeakCount>
      <stageThreshold>-0.6743940711021423</stageThreshold>
      <weakClassifiers>
        
        <_>
          <internalNodes> 0 -1 29 -268369925 1147328110 914128709 -1059008937 536934335 -1302151626 2071191945 -150995201</internalNodes>
          <leafValues>
            -0.1790193915367127 0.6605972051620483</leafValues></_>
        
        <_>
          <internalNodes> 0 -1 128 -136319041 -333558568 1577058173 -1107833788 1861484541 -1342177289 1610575703 -134509479</internalNodes>
          <leafValues>
            -0.3681024610996246 0.5139749646186829</leafValues></_>
        
        <_>
          <internalNodes> 0 -1 70 -321 -839568424 779616255 -539492875 -630918524 -1090984524 1060154476 -1</internalNodes>
          <leafValues>
            -0.3217232525348663 0.6171553134918213</leafValues></_>
        
        <_>
          <internalNodes> 0 -1 4 -966276889 1344390399 1275504943 235286671 -17923776 -791084350 -285029906 -269562385</internalNodes>
          <leafValues>
            -0.4373284578323364 0.4358185231685638</leafValues></_>
        
        <_>
          <internalNodes> 0 -1 76 -1155858277 872217086 -1684005538 575672208 1474759671 595427229 -747628419 17825984</internalNodes>
          <leafValues>
            -0.4404836893081665 0.4601220190525055</leafValues></_>
        
        <_>
          <internalNodes> 0 -1 124 -1015285005 -1057132384 -1997537409 -470820869 -355795238 -822231622 1873735591 -336593039</internalNodes>
          <leafValues>
            -0.4294152259826660 0.4452161788940430</leafValues></_>
        
        <_>
          <internalNodes> 0 -1 54 -79249765 -1615106053 -302125121 -951029539 -364892500 -322142257 -593694721 -834212130</internalNodes>
          <leafValues>
            -0.3973052501678467 0.4854526817798615</leafValues></_>
        
        <_>
          <internalNodes> 0 -1 95 536827383 1988052447 -1 -855685912 -47873 -33554561 2147431935 1342144479</internalNodes>
          <leafValues>
            -0.7054683566093445 0.2697997391223908</leafValues></_></weakClassifiers></_>
    
    <_>
      <maxWeakCount>9</maxWeakCount>
      <stageThreshold>-1.2042298316955566</stageThreshold>
      <weakClassifiers>
        
        <_>
          <internalNodes> 0 -1 39 -513 -2097193 -84611081 1560590321 -137497097 -537002499 -183437936 1431368960</internalNodes>
          <leafValues>
            -0.5905947685241699 0.5101932883262634</leafValues></_>
        
        <_>
          <internalNodes> 0 -1 120 -21004417 -33780003 -42483883 -8567536 1458995007 2130706431 2105491231 -1645259691</internalNodes>
          <leafValues>
            -0.4449204802513123 0.4490709304809570</leafValues></_>
        
        <_>
          <internalNodes> 0 -1 89 -134221825 -12600561 1920431639 275854917 -452985106 -362027516 -505806938 -612381022</internalNodes>
          <leafValues>
            -0.4693818688392639 0.4061094820499420</leafValues></_>
        
        <_>
          <internalNodes> 0 -1 14 -150997129 -33604275 2000682871 -16779441 -530519488 -554172679 -161 -805573153</internalNodes>
          <leafValues>
            -0.3600351214408875 0.5056326985359192</leafValues></_>
        
        <_>
          <internalNodes> 0 -1 67 -71365637 -1083162625 -4755729 -1608493775 2046691505 1467449341 435166195 6192</internalNodes>
          <leafValues>
            -0.4459891915321350 0.4132415652275085</leafValues></_>
        
        <_>
          <internalNodes> 0 -1 86 -825311232 -1088293113 -270209208 -415924289 -420712635 1853357967 -3281034 -41689215</internalNodes>
          <leafValues>
            -0.4466069042682648 0.4135067760944367</leafValues></_>
        
        <_>
          <internalNodes> 0 -1 80 -1073796897 -1091125345 -356831940 -542008165 -188709 2080374461 -42203396 -117391116</internalNodes>
          <leafValues>
            -0.3394956290721893 0.5658645033836365</leafValues></_>
        
        <_>
          <internalNodes> 0 -1 75 170896931 -415761549 -282199241 1073740607 757272098 -1342181951 1378714472 -276830049</internalNodes>
          <leafValues>
            -0.5346512198448181 0.3584479391574860</leafValues></_>
        
        <_>
          <internalNodes> 0 -1 55 -391188771 -806359809 -16385 -1107432194 -217530421 2113667055 -123166849 -796075825</internalNodes>
          <leafValues>
            -0.4379335641860962 0.4123645126819611</leafValues></_></weakClassifiers></_>
    
    <_>
      <maxWeakCount>10</maxWeakCount>
      <stageThreshold>-0.8402050137519836</stageThreshold>
      <weakClassifiers>
        
        <_>
          <internalNodes> 0 -1 71 -469829921 -68159890 -1291847681 -1212319899 47116238 -487690486 15525883 -890246622</internalNodes>
          <leafValues>
            -0.2670986354351044 0.6014143228530884</leafValues></_>
        
        <_>
          <internalNodes> 0 -1 31 -262145 2147221487 -840443905 -1074016265 -285410071 -1090588811 -1898008841 -1361180685</internalNodes>
          <leafValues>
            -0.4149844348430634 0.4670888185501099</leafValues></_>
        
        <_>
          <internalNodes> 0 -1 40 -65 -41960001 -21563393 -508232452 -142607505 2142731795 1899364271 1426190596</internalNodes>
          <leafValues>
            -0.4985891580581665 0.3719584941864014</leafValues></_>
        
        <_>
          <internalNodes> 0 -1 109 -190058309 921907633 -15204415 1974565825 -746195597 -236498096 10543906 -201337965</internalNodes>
          <leafValues>
            -0.4568729996681213 0.3965812027454376</leafValues></_>
        
        <_>
          <internalNodes> 0 -1 130 -2004088646 -358810952 -133131 -440600392 -571490699 -268649235 -656401928 -595026732</internalNodes>
          <leafValues>
            -0.4770836830139160 0.3862601518630981</leafValues></_>
        
        <_>
          <internalNodes> 0 -1 66 733546933 -609108546 -1556612430 -1360463693 -67691015 1332789109 -1107882114 941674740</internalNodes>
          <leafValues>
            -0.4877715110778809 0.3778986334800720</leafValues></_>
        
        <_>
          <internalNodes> 0 -1 49 -99042357 -532635478 -1308544889 -932393844 -82775604 1552871558 -240061474 -17114945</internalNodes>
          <leafValues>
            -0.3721654713153839 0.4994400143623352</leafValues></_>
        
        <_>
          <internalNodes> 0 -1 133 -286264385 -1928559445 559417357 -498859222 1884929228 -939205164 1405502603 -655906006</internalNodes>
          <leafValues>
            -0.3934195041656494 0.4769641458988190</leafValues></_>
        
        <_>
          <internalNodes> 0 -1 0 -671232197 2013265917 251612987 931096183 -1946186226 -90 1860677295 -335837777</internalNodes>
          <leafValues>
            -0.4323300719261169 0.4342164099216461</leafValues></_>
        
        <_>
          <internalNodes> 0 -1 103 1069089930 807009019 -1644484728 -536176194 2002666345 374692301 -137772680 37769424</internalNodes>
          <leafValues>
            -0.4993278682231903 0.3665378093719482</leafValues></_></weakClassifiers></_>
    
    <_>
      <maxWeakCount>9</maxWeakCount>
      <stageThreshold>-1.1974394321441650</stageThreshold>
      <weakClassifiers>
        
        <_>
          <internalNodes> 0 -1 43 -71333206 -201348440 -257 -16450 -4511070 2143265466 2147462911 -5505</internalNodes>
          <leafValues>
            -0.3310225307941437 0.5624626278877258</leafValues></_>
        
        <_>
          <internalNodes> 0 -1 90 -134892563 -1147864792 -788524639 -641665744 -87107126 2015250980 -499330741 -136842268</internalNodes>
          <leafValues>
            -0.5266560912132263 0.3704403042793274</leafValues></_>
        
        <_>
          <internalNodes> 0 -1 104 -839131947 -1646463595 -1946681885 -16777551 -140904684 2111170033 -1780368555 -146800880</internalNodes>
          <leafValues>
            -0.4171888828277588 0.4540435671806335</leafValues></_>
        
        <_>
          <internalNodes> 0 -1 85 -69206017 -33555201 -1997406723 -932319000 -578814081 -301990281 -981663763 -832054034</internalNodes>
          <leafValues>
            -0.4556705355644226 0.3704262077808380</leafValues></_>
        
        <_>
          <internalNodes> 0 -1 24 -139469193 1378887291 -297319313 1112948738 -1334313353 1119023838 -1209026825 -118492417</internalNodes>
          <leafValues>
            -0.4182529747486115 0.4267231225967407</leafValues></_>
        
        <_>
          <internalNodes> 0 -1 78 -1074972227 -342315012 -1718550464 -1567058760 -549613092 -112094959 -2353704 -1714382628</internalNodes>
          <leafValues>
            -0.3625369668006897 0.4684656262397766</leafValues></_>
        
        <_>
          <internalNodes> 0 -1 5 -88607770 -621461759 -260901769 2117267315 1904970288 -33279 316836394 -85219702</internalNodes>
          <leafValues>
            -0.4742925167083740 0.3689507246017456</leafValues></_>
        
        <_>
          <internalNodes> 0 -1 11 -152044037 -143132713 1145569279 -2080899877 -50331921 -1641159686 -353603585 -294654041</internalNodes>
          <leafValues>
            -0.3666271567344666 0.4580127298831940</leafValues></_>
        
        <_>
          <internalNodes> 0 -1 32 1060190561 -583338277 -661345416 -1071067983 -34320972 -1877976819 -638545712 1887453658</internalNodes>
          <leafValues>
            -0.4567637443542481 0.3894708156585693</leafValues></_></weakClassifiers></_>
    
    <_>
      <maxWeakCount>9</maxWeakCount>
      <stageThreshold>-0.5733128190040588</stageThreshold>
      <weakClassifiers>
        
        <_>
          <internalNodes> 0 -1 122 -134744129 -121679694 1165490103 1102566613 -319881377 -318837116 1088745462 -994063296</internalNodes>
          <leafValues>
            -0.4055117964744568 0.5487945079803467</leafValues></_>
        
        <_>
          <internalNodes> 0 -1 68 -1561401854 -20505 -20593 -529 -369234005 1811935199 -538992907 -285233233</internalNodes>
          <leafValues>
            -0.3787897229194641 0.4532003402709961</leafValues></_>
        
        <_>
          <internalNodes> 0 -1 58 1000020667 457026619 -570908176 -1226071367 536816369 1940861695 1968917183 -1335245632</internalNodes>
          <leafValues>
            -0.4258328974246979 0.4202791750431061</leafValues></_>
        
        <_>
          <internalNodes> 0 -1 94 -17840167 -269304244 -805306691 -608879292 -18646473 -50435249 -1979797897 -1360318719</internalNodes>
          <leafValues>
            -0.4561023116111755 0.4002747833728790</leafValues></_>
        
        <_>
          <internalNodes> 0 -1 87 -570464322 -772846337 -1090552065 45764335 -16406 -1275080721 -16449 2062765935</internalNodes>
          <leafValues>
            -0.4314672648906708 0.4086346626281738</leafValues></_>
        
        <_>
          <internalNodes> 0 -1 127 -990381609 1993822934 1290855887 -2082767969 -965478709 -738234288 1080817663 -536896021</internalNodes>
          <leafValues>
            -0.4174543321132660 0.4249868988990784</leafValues></_>
        
        <_>
          <internalNodes> 0 -1 3 1473768907 1086506807 621166734 669224671 -79249354 -293610428 168730891 -818943025</internalNodes>
          <leafValues>
            -0.4321364760398865 0.4090838730335236</leafValues></_>
        
        <_>
          <internalNodes> 0 -1 79 1043203389 -1081990469 -1180610531 -619843344 -841676168 -1414315879 -67107736 -68895696</internalNodes>
          <leafValues>
            -0.5018386244773865 0.3702533841133118</leafValues></_>
        
        <_>
          <internalNodes> 0 -1 116 -2140472445 -1096024366 -1195787391 -115617074 -1437445858 -2124882422 -543485719 -54002134</internalNodes>
          <leafValues>
            -0.5037505626678467 0.3564981222152710</leafValues></_></weakClassifiers></_>
    
    <_>
      <maxWeakCount>9</maxWeakCount>
      <stageThreshold>-0.4892596900463104</stageThreshold>
      <weakClassifiers>
        
        <_>
          <internalNodes> 0 -1 132 1937223539 -273154752 2002237273 -2752 846461923 1862135111 2003808111 -67113211</internalNodes>
          <leafValues>
            -0.2448196411132813 0.5689709186553955</leafValues></_>
        
        <_>
          <internalNodes> 0 -1 62 -1432827684 -892540499 -1650810108 -1289358360 -539167899 -611839555 -78064940 1179423888</internalNodes>
          <leafValues>
            -0.4633283913135529 0.3587929606437683</leafValues></_>
        
        <_>
          <internalNodes> 0 -1 23 -135796924 -547662981 -1334349961 -27787425 -264050110 -656212031 -78450761 -285212705</internalNodes>
          <leafValues>
            -0.3731099069118500 0.4290455579757690</leafValues></_>
        
        <_>
          <internalNodes> 0 -1 77 -1153717473 -1388580949 951127993 -1080690735 1600194541 -550588417 403702016 341863476</internalNodes>
          <leafValues>
            -0.3658909499645233 0.4556473195552826</leafValues></_>
        
        <_>
          <internalNodes> 0 -1 22 -75806957 457203315 705692513 -1191150794 -39319550 -100644596 -204831512 -586880702</internalNodes>
          <leafValues>
            -0.5214384198188782 0.3221037387847900</leafValues></_>
        
        <_>
          <internalNodes> 0 -1 72 -204474641 -183369982 139424 -264113598 -775559454 -673716192 545911370 -416546870</internalNodes>
          <leafValues>
            -0.4289036989212036 0.4004956185817719</leafValues></_>
        
        <_>
          <internalNodes> 0 -1 50 -633909413 -1109853489 -60710713 1348491006 -1563770497 -1740499937 -589692154 -1026505020</internalNodes>
          <leafValues>
            -0.4621542394161224 0.3832748532295227</leafValues></_>
        
        <_>
          <internalNodes> 0 -1 108 -1415842113 -805306693 -1612057181 -1789923416 -772418127 -1778390608 -477895040 -1448872304</internalNodes>
          <leafValues>
            -0.3711548447608948 0.4612701535224915</leafValues></_>
        
        <_>
          <internalNodes> 0 -1 92 1057955850 1871559083 -74633006 -285103725 -1294472 52654751 -582449988 407905424</internalNodes>
          <leafValues>
            -0.5180652141571045 0.3205870389938355</leafValues></_></weakClassifiers></_>
    
    <_>
      <maxWeakCount>10</maxWeakCount>
      <stageThreshold>-0.5911940932273865</stageThreshold>
      <weakClassifiers>
        
        <_>
          <internalNodes> 0 -1 81 -1074263896 -90653988 -74153752 1838164148 -100902460 -846671428 -1259563825 4112</internalNodes>
          <leafValues>
            -0.2592592537403107 0.5873016119003296</leafValues></_>
        
        <_>
          <internalNodes> 0 -1 1 -2097169 2097133565 1157103471 1207959293 -1081346 -1085589 -823206977 -285216785</internalNodes>
          <leafValues>
            -0.3801195919513702 0.4718827307224274</leafValues></_>
        
        <_>
          <internalNodes> 0 -1 121 -1392509185 -318782328 -866124467 -37765492 2130706303 2147478367 -536875169 -12465</internalNodes>
          <leafValues>
            -0.3509117066860199 0.5094807147979736</leafValues></_>
        
        <_>
          <internalNodes> 0 -1 38 -67663041 -8406341 -1 -16710 1945873146 -16794757 -20741 2147449663</internalNodes>
          <leafValues>
            -0.4068757295608521 0.4130136370658875</leafValues></_>
        
        <_>
          <internalNodes> 0 -1 17 -261884429 1354229504 -447742449 -479201468 548272812 1651407483 866117231 -155191713</internalNodes>
          <leafValues>
            -0.4557141065597534 0.3539792001247406</leafValues></_>
        
        <_>
          <internalNodes> 0 -1 100 -213909521 -11274182 1393643841 -1287261695 -792341777 -492783986 -251682065 -225319378</internalNodes>
          <leafValues>
            -0.4117803275585175 0.4118592441082001</leafValues></_>
        
        <_>
          <internalNodes> 0 -1 63 -1042557441 -2066104743 -2135301457 -923011069 -371201558 -51404800 -2002072729 -382220122</internalNodes>
          <leafValues>
            -0.4008397758007050 0.4034757018089294</leafValues></_>
        
        <_>
          <internalNodes> 0 -1 101 -1061107126 -638126888 -1435893445 -105268268 -436258614 1581203952 -48295149 -627353764</internalNodes>
          <leafValues>
            -0.5694189667701721 0.2964762747287750</leafValues></_>
        
        <_>
          <internalNodes> 0 -1 118 -1648362021 -994397789 -574619739 -12582915 -251003468 -621022752 1058107691 -8399181</internalNodes>
          <leafValues>
            -0.3195341229438782 0.5294018983840942</leafValues></_>
        
        <_>
          <internalNodes> 0 -1 92 -1076950384 -457572354 -4883137 -1783841602 364735981 1717960437 -1078389516 -348343812</internalNodes>
          <leafValues>
            -0.3365339040756226 0.5067458748817444</leafValues></_></weakClassifiers></_>
    
    <_>
      <maxWeakCount>10</maxWeakCount>
      <stageThreshold>-0.7612916231155396</stageThreshold>
      <weakClassifiers>
        
        <_>
          <internalNodes> 0 -1 10 -1077438561 1435470000 -453637880 43591089 -782068 -1659497122 -287957604 -1976661318</internalNodes>
          <leafValues>
            -0.4204545319080353 0.5165745615959168</leafValues></_>
        
        <_>
          <internalNodes> 0 -1 131 -789579837 1473503712 -2067933195 2046713291 -1338923040 -142633168 14874979 -67110925</internalNodes>
          <leafValues>
            -0.3762553930282593 0.4075302779674530</leafValues></_>
        
        <_>
          <internalNodes> 0 -1 83 -355523038 -538971154 -1073813756 -1052289 -305156120 -1118685 -1577073 -272814301</internalNodes>
          <leafValues>
            -0.4253497421741486 0.3728055357933044</leafValues></_>
        
        <_>
          <internalNodes> 0 -1 135 -203424005 -973738098 1994225489 -159390971 573747007 -538514758 -214486242 -2233</internalNodes>
          <leafValues>
            -0.3601998090744019 0.4563256204128265</leafValues></_>
        
        <_>
          <internalNodes> 0 -1 115 683139823 -1529767778 -1196149518 -1306461192 1029570301 -641860609 -1330369299 -261031688</internalNodes>
          <leafValues>
            -0.4034293889999390 0.4160816967487335</leafValues></_>
        
        <_>
          <internalNodes> 0 -1 64 -1279457063 -1920939864 -19869715 -1433365268 -111109 -417865 -34042628 -572993608</internalNodes>
          <leafValues>
            -0.3620899617671967 0.4594142735004425</leafValues></_>
        
        <_>
          <internalNodes> 0 -1 36 -16580645 -799868165 -430780849 2016559730 805366393 1651946018 -615256993 -626275097</internalNodes>
          <leafValues>
            -0.3903816640377045 0.4381459355354309</leafValues></_>
        
        <_>
          <internalNodes> 0 -1 93 -1108399474 -1153521668 -1194637077 -1851873892 -1342502178 1976418270 -1090957603 1354797300</internalNodes>
          <leafValues>
            -0.3591445386409760 0.4624078869819641</leafValues></_>
        
        <_>
          <internalNodes> 0 -1 91 -1145357350 648167355 -275513546 798797750 1063017136 -304759523 1211368313 68157712</internalNodes>
          <leafValues>
            -0.4297670423984528 0.4023293554782867</leafValues></_>
        
        <_>
          <internalNodes> 0 -1 107 -1058473386 -380446736 -1325465645 -545456389 -537002306 -163577944 -1628569602 -546318240</internalNodes>
          <leafValues>
            -0.5727006793022156 0.2995934784412384</leafValues></_></weakClassifiers></_></stages>
  <features>
    <_>
      <rect> 21 19 3 5 </rect></_>
    <_>
      <rect> 20 22 4 2 </rect></_>
    <_>
      <rect> 18 21 6 3 </rect></_>
    <_>
      <rect> 22 20 2 3 </rect></_>
    <_>
      <rect> 21 20 3 3 </rect></_>
    <_>
      <rect> 21 16 3 7 </rect></_>
    <_>
      <rect> 21 17 3 3 </rect></_>
    <_>
      <rect> 21 9 3 4 </rect></_>
    <_>
      <rect> 16 8 8 4 </rect></_>
    <_>
      <rect> 20 7 4 3 </rect></_>
    <_>
      <rect> 18 21 5 3 </rect></_>
    <_>
      <rect> 21 21 2 2 </rect></_>
    <_>
      <rect> 20 20 3 1 </rect></_>
    <_>
      <rect> 19 13 4 4 </rect></_>
    <_>
      <rect> 21 10 2 2 </rect></_>
    <_>
      <rect> 19 10 4 1 </rect></_>
    <_>
      <rect> 19 7 4 3 </rect></_>
    <_>
      <rect> 20 5 3 2 </rect></_>
    <_>
      <rect> 20 21 2 3 </rect></_>
    <_>
      <rect> 20 21 2 2 </rect></_>
    <_>
      <rect> 18 16 4 6 </rect></_>
    <_>
      <rect> 18 17 4 4 </rect></_>
    <_>
      <rect> 20 16 2 1 </rect></_>
    <_>
      <rect> 20 10 2 3 </rect></_>
    <_>
      <rect> 19 5 3 2 </rect></_>
    <_>
      <rect> 19 22 2 2 </rect></_>
    <_>
      <rect> 14 20 7 3 </rect></_>
    <_>
      <rect> 19 16 2 1 </rect></_>
    <_>
      <rect> 19 13 2 4 </rect></_>
    <_>
      <rect> 19 4 2 2 </rect></_>
    <_>
      <rect> 18 21 2 3 </rect></_>
    <_>
      <rect> 18 20 2 1 </rect></_>
    <_>
      <rect> 18 17 2 1 </rect></_>
    <_>
      <rect> 18 13 2 5 </rect></_>
    <_>
      <rect> 15 15 5 2 </rect></_>
    <_>
      <rect> 16 13 4 3 </rect></_>
    <_>
      <rect> 18 4 2 2 </rect></_>
    <_>
      <rect> 17 22 2 2 </rect></_>
    <_>
      <rect> 15 17 4 4 </rect></_>
    <_>
      <rect> 17 13 2 5 </rect></_>
    <_>
      <rect> 17 13 2 2 </rect></_>
    <_>
      <rect> 17 12 2 2 </rect></_>
    <_>
      <rect> 14 17 4 4 </rect></_>
    <_>
      <rect> 14 17 4 3 </rect></_>
    <_>
      <rect> 16 16 2 3 </rect></_>
    <_>
      <rect> 16 14 2 5 </rect></_>
    <_>
      <rect> 14 16 4 3 </rect></_>
    <_>
      <rect> 14 16 4 2 </rect></_>
    <_>
      <rect> 14 14 4 4 </rect></_>
    <_>
      <rect> 17 4 1 2 </rect></_>
    <_>
      <rect> 16 2 2 1 </rect></_>
    <_>
      <rect> 14 17 3 7 </rect></_>
    <_>
      <rect> 15 17 2 3 </rect></_>
    <_>
      <rect> 12 14 5 1 </rect></_>
    <_>
      <rect> 15 2 2 1 </rect></_>
    <_>
      <rect> 15 20 1 4 </rect></_>
    <_>
      <rect> 14 17 2 2 </rect></_>
    <_>
      <rect> 13 17 3 2 </rect></_>
    <_>
      <rect> 13 6 3 1 </rect></_>
    <_>
      <rect> 15 4 1 2 </rect></_>
    <_>
      <rect> 10 21 5 3 </rect></_>
    <_>
      <rect> 13 16 2 6 </rect></_>
    <_>
      <rect> 14 18 1 1 </rect></_>
    <_>
      <rect> 14 12 1 1 </rect></_>
    <_>
      <rect> 14 7 1 1 </rect></_>
    <_>
      <rect> 13 7 2 1 </rect></_>
    <_>
      <rect> 14 6 1 1 </rect></_>
    <_>
      <rect> 14 5 1 1 </rect></_>
    <_>
      <rect> 13 17 1 2 </rect></_>
    <_>
      <rect> 11 16 3 3 </rect></_>
    <_>
      <rect> 13 12 1 5 </rect></_>
    <_>
      <rect> 13 15 1 1 </rect></_>
    <_>
      <rect> 13 14 1 1 </rect></_>
    <_>
      <rect> 13 13 1 1 </rect></_>
    <_>
      <rect> 13 12 1 2 </rect></_>
    <_>
      <rect> 11 7 3 3 </rect></_>
    <_>
      <rect> 13 8 1 1 </rect></_>
    <_>
      <rect> 12 8 2 1 </rect></_>
    <_>
      <rect> 13 7 1 1 </rect></_>
    <_>
      <rect> 12 7 2 1 </rect></_>
    <_>
      <rect> 13 6 1 1 </rect></_>
    <_>
      <rect> 13 2 1 1 </rect></_>
    <_>
      <rect> 11 19 2 2 </rect></_>
    <_>
      <rect> 12 17 1 2 </rect></_>
    <_>
      <rect> 10 16 3 3 </rect></_>
    <_>
      <rect> 9 13 4 6 </rect></_>
    <_>
      <rect> 12 17 1 1 </rect></_>
    <_>
      <rect> 11 15 2 2 </rect></_>
    <_>
      <rect> 12 14 1 2 </rect></_>
    <_>
      <rect> 12 13 1 1 </rect></_>
    <_>
      <rect> 12 12 1 2 </rect></_>
    <_>
      <rect> 12 8 1 1 </rect></_>
    <_>
      <rect> 12 6 1 1 </rect></_>
    <_>
      <rect> 12 5 1 1 </rect></_>
    <_>
      <rect> 10 22 2 2 </rect></_>
    <_>
      <rect> 10 18 2 5 </rect></_>
    <_>
      <rect> 8 21 4 1 </rect></_>
    <_>
      <rect> 11 18 1 3 </rect></_>
    <_>
      <rect> 9 13 3 4 </rect></_>
    <_>
      <rect> 9 12 3 2 </rect></_>
    <_>
      <rect> 11 12 1 1 </rect></_>
    <_>
      <rect> 9 10 3 2 </rect></_>
    <_>
      <rect> 8 7 4 3 </rect></_>
    <_>
      <rect> 11 6 1 1 </rect></_>
    <_>
      <rect> 10 2 2 1 </rect></_>
    <_>
      <rect> 9 13 2 5 </rect></_>
    <_>
      <rect> 8 12 3 5 </rect></_>
    <_>
      <rect> 8 11 3 2 </rect></_>
    <_>
      <rect> 9 5 2 2 </rect></_>
    <_>
      <rect> 8 5 3 2 </rect></_>
    <_>
      <rect> 10 4 1 2 </rect></_>
    <_>
      <rect> 9 4 2 2 </rect></_>
    <_>
      <rect> 8 22 2 2 </rect></_>
    <_>
      <rect> 9 20 1 3 </rect></_>
    <_>
      <rect> 7 20 3 2 </rect></_>
    <_>
      <rect> 8 16 2 1 </rect></_>
    <_>
      <rect> 8 10 2 1 </rect></_>
    <_>
      <rect> 7 8 3 3 </rect></_>
    <_>
      <rect> 8 5 2 2 </rect></_>
    <_>
      <rect> 7 22 2 2 </rect></_>
    <_>
      <rect> 7 21 2 3 </rect></_>
    <_>
      <rect> 6 18 3 2 </rect></_>
    <_>
      <rect> 6 14 3 6 </rect></_>
    <_>
      <rect> 6 16 3 2 </rect></_>
    <_>
      <rect> 6 9 3 4 </rect></_>
    <_>
      <rect> 6 9 3 2 </rect></_>
    <_>
      <rect> 7 5 2 2 </rect></_>
    <_>
      <rect> 6 5 3 2 </rect></_>
    <_>
      <rect> 6 20 2 3 </rect></_>
    <_>
      <rect> 6 17 2 4 </rect></_>
    <_>
      <rect> 7 17 1 1 </rect></_>
    <_>
      <rect> 6 6 2 2 </rect></_>
    <_>
      <rect> 5 21 2 2 </rect></_>
    <_>
      <rect> 5 18 2 5 </rect></_>
    <_>
      <rect> 5 10 2 2 </rect></_>
    <_>
      <rect> 4 22 2 2 </rect></_></features></cascade>
</opencv_storage>