<?xml version="1.0" encoding="utf-8"?>
<opencv_storage>
<cascade type_id="opencv-cascade-classifier">
  <stageType>BOOST</stageType>
  <featureType>LBP</featureType>
  <height>24</height>
  <width>24</width>
  <stageParams>
    <boostType>GAB</boostType>
    <minHitRate>0.9950000047683716</minHitRate>
    <maxFalseAlarm>0.5000000000000000</maxFalseAlarm>
    <weightTrimRate>0.9500000000000000</weightTrimRate>
    <maxDepth>1</maxDepth>
    <maxWeakCount>100</maxWeakCount></stageParams>
  <featureParams>
    <maxCatCount>256</maxCatCount></featureParams>
  <stageNum>20</stageNum>
  <stages>
    
    <_>
      <maxWeakCount>3</maxWeakCount>
      <stageThreshold>-0.7520892024040222</stageThreshold>
      <weakClassifiers>
        
        <_>
          <internalNodes> 0 -1 46 37577337536 -1536320 -16782672 -5392 -356530000 -318781300 -5396 -4096</internalNodes>
          <leafValues>
            -0.6543210148811340 0.8888888955116272</leafValues></_>
        
        <_>
          <internalNodes> 0 -1 13 -33554496 -64 -40878176 -192398432 -2506752 -65536 -128614463 -48398338</internalNodes>
          <leafValues>
            -0.7739216089248657 0.7278633713722229</leafValues></_>
        
        <_>
          <internalNodes> 0 -1 2 -47458877504 -101781568 -90984192 -223300912 -334487000 -34226972 272195684 -33554431</internalNodes>
          <leafValues>
            -0.7068563103675842 0.6761534214019775</leafValues></_></weakClassifiers></_>
    
    <_>
      <maxWeakCount>4</maxWeakCount>
      <stageThreshold>-0.4872078299522400</stageThreshold>
      <weakClassifiers>
        
        <_>
          <internalNodes> 0 -1 84 15565095616 137436585920 536870896 486531056 -134217728 536862716 184533122 265275391</internalNodes>
          <leafValues>
            -0.8083735704421997 0.7685696482658386</leafValues></_>
        
        <_>
          <internalNodes> 0 -1 21 -17179869248 51271167936 536870896 65794016 469762044 63687368 469762047 -33563136</internalNodes>
          <leafValues>
            -0.7698410153388977 0.6592915654182434</leafValues></_>
        
        <_>
          <internalNodes> 0 -1 106 -36545708480 -16777280 -24527568 402734880 -71371100 -212502592 -47333593 -417988608</internalNodes>
          <leafValues>
            -0.7506558895111084 0.5444605946540833</leafValues></_>
        
        <_>
          <internalNodes> 0 -1 48 -13870575680 -4429187136 -199672640 -32768 273942788 -59286016 -16392 0</internalNodes>
          <leafValues>
            -0.7775990366935730 0.5465461611747742</leafValues></_></weakClassifiers></_>
    
    <_>
      <maxWeakCount>4</maxWeakCount>
      <stageThreshold>-1.1592328548431396</stageThreshold>
      <weakClassifiers>
        
        <_>
          <internalNodes> 0 -1 47 -9665074560 -8591267136 -5392 -5136 -25204564 -184563540 -5140 -9216</internalNodes>
          <leafValues>
            -0.5601882934570313 0.7743113040924072</leafValues></_>
        
        <_>
          <internalNodes> 0 -1 12 -18354274880 -25769803840 -71500800 45858800 -67248652 -105332736 -100671520 272596991</internalNodes>
          <leafValues>
            -0.6124526262283325 0.6978127956390381</leafValues></_>
        
        <_>
          <internalNodes> 0 -1 26 -2151679488 -11039408192 -12586752 242720720 -12615872 -313344 -33554562 -12591128</internalNodes>
          <leafValues>
            -0.6114496588706970 0.6537628173828125</leafValues></_>
        
        <_>
          <internalNodes> 0 -1 8 -1210281088 70094799808 -64 -33816576 469494432 -522060852 -33554496 536731643</internalNodes>
          <leafValues>
            -0.6854077577590942 0.5403239130973816</leafValues></_></weakClassifiers></_>
    
    <_>
      <maxWeakCount>5</maxWeakCount>
      <stageThreshold>-0.7562355995178223</stageThreshold>
      <weakClassifiers>
        
        <_>
          <internalNodes> 0 -1 96 -16000 -9663742016 -304 467664864 -5242900 -16908288 -33562682 501218781</internalNodes>
          <leafValues>
            -0.4051094949245453 0.7584033608436585</leafValues></_>
        
        <_>
          <internalNodes> 0 -1 33 -170001216 -33554496 -217040544 -19202560 -1065536 -64 366302997 -67239968</internalNodes>
          <leafValues>
            -0.7388162612915039 0.5340843200683594</leafValues></_>
        
        <_>
          <internalNodes> 0 -1 57 -73848064 -4638654464 -3200 0 -135275844 -38236 -9748 -5120</internalNodes>
          <leafValues>
            -0.6582943797111511 0.5339496731758118</leafValues></_>
        
        <_>
          <internalNodes> 0 -1 125 -31294418944 -33340655424 -67371040 -113246240 -79954044 -398508032 -527 -247529472</internalNodes>
          <leafValues>
            -0.5981323719024658 0.5323504805564880</leafValues></_>
        
        <_>
          <internalNodes> 0 -1 53 -2148542528 -64 139446848 167566288 -335548416 -268973056 499632079 264241151</internalNodes>
          <leafValues>
            -0.6498787999153137 0.4913350641727448</leafValues></_></weakClassifiers></_>
    
    <_>
      <maxWeakCount>5</maxWeakCount>
      <stageThreshold>-0.8085358142852783</stageThreshold>
      <weakClassifiers>
        
        <_>
          <internalNodes> 0 -1 60 -1073744640 -2147496064 -134218416 220048832 -4210696 -5242880 -44171819 -42106914</internalNodes>
          <leafValues>
            -0.5278195738792419 0.6946372389793396</leafValues></_>
        
        <_>
          <internalNodes> 0 -1 7 -2532928 -33991615040 0 -15745376 -272647780 201332744 -2097206 -10486446</internalNodes>
          <leafValues>
            -0.5206505060195923 0.6329920291900635</leafValues></_>
        
        <_>
          <internalNodes> 0 -1 98 -64 -64 -181321824 336936880 -213120 -4202496 372470259 -41975810</internalNodes>
          <leafValues>
            -0.7516061067581177 0.4232024252414703</leafValues></_>
        
        <_>
          <internalNodes> 0 -1 44 -64 46968721088 -8192 251645632 -16 233828040 -2097152 -269549568</internalNodes>
          <leafValues>
            -0.7639313936233521 0.4123568832874298</leafValues></_>
        
        <_>
          <internalNodes> 0 -1 24 -64861982784 -12448858176 -21368672 534707120 -259109188 204406460 280842257 -14699202</internalNodes>
          <leafValues>
            -0.5123769044876099 0.5791834592819214</leafValues></_></weakClassifiers></_>
    
    <_>
      <maxWeakCount>5</maxWeakCount>
      <stageThreshold>-0.5549971461296082</stageThreshold>
      <weakClassifiers>
        
        <_>
          <internalNodes> 0 -1 42 -1397056 -1398144 -4352 -5120 -67114448 -33559872 -4368 0</internalNodes>
          <leafValues>
            -0.3763174116611481 0.7298233509063721</leafValues></_>
        
        <_>
          <internalNodes> 0 -1 6 -69793230912 -17182232640 -201327680 -524565584 -67376180 170625672 536870879 435143679</internalNodes>
          <leafValues>
            -0.5352765917778015 0.5659480094909668</leafValues></_>
        
        <_>
          <internalNodes> 0 -1 61 -3254797824 -1078380544 -16777408 -1536 0 -21971144 -5120 -268440576</internalNodes>
          <leafValues>
            -0.5678374171257019 0.4961479902267456</leafValues></_>
        
        <_>
          <internalNodes> 0 -1 123 -86976673280 -86167786048 -34607152 250604528 -339752060 -477167616 -336671479 227524605</internalNodes>
          <leafValues>
            -0.5706262588500977 0.4572288393974304</leafValues></_>
        
        <_>
          <internalNodes> 0 -1 9 2143884672 -9714984512 -22284624 -1049088 314132916 -332666356 304077065 -9047658</internalNodes>
          <leafValues>
            -0.5344601869583130 0.4672054052352905</leafValues></_></weakClassifiers></_>
    
    <_>
      <maxWeakCount>5</maxWeakCount>
      <stageThreshold>-0.8776460289955139</stageThreshold>
      <weakClassifiers>
        
        <_>
          <internalNodes> 0 -1 105 -44174409792 -16908352 268442384 51650416 -8503360 -8388608 -197378501 -25346080</internalNodes>
          <leafValues>
            -0.7700348496437073 0.5943940877914429</leafValues></_>
        
        <_>
          <internalNodes> 0 -1 30 -69004689472 -81789120 -358085248 -205905920 -12288 -8572928 -67371008 -335691776</internalNodes>
          <leafValues>
            -0.5043668746948242 0.6151274442672730</leafValues></_>
        
        <_>
          <internalNodes> 0 -1 35 -64 -64 -266846256 -48939552 -109187104 -33554432 -12713997 -32</internalNodes>
          <leafValues>
            -0.6808040738105774 0.4667325913906097</leafValues></_>
        
        <_>
          <internalNodes> 0 -1 119 -135311616 -1111499840 208133568 -8527888 -6512640 -105914880 -67117091 526253535</internalNodes>
          <leafValues>
            -0.4927591383457184 0.5401885509490967</leafValues></_>
        
        <_>
          <internalNodes> 0 -1 82 -151126784 -47329024 -272359968 -270131216 535764988 -278528 -285237251 0</internalNodes>
          <leafValues>
            -0.6445107460021973 0.4227822124958038</leafValues></_></weakClassifiers></_>
    
    <_>
      <maxWeakCount>6</maxWeakCount>
      <stageThreshold>-1.1139287948608398</stageThreshold>
      <weakClassifiers>
        
        <_>
          <internalNodes> 0 -1 52 -21475102848 37256604288 -268517888 -268500992 0 -320033856 -1331204 0</internalNodes>
          <leafValues>
            -0.5307556986808777 0.6258179545402527</leafValues></_>
        
        <_>
          <internalNodes> 0 -1 99 -2152202496 -2294284352 -176734336 -176341008 -135004180 -142623756 -142657664 -146964490</internalNodes>
          <leafValues>
            -0.5227634310722351 0.5049746036529541</leafValues></_>
        
        <_>
          <internalNodes> 0 -1 18 125081223104 -51539612736 -508907520 10529776 -67125760 -417860 65254399 331358203</internalNodes>
          <leafValues>
            -0.4983572661876679 0.5106441378593445</leafValues></_>
        
        <_>
          <internalNodes> 0 -1 111 -2191576000 -36507387456 -70632368 -389518272 356504684 -42631612 -136708121 -1278259</internalNodes>
          <leafValues>
            -0.4990860521793366 0.5060507059097290</leafValues></_>
        
        <_>
          <internalNodes> 0 -1 92 137428399808 68350439232 254083120 -151575424 228773564 -270021512 -459256786 -340400070</internalNodes>
          <leafValues>
            -0.5695009231567383 0.4460467398166657</leafValues></_>
        
        <_>
          <internalNodes> 0 -1 51 -5108700032 -84876744576 -164105040 -3853248 -35399880 -150858956 376487614 -196889236</internalNodes>
          <leafValues>
            -0.6590405106544495 0.3616424500942230</leafValues></_></weakClassifiers></_>
    
    <_>
      <maxWeakCount>7</maxWeakCount>
      <stageThreshold>-0.8243625760078430</stageThreshold>
      <weakClassifiers>
        
        <_>
          <internalNodes> 0 -1 28 -2684363392 -64 -225397936 -50479104 -64 -16842752 -35828028 -131072</internalNodes>
          <leafValues>
            -0.4972776770591736 0.6027074456214905</leafValues></_>
        
        <_>
          <internalNodes> 0 -1 112 -4566036160 -1880128 -1126960 -102835232 -67109376 -16875536 -4337714 -8225</internalNodes>
          <leafValues>
            -0.4383158981800079 0.5966237187385559</leafValues></_>
        
        <_>
          <internalNodes> 0 -1 69 135879606208 51322043328 -18973696 -29344848 -59765896 -3134624 371268031 519058303</internalNodes>
          <leafValues>
            -0.6386105418205261 0.3977999985218048</leafValues></_>
        
        <_>
          <internalNodes> 0 -1 19 -44561205312 -29125301056 -205870096 196657136 -4219012 -341065728 60541302 328982527</internalNodes>
          <leafValues>
            -0.5512794256210327 0.4282079637050629</leafValues></_>
        
        <_>
          <internalNodes> 0 -1 73 -9160504128 -66639102272 -130352992 1686688 -349059068 -509609028 -46403127 14417406</internalNodes>
          <leafValues>
            -0.6418755054473877 0.3549866080284119</leafValues></_>
        
        <_>
          <internalNodes> 0 -1 126 92324769792 -67763331904 -119538464 269007232 -411473900 341324568 -139464768 -84942868</internalNodes>
          <leafValues>
            -0.4841901361942291 0.4668019413948059</leafValues></_>
        
        <_>
          <internalNodes> 0 -1 45 94480891840 -286806336 -61587600 -412600512 -402653184 -197100172 366901215 -696849</internalNodes>
          <leafValues>
            -0.5855734348297119 0.3879135847091675</leafValues></_></weakClassifiers></_>
    
    <_>
      <maxWeakCount>7</maxWeakCount>
      <stageThreshold>-1.2237116098403931</stageThreshold>
      <weakClassifiers>
        
        <_>
          <internalNodes> 0 -1 114 -17190940416 -2231373120 -6192 393215968 -4202496 -16777216 536694597 358481885</internalNodes>
          <leafValues>
            -0.2518476545810700 0.7088654041290283</leafValues></_>
        
        <_>
          <internalNodes> 0 -1 97 -526784 -2150612928 -460336 -33567760 -8192 -1441840 -279168 -546</internalNodes>
          <leafValues>
            -0.4303432404994965 0.5283288359642029</leafValues></_>
        
        <_>
          <internalNodes> 0 -1 25 -2685403712 -8624574592 -339876896 -340148272 -268444680 -67388452 -202378244 436176895</internalNodes>
          <leafValues>
            -0.4259553551673889 0.5440809130668640</leafValues></_>
        
        <_>
          <internalNodes> 0 -1 34 -73017659456 -1048640 182438336 -33567744 -285226832 -58800192 164614095 536866815</internalNodes>
          <leafValues>
            -0.5605589151382446 0.4220733344554901</leafValues></_>
        
        <_>
          <internalNodes> 0 -1 134 56806676736 -26914849664 -77595136 -105168896 -48251368 -88392032 301334517 -247595009</internalNodes>
          <leafValues>
            -0.5192656517028809 0.4399855434894562</leafValues></_>
        
        <_>
          <internalNodes> 0 -1 16 -45280656576 -42986268992 -356779840 494730224 -71779932 -121767236 28689811 -135144512</internalNodes>
          <leafValues>
            -0.5013077259063721 0.4570254683494568</leafValues></_>
        
        <_>
          <internalNodes> 0 -1 74 137370710592 -16843840 -184615936 -222487312 -82075484 -30458112 -285664571 -465894139</internalNodes>
          <leafValues>
            -0.4631414115428925 0.4790246188640595</leafValues></_></weakClassifiers></_>
    
    <_>
      <maxWeakCount>7</maxWeakCount>
      <stageThreshold>-0.5544230937957764</stageThreshold>
      <weakClassifiers>
        
        <_>
          <internalNodes> 0 -1 113 -14194944 -17461947136 -19057184 -16384 0 -16793600 -37001 -8</internalNodes>
          <leafValues>
            -0.3949716091156006 0.6082032322883606</leafValues></_>
        
        <_>
          <internalNodes> 0 -1 110 51196718016 -285214912 92286912 -406308016 534642508 -297472 197677004 -303153281</internalNodes>
          <leafValues>
            -0.4855885505676270 0.4785369932651520</leafValues></_>
        
        <_>
          <internalNodes> 0 -1 37 -11313216 -17181192256 196053952 -72503808 134208196 -100746240 -335603747 -209716224</internalNodes>
          <leafValues>
            -0.4620285332202911 0.4989669024944305</leafValues></_>
        
        <_>
          <internalNodes> 0 -1 41 -4678147840 -37460647872 -121604672 -42978816 -85073724 -5484 -129941508 -193187793</internalNodes>
          <leafValues>
            -0.6420643329620361 0.3624351918697357</leafValues></_>
        
        <_>
          <internalNodes> 0 -1 117 -14018107392 -68602582336 -8388736 -118833152 -355865956 -519307604 -1212417 -520126481</internalNodes>
          <leafValues>
            -0.4820112884044647 0.4632140696048737</leafValues></_>
        
        <_>
          <internalNodes> 0 -1 65 -88760980544 -126663579072 -208532608 -33554368 -337328520 -268450888 -154978441 -362282961</internalNodes>
          <leafValues>
            -0.4465552568435669 0.5061788558959961</leafValues></_>
        
        <_>
          <internalNodes> 0 -1 56 -17180136576 -93701037312 -71312432 478142448 -4132 -432755716 -290476036 -335544324</internalNodes>
          <leafValues>
            -0.5190586447715759 0.4441480338573456</leafValues></_></weakClassifiers></_>
    
    <_>
      <maxWeakCount>7</maxWeakCount>
      <stageThreshold>-0.7161560654640198</stageThreshold>
      <weakClassifiers>
        
        <_>
          <internalNodes> 0 -1 20 -77477193792 76529255360 311558128 269500288 -2506764 15024 -69337088 -10911746</internalNodes>
          <leafValues>
            -0.4323809444904327 0.5663768053054810</leafValues></_>
        
        <_>
          <internalNodes> 0 -1 15 -127147968576 -774630336 -194645888 -153230272 -144693972 -1009116 -486645124 -291191642</internalNodes>
          <leafValues>
            -0.4588732719421387 0.4547033011913300</leafValues></_>
        
        <_>
          <internalNodes> 0 -1 129 -86792549696 -68987920448 -268439856 503307920 -340792388 -270614800 -353571637 217046495</internalNodes>
          <leafValues>
            -0.5218553543090820 0.4111092388629913</leafValues></_>
        
        <_>
          <internalNodes> 0 -1 102 -83788537728 -49711027008 -21037088 -523354416 -301212568 141072572 -16780305 -335544337</internalNodes>
          <leafValues>
            -0.4920000731945038 0.4326725304126740</leafValues></_>
        
        <_>
          <internalNodes> 0 -1 88 -9228285696 -15032458368 -6423600 16776112 -72554068 -42140756 520969360 425697095</internalNodes>
          <leafValues>
            -0.4494568109512329 0.4448510706424713</leafValues></_>
        
        <_>
          <internalNodes> 0 -1 59 -22872376832 -293082176 -214495200 226170672 -403066880 58069852 387715563 -143706305</internalNodes>
          <leafValues>
            -0.5180826783180237 0.3888972699642181</leafValues></_>
        
        <_>
          <internalNodes> 0 -1 27 -39718627136 136781841472 -24637360 -34459600 123732096 -61503404 234885337 -299018087</internalNodes>
          <leafValues>
            -0.6081240773200989 0.3333222270011902</leafValues></_></weakClassifiers></_>
    
    <_>
      <maxWeakCount>8</maxWeakCount>
      <stageThreshold>-0.6743940711021423</stageThreshold>
      <weakClassifiers>
        
        <_>
          <internalNodes> 0 -1 29 73428999040 -17175675200 -37748800 517797984 -325537904 134233580 -264752234 228532177</internalNodes>
          <leafValues>
            -0.1790193915367127 0.6605972051620483</leafValues></_>
        
        <_>
          <internalNodes> 0 -1 128 -21347748352 -8724418624 -33627360 402643920 -335544320 465371132 -276958447 394264543</internalNodes>
          <leafValues>
            -0.3681024610996246 0.5139749646186829</leafValues></_>
        
        <_>
          <internalNodes> 0 -1 70 -53732379136 -20544 0 265038608 -272746128 -157729628 -134873218 194904063</internalNodes>
          <leafValues>
            -0.3217232525348663 0.6171553134918213</leafValues></_>
        
        <_>
          <internalNodes> 0 -1 4 86040985536 -61841720896 -67390592 -71257472 -197771084 -4480944 58821667 318876235</internalNodes>
          <leafValues>
            -0.4373284578323364 0.4358185231685638</leafValues></_>
        
        <_>
          <internalNodes> 0 -1 76 55821893504 -73974929728 4456496 -186907104 148856804 368689916 143918052 -421001384</internalNodes>
          <leafValues>
            -0.4404836893081665 0.4601220190525055</leafValues></_>
        
        <_>
          <internalNodes> 0 -1 124 -67656472576 -64978240320 -84148256 468433888 -205557904 -88948808 -117705217 -499384352</internalNodes>
          <leafValues>
            -0.4294152259826660 0.4452161788940430</leafValues></_>
        
        <_>
          <internalNodes> 0 -1 54 -103366787392 -5071984960 -208553024 -148423680 -80535564 -91223124 -237757384 -75531280</internalNodes>
          <leafValues>
            -0.3973052501678467 0.4854526817798615</leafValues></_>
        
        <_>
          <internalNodes> 0 -1 95 127235356608 34356952512 335536112 536857968 -8388640 -11968 -213921478 0</internalNodes>
          <leafValues>
            -0.7054683566093445 0.2697997391223908</leafValues></_></weakClassifiers></_>
    
    <_>
      <maxWeakCount>9</maxWeakCount>
      <stageThreshold>-1.2042298316955566</stageThreshold>
      <weakClassifiers>
        
        <_>
          <internalNodes> 0 -1 39 -134220352 -32832 357842240 -45859472 -134250624 -34374272 390147580 -21152770</internalNodes>
          <leafValues>
            -0.5905947685241699 0.5101932883262634</leafValues></_>
        
        <_>
          <internalNodes> 0 -1 120 -2161920192 -1344282688 -411314912 526372800 532676604 364748748 -2141884 -10620970</internalNodes>
          <leafValues>
            -0.4449204802513123 0.4490709304809570</leafValues></_>
        
        <_>
          <internalNodes> 0 -1 89 -806435904 -8590196800 -153095248 -126451728 -90506876 -113246276 68963729 480107909</internalNodes>
          <leafValues>
            -0.4693818688392639 0.4061094820499420</leafValues></_>
        
        <_>
          <internalNodes> 0 -1 14 -2150673600 -9663816256 -201393280 -32 -138543168 -132629872 -4194860 500170717</internalNodes>
          <leafValues>
            -0.3600351214408875 0.5056326985359192</leafValues></_>
        
        <_>
          <internalNodes> 0 -1 67 -69322408000 -4567400768 1536 108791536 366862332 511672876 -402123443 -1188932</internalNodes>
          <leafValues>
            -0.4459891915321350 0.4132415652275085</leafValues></_>
        
        <_>
          <internalNodes> 0 -1 86 -69650759232 -52819918848 -10422288 -820256 463339488 -105178156 -103981072 -67552302</internalNodes>
          <leafValues>
            -0.4466069042682648 0.4135067760944367</leafValues></_>
        
        <_>
          <internalNodes> 0 -1 80 -69832022080 -68723001408 -29347776 -10550848 520093612 -47176 -135502041 -89207985</internalNodes>
          <leafValues>
            -0.3394956290721893 0.5658645033836365</leafValues></_>
        
        <_>
          <internalNodes> 0 -1 75 -26608739136 10937403584 -69207504 344678608 -335545484 189318024 268435151 -70549810</internalNodes>
          <leafValues>
            -0.5346512198448181 0.3584479391574860</leafValues></_>
        
        <_>
          <internalNodes> 0 -1 55 -51607027776 -25036081344 -199018944 -30791712 528416760 -54382604 -276858048 -4096</internalNodes>
          <leafValues>
            -0.4379335641860962 0.4123645126819611</leafValues></_></weakClassifiers></_>
    
    <_>
      <maxWeakCount>10</maxWeakCount>
      <stageThreshold>-0.8402050137519836</stageThreshold>
      <weakClassifiers>
        
        <_>
          <internalNodes> 0 -1 71 -4362232960 -30069114944 -222561648 3881456 -121922620 11779056 -303079974 -322961920</internalNodes>
          <leafValues>
            -0.2670986354351044 0.6014143228530884</leafValues></_>
        
        <_>
          <internalNodes> 0 -1 31 137422175168 -16777280 -340295168 -474502208 -272647200 -71352516 -268504066 -210110976</internalNodes>
          <leafValues>
            -0.4149844348430634 0.4670888185501099</leafValues></_>
        
        <_>
          <internalNodes> 0 -1 40 -2685440064 -4160 356547648 474841056 535682948 -35651876 -127058113 -5390848</internalNodes>
          <leafValues>
            -0.4985891580581665 0.3719584941864014</leafValues></_>
        
        <_>
          <internalNodes> 0 -1 109 59002088512 -12163731776 -50334480 2635968 -59124524 -186548896 493641456 -3801103</internalNodes>
          <leafValues>
            -0.4568729996681213 0.3965812027454376</leafValues></_>
        
        <_>
          <internalNodes> 0 -1 130 -22963900928 -128261673344 -148756672 -164100480 -67162308 -142872672 -110150098 -33282</internalNodes>
          <leafValues>
            -0.4770836830139160 0.3862601518630981</leafValues></_>
        
        <_>
          <internalNodes> 0 -1 66 -38982946944 46947003712 235418672 -276970528 333197276 -16922752 -340115923 -389153107</internalNodes>
          <leafValues>
            -0.4877715110778809 0.3778986334800720</leafValues></_>
        
        <_>
          <internalNodes> 0 -1 49 -34088670592 -6338710848 -4278736 -60015360 388217888 -20693900 -233098461 -327136222</internalNodes>
          <leafValues>
            -0.3721654713153839 0.4994400143623352</leafValues></_>
        
        <_>
          <internalNodes> 0 -1 133 -123427804480 -18320920640 -163976496 351375648 -234801288 471232304 -124714805 139854339</internalNodes>
          <leafValues>
            -0.3934195041656494 0.4769641458988190</leafValues></_>
        
        <_>
          <internalNodes> 0 -1 0 128849018688 -42958860608 -83959440 465169312 -20 -486546556 232774045 62903246</internalNodes>
          <leafValues>
            -0.4323300719261169 0.4342164099216461</leafValues></_>
        
        <_>
          <internalNodes> 0 -1 103 51648577216 68421755520 9442352 -34443168 93673072 500666584 -134044048 -411121182</internalNodes>
          <leafValues>
            -0.4993278682231903 0.3665378093719482</leafValues></_></weakClassifiers></_>
    
    <_>
      <maxWeakCount>9</maxWeakCount>
      <stageThreshold>-1.1974394321441650</stageThreshold>
      <weakClassifiers>
        
        <_>
          <internalNodes> 0 -1 43 -12886300160 -4565325184 -1376 536865712 535816364 -1127764 -4112 -64</internalNodes>
          <leafValues>
            -0.3310225307941437 0.5624626278877258</leafValues></_>
        
        <_>
          <internalNodes> 0 -1 90 -73463346688 -8633124032 -34210560 -124832672 503812744 -21776780 -160416436 -197131159</internalNodes>
          <leafValues>
            -0.5266560912132263 0.3704403042793274</leafValues></_>
        
        <_>
          <internalNodes> 0 -1 104 -105373670080 -53704444608 -36700208 -445092128 527792508 -35226168 -4194387 -486670471</internalNodes>
          <leafValues>
            -0.4171888828277588 0.4540435671806335</leafValues></_>
        
        <_>
          <internalNodes> 0 -1 85 -2147532864 -4429185088 -208013504 -245415936 -75497568 -144703520 -233079750 -499351680</internalNodes>
          <leafValues>
            -0.4556705355644226 0.3704262077808380</leafValues></_>
        
        <_>
          <internalNodes> 0 -1 24 88248786624 -8926028352 -29623104 -302256704 279755956 -333578336 278237184 -74329828</internalNodes>
          <leafValues>
            -0.4182529747486115 0.4267231225967407</leafValues></_>
        
        <_>
          <internalNodes> 0 -1 78 -21908160768 -68798222528 -428595648 -588416 -28023736 -137403272 -391764690 -429637616</internalNodes>
          <leafValues>
            -0.3625369668006897 0.4684656262397766</leafValues></_>
        
        <_>
          <internalNodes> 0 -1 5 -39773552576 -5670897280 -21304912 79209088 -8316 476242572 529316828 -65225442</internalNodes>
          <leafValues>
            -0.4742925167083740 0.3689507246017456</leafValues></_>
        
        <_>
          <internalNodes> 0 -1 11 -9160493632 -9730818368 -73663504 -88400896 -410289920 -12582980 -520224969 286392319</internalNodes>
          <leafValues>
            -0.3666271567344666 0.4580127298831940</leafValues></_>
        
        <_>
          <internalNodes> 0 -1 32 -37333649728 67852195904 471863408 -159636416 -469494204 -8580240 -267766995 -165336354</internalNodes>
          <leafValues>
            -0.4567637443542481 0.3894708156585693</leafValues></_></weakClassifiers></_>
    
    <_>
      <maxWeakCount>9</maxWeakCount>
      <stageThreshold>-0.5733128190040588</stageThreshold>
      <weakClassifiers>
        
        <_>
          <internalNodes> 0 -1 122 -7787500416 -8623624256 -248515824 272186352 -79709276 -79970344 275641653 291372525</internalNodes>
          <leafValues>
            -0.4055117964744568 0.5487945079803467</leafValues></_>
        
        <_>
          <internalNodes> 0 -1 68 -1312320 -99929718656 -71308304 -134748224 452983796 -92308500 -132 -5148</internalNodes>
          <leafValues>
            -0.3787897229194641 0.4532003402709961</leafValues></_>
        
        <_>
          <internalNodes> 0 -1 58 29249703616 64001322688 -333811408 492229280 485215420 134204092 -306517841 -142727044</internalNodes>
          <leafValues>
            -0.4258328974246979 0.4202791750431061</leafValues></_>
        
        <_>
          <internalNodes> 0 -1 94 -17235471616 -1141770688 -340079664 -494949472 -12608812 -4661616 -152219823 -201326672</internalNodes>
          <leafValues>
            -0.4561023116111755 0.4002747833728790</leafValues></_>
        
        <_>
          <internalNodes> 0 -1 87 -49462165568 -36509716608 515691472 -4112 -318770180 -4100 11441083 -272638016</internalNodes>
          <leafValues>
            -0.4314672648906708 0.4086346626281738</leafValues></_>
        
        <_>
          <internalNodes> 0 -1 127 127604667776 -63384422976 -134224000 270204400 -184558572 -241369676 -520691992 322713971</internalNodes>
          <leafValues>
            -0.4174543321132660 0.4249868988990784</leafValues></_>
        
        <_>
          <internalNodes> 0 -1 3 69536435648 94321210048 -204735744 42182720 -73402604 -19812336 167306167 155291683</internalNodes>
          <leafValues>
            -0.4321364760398865 0.4090838730335236</leafValues></_>
        
        <_>
          <internalNodes> 0 -1 79 -69247390016 66765016896 -17223920 -16776928 -353578968 -210419040 -154960836 -295152632</internalNodes>
          <leafValues>
            -0.5018386244773865 0.3702533841133118</leafValues></_>
        
        <_>
          <internalNodes> 0 -1 116 -70145559424 -136990236480 -13500528 -135871424 -531220604 -359361464 -28904268 -298946847</internalNodes>
          <leafValues>
            -0.5037505626678467 0.3564981222152710</leafValues></_></weakClassifiers></_>
    
    <_>
      <maxWeakCount>9</maxWeakCount>
      <stageThreshold>-0.4892596900463104</stageThreshold>
      <weakClassifiers>
        
        <_>
          <internalNodes> 0 -1 132 -17481904128 123982306496 -16778288 500952016 465533776 211615480 -688 500559318</internalNodes>
          <leafValues>
            -0.2448196411132813 0.5689709186553955</leafValues></_>
        
        <_>
          <internalNodes> 0 -1 62 -57122591936 -91700971776 294855968 -19516224 -152959888 -134791972 -322339590 -412702527</internalNodes>
          <leafValues>
            -0.4633283913135529 0.3587929606437683</leafValues></_>
        
        <_>
          <internalNodes> 0 -1 23 -35050430784 -8691003136 -71303168 -19612688 -164053004 -66012524 -6946856 -333587490</internalNodes>
          <leafValues>
            -0.3731099069118500 0.4290455579757690</leafValues></_>
        
        <_>
          <internalNodes> 0 -1 77 -88869180736 -73837918272 85465856 100925504 -137647104 400048632 -270172683 237781998</internalNodes>
          <leafValues>
            -0.3658909499645233 0.4556473195552826</leafValues></_>
        
        <_>
          <internalNodes> 0 -1 22 29261012160 -4851645248 -146720160 -51207872 -25161148 -9829884 -297787698 176423128</internalNodes>
          <leafValues>
            -0.5214384198188782 0.3221037387847900</leafValues></_>
        
        <_>
          <internalNodes> 0 -1 72 -11735678848 -13086377024 -104136704 136477840 -168429048 -193889860 -66028399 34856</internalNodes>
          <leafValues>
            -0.4289036989212036 0.4004956185817719</leafValues></_>
        
        <_>
          <internalNodes> 0 -1 50 -71030623296 -40570202432 -256626240 -147423024 -435124984 -390942624 337122751 -15177678</internalNodes>
          <leafValues>
            -0.4621542394161224 0.3832748532295227</leafValues></_>
        
        <_>
          <internalNodes> 0 -1 108 -51539628352 -90613895232 -362218064 -119473760 -444597652 -193104528 -447480854 -403014295</internalNodes>
          <leafValues>
            -0.3711548447608948 0.4612701535224915</leafValues></_>
        
        <_>
          <internalNodes> 0 -1 92 119779781312 67709174400 101976352 -145612496 13163684 -323616 -71275931 -18658251</internalNodes>
          <leafValues>
            -0.5180652141571045 0.3205870389938355</leafValues></_></weakClassifiers></_>
    
    <_>
      <maxWeakCount>10</maxWeakCount>
      <stageThreshold>-0.5911940932273865</stageThreshold>
      <weakClassifiers>
        
        <_>
          <internalNodes> 0 -1 81 -5801855232 -68752889344 1024 -314890944 -211667856 -25225612 459541037 -18538438</internalNodes>
          <leafValues>
            -0.2592592537403107 0.5873016119003296</leafValues></_>
        
        <_>
          <internalNodes> 0 -1 1 134216548160 -134218816 -71304192 -205801744 -271396 -270336 301989823 289275867</internalNodes>
          <leafValues>
            -0.3801195919513702 0.4718827307224274</leafValues></_>
        
        <_>
          <internalNodes> 0 -1 121 -20402068992 -89120587840 -3104 -134218784 536869588 532676572 -9441373 -216531116</internalNodes>
          <leafValues>
            -0.3509117066860199 0.5094807147979736</leafValues></_>
        
        <_>
          <internalNodes> 0 -1 38 -538005824 -4330434624 536862400 -5184 -4198688 486468284 -4177 0</internalNodes>
          <leafValues>
            -0.4068757295608521 0.4130136370658875</leafValues></_>
        
        <_>
          <internalNodes> 0 -1 17 86670688256 -16760603456 -38797920 216529296 412851868 137068200 -119800367 -111935612</internalNodes>
          <leafValues>
            -0.4557141065597534 0.3539792001247406</leafValues></_>
        
        <_>
          <internalNodes> 0 -1 100 -721547648 -13690209344 -56329840 -62920512 -123195996 -198085444 -321815423 348410960</internalNodes>
          <leafValues>
            -0.4117803275585175 0.4118592441082001</leafValues></_>
        
        <_>
          <internalNodes> 0 -1 63 -132230703552 -66723676224 -95555024 -500518176 -12851200 -92800388 -230752767 -533825364</internalNodes>
          <leafValues>
            -0.4008397758007050 0.4034757018089294</leafValues></_>
        
        <_>
          <internalNodes> 0 -1 101 -40840120832 -67910856064 -156838432 -12073776 395300988 -109064652 -26317067 -358973361</internalNodes>
          <leafValues>
            -0.5694189667701721 0.2964762747287750</leafValues></_>
        
        <_>
          <internalNodes> 0 -1 118 -63641458496 -105495169344 -2099792 264526912 -155255688 -62750864 -3145728 -143654934</internalNodes>
          <leafValues>
            -0.3195341229438782 0.5294018983840942</leafValues></_>
        
        <_>
          <internalNodes> 0 -1 92 -29284630656 -68924824576 -87085952 -269597376 429490108 91183992 -445960400 -1220784</internalNodes>
          <leafValues>
            -0.3365339040756226 0.5067458748817444</leafValues></_></weakClassifiers></_>
    
    <_>
      <maxWeakCount>10</maxWeakCount>
      <stageThreshold>-0.7612916231155396</stageThreshold>
      <weakClassifiers>
        
        <_>
          <internalNodes> 0 -1 10 91870080000 -68956067904 -494165328 -71989392 -414874280 -195516 10897772 -113409470</internalNodes>
          <leafValues>
            -0.4204545319080353 0.5165745615959168</leafValues></_>
        
        <_>
          <internalNodes> 0 -1 131 94304237568 -50533109568 -16777728 3718736 -35658292 -334730760 511678322 -516983298</internalNodes>
          <leafValues>
            -0.3762553930282593 0.4075302779674530</leafValues></_>
        
        <_>
          <internalNodes> 0 -1 83 -34494153856 -22753474432 -68203568 -394256 -279668 -76289028 -263072 -268453439</internalNodes>
          <leafValues>
            -0.4253497421741486 0.3728055357933044</leafValues></_>
        
        <_>
          <internalNodes> 0 -1 135 -62319238272 -13019136320 -544 -53621552 -134628688 143436748 -39847742 498556372</internalNodes>
          <leafValues>
            -0.3601998090744019 0.4563256204128265</leafValues></_>
        
        <_>
          <internalNodes> 0 -1 115 -97905137792 43720948672 -65257920 -332592320 -160465152 257392572 -326615298 -299037379</internalNodes>
          <leafValues>
            -0.4034293889999390 0.4160816967487335</leafValues></_>
        
        <_>
          <internalNodes> 0 -1 64 -122940151296 -81885252032 -143248400 -8510656 -104464 -27776 -358341317 -4967428</internalNodes>
          <leafValues>
            -0.3620899617671967 0.4594142735004425</leafValues></_>
        
        <_>
          <internalNodes> 0 -1 36 -51191562560 -1061161280 -156568768 -153814240 412986504 201341596 504139932 -107695212</internalNodes>
          <leafValues>
            -0.3903816640377045 0.4381459355354309</leafValues></_>
        
        <_>
          <internalNodes> 0 -1 93 -73825386752 -70937566336 338699312 -272739392 494104564 -335625544 -462968473 -298659269</internalNodes>
          <leafValues>
            -0.3591445386409760 0.4624078869819641</leafValues></_>
        
        <_>
          <internalNodes> 0 -1 91 41482710720 -73302870400 17039424 302842064 -76189880 265754284 199699437 -68878386</internalNodes>
          <leafValues>
            -0.4297670423984528 0.4023293554782867</leafValues></_>
        
        <_>
          <internalNodes> 0 -1 107 -24348591104 -67742296704 -136579552 -407142400 -40894484 -134250576 -136364097 -331366411</internalNodes>
          <leafValues>
            -0.5727006793022156 0.2995934784412384</leafValues></_></weakClassifiers></_></stages>
  <features>
    <_>
      <rect> 9 0 5 3 </rect></_>
    <_>
      <rect> 18 0 2 4 </rect></_>
    <_>
      <rect> 15 0 3 6 </rect></_>
    <_>
      <rect> 14 0 3 2 </rect></_>
    <_>
      <rect> 14 0 3 3 </rect></_>
    <_>
      <rect> 2 0 7 3 </rect></_>
    <_>
      <rect> 11 0 3 3 </rect></_>
    <_>
      <rect> 1 0 4 3 </rect></_>
    <_>
      <rect> 0 0 4 8 </rect></_>
    <_>
      <rect> 1 0 3 4 </rect></_>
    <_>
      <rect> 15 1 3 5 </rect></_>
    <_>
      <rect> 17 1 2 2 </rect></_>
    <_>
      <rect> 18 1 1 3 </rect></_>
    <_>
      <rect> 5 1 4 4 </rect></_>
    <_>
      <rect> 6 1 2 2 </rect></_>
    <_>
      <rect> 8 1 1 4 </rect></_>
    <_>
      <rect> 1 1 3 4 </rect></_>
    <_>
      <rect> 1 1 2 3 </rect></_>
    <_>
      <rect> 15 2 3 2 </rect></_>
    <_>
      <rect> 17 2 2 2 </rect></_>
    <_>
      <rect> 4 2 6 4 </rect></_>
    <_>
      <rect> 9 2 4 4 </rect></_>
    <_>
      <rect> 14 2 1 2 </rect></_>
    <_>
      <rect> 4 2 3 2 </rect></_>
    <_>
      <rect> 1 2 2 3 </rect></_>
    <_>
      <rect> 18 3 2 2 </rect></_>
    <_>
      <rect> 14 3 3 7 </rect></_>
    <_>
      <rect> 14 3 1 2 </rect></_>
    <_>
      <rect> 5 3 4 2 </rect></_>
    <_>
      <rect> 0 3 2 2 </rect></_>
    <_>
      <rect> 15 4 3 2 </rect></_>
    <_>
      <rect> 18 4 1 2 </rect></_>
    <_>
      <rect> 15 4 1 2 </rect></_>
    <_>
      <rect> 3 4 5 2 </rect></_>
    <_>
      <rect> 11 4 2 5 </rect></_>
    <_>
      <rect> 7 4 3 4 </rect></_>
    <_>
      <rect> 0 4 2 2 </rect></_>
    <_>
      <rect> 18 5 2 2 </rect></_>
    <_>
      <rect> 9 5 4 4 </rect></_>
    <_>
      <rect> 3 5 5 2 </rect></_>
    <_>
      <rect> 9 5 2 2 </rect></_>
    <_>
      <rect> 8 5 2 2 </rect></_>
    <_>
      <rect> 9 6 4 4 </rect></_>
    <_>
      <rect> 11 6 3 4 </rect></_>
    <_>
      <rect> 10 6 3 2 </rect></_>
    <_>
      <rect> 4 6 5 2 </rect></_>
    <_>
      <rect> 10 6 3 4 </rect></_>
    <_>
      <rect> 12 6 2 4 </rect></_>
    <_>
      <rect> 6 6 4 4 </rect></_>
    <_>
      <rect> 0 6 2 1 </rect></_>
    <_>
      <rect> 0 6 1 2 </rect></_>
    <_>
      <rect> 3 7 7 3 </rect></_>
    <_>
      <rect> 11 7 3 2 </rect></_>
    <_>
      <rect> 12 7 1 5 </rect></_>
    <_>
      <rect> 0 7 1 2 </rect></_>
    <_>
      <rect> 12 8 4 1 </rect></_>
    <_>
      <rect> 13 8 2 2 </rect></_>
    <_>
      <rect> 13 8 2 3 </rect></_>
    <_>
      <rect> 4 8 1 3 </rect></_>
    <_>
      <rect> 0 8 2 1 </rect></_>
    <_>
      <rect> 15 9 3 5 </rect></_>
    <_>
      <rect> 4 9 6 2 </rect></_>
    <_>
      <rect> 16 9 1 1 </rect></_>
    <_>
      <rect> 10 9 1 1 </rect></_>
    <_>
      <rect> 5 9 1 1 </rect></_>
    <_>
      <rect> 5 9 1 2 </rect></_>
    <_>
      <rect> 4 9 1 1 </rect></_>
    <_>
      <rect> 3 9 1 1 </rect></_>
    <_>
      <rect> 13 10 2 1 </rect></_>
    <_>
      <rect> 10 10 3 3 </rect></_>
    <_>
      <rect> 2 10 5 1 </rect></_>
    <_>
      <rect> 13 10 1 1 </rect></_>
    <_>
      <rect> 12 10 1 1 </rect></_>
    <_>
      <rect> 11 10 1 1 </rect></_>
    <_>
      <rect> 8 10 2 1 </rect></_>
    <_>
      <rect> 1 10 3 3 </rect></_>
    <_>
      <rect> 6 10 1 1 </rect></_>
    <_>
      <rect> 6 10 1 2 </rect></_>
    <_>
      <rect> 5 10 1 1 </rect></_>
    <_>
      <rect> 5 10 1 2 </rect></_>
    <_>
      <rect> 4 10 1 1 </rect></_>
    <_>
      <rect> 0 10 1 1 </rect></_>
    <_>
      <rect> 15 11 2 2 </rect></_>
    <_>
      <rect> 13 11 2 1 </rect></_>
    <_>
      <rect> 10 11 3 3 </rect></_>
    <_>
      <rect> 1 11 6 4 </rect></_>
    <_>
      <rect> 15 11 1 1 </rect></_>
    <_>
      <rect> 11 11 2 2 </rect></_>
    <_>
      <rect> 10 11 2 1 </rect></_>
    <_>
      <rect> 11 11 1 1 </rect></_>
    <_>
      <rect> 8 11 2 1 </rect></_>
    <_>
      <rect> 6 11 1 1 </rect></_>
    <_>
      <rect> 4 11 1 1 </rect></_>
    <_>
      <rect> 3 11 1 1 </rect></_>
    <_>
      <rect> 18 12 2 2 </rect></_>
    <_>
      <rect> 8 12 5 2 </rect></_>
    <_>
      <rect> 19 12 1 4 </rect></_>
    <_>
      <rect> 12 12 3 1 </rect></_>
    <_>
      <rect> 5 12 4 3 </rect></_>
    <_>
      <rect> 8 12 2 3 </rect></_>
    <_>
      <rect> 10 12 1 1 </rect></_>
    <_>
      <rect> 6 12 2 3 </rect></_>
    <_>
      <rect> 1 12 3 4 </rect></_>
    <_>
      <rect> 4 12 1 1 </rect></_>
    <_>
      <rect> 0 12 1 2 </rect></_>
    <_>
      <rect> 3 13 5 2 </rect></_>
    <_>
      <rect> 2 13 5 3 </rect></_>
    <_>
      <rect> 7 13 2 3 </rect></_>
    <_>
      <rect> 1 13 2 2 </rect></_>
    <_>
      <rect> 1 13 2 3 </rect></_>
    <_>
      <rect> 0 13 2 1 </rect></_>
    <_>
      <rect> 0 13 2 2 </rect></_>
    <_>
      <rect> 18 14 2 2 </rect></_>
    <_>
      <rect> 14 14 3 1 </rect></_>
    <_>
      <rect> 16 14 2 3 </rect></_>
    <_>
      <rect> 14 14 1 2 </rect></_>
    <_>
      <rect> 8 14 1 2 </rect></_>
    <_>
      <rect> 2 14 3 3 </rect></_>
    <_>
      <rect> 1 14 2 2 </rect></_>
    <_>
      <rect> 18 15 2 2 </rect></_>
    <_>
      <rect> 15 15 3 2 </rect></_>
    <_>
      <rect> 14 15 2 3 </rect></_>
    <_>
      <rect> 2 15 6 3 </rect></_>
    <_>
      <rect> 12 15 2 3 </rect></_>
    <_>
      <rect> 1 15 4 3 </rect></_>
    <_>
      <rect> 5 15 2 3 </rect></_>
    <_>
      <rect> 1 15 2 2 </rect></_>
    <_>
      <rect> 1 15 2 3 </rect></_>
    <_>
      <rect> 14 16 3 2 </rect></_>
    <_>
      <rect> 9 16 4 2 </rect></_>
    <_>
      <rect> 15 16 1 1 </rect></_>
    <_>
      <rect> 2 16 2 2 </rect></_>
    <_>
      <rect> 17 17 2 2 </rect></_>
    <_>
      <rect> 8 17 5 2 </rect></_>
    <_>
      <rect> 6 17 2 2 </rect></_>
    <_>
      <rect> 18 18 2 2 </rect></_></features></cascade>
</opencv_storage>